tree
version=v4
num_class=1
num_tree_per_iteration=1
label_index=0
max_feature_idx=57
objective=binary sigmoid:1
feature_names=Column_0 Column_1 Column_2 Column_3 Column_4 Column_5 Column_6 Column_7 Column_8 Column_9 Column_10 Column_11 Column_12 Column_13 Column_14 Column_15 Column_16 Column_17 Column_18 Column_19 Column_20 Column_21 Column_22 Column_23 Column_24 Column_25 Column_26 Column_27 Column_28 Column_29 Column_30 Column_31 Column_32 Column_33 Column_34 Column_35 Column_36 Column_37 Column_38 Column_39 Column_40 Column_41 Column_42 Column_43 Column_44 Column_45 Column_46 Column_47 Column_48 Column_49 Column_50 Column_51 Column_52 Column_53 Column_54 Column_55 Column_56 Column_57
feature_infos=[10000:1000000] [1:2] [0:6] [0:3] [21:79] [-2:8] [-2:8] [-2:8] [-2:8] [-2:8] [-2:8] [-165580:964511] [-69777:983931] [-157264:1664089] [-170000:891586] [-61372:927171] [-339603:961664] [0:873552] [0:1684259] [0:896040] [0:621000] [0:426529] [0:528666] [-0.61989200115203857:6.4552998542785645] [-336259:5263883] [-0.23259000480175018:5.3643083572387695] [0:3764066] [-35436:11453.6669921875] [-546.9285888671875:390.15887451171875] [0:6] [-2:8] [0:36] [0:6] [-428791:708323] [-489972:470400] [-1682177:448911] [-429981:1542332] [-487241:432730] [-414369:446948] [-528666:728552] [-1679893:504669] [-845317:1562428] [-519862:846040] [-414370:601000] [-528466:414910] [9.2104406356811523:13.815511703491211] [-12.017215728759766:13.779377937316895] [-11.153074264526367:13.799311637878418] [-11.96568775177002:14.324789047241211] [-12.043560028076172:13.70075798034668] [-11.024724960327148:13.739893913269043] [-12.735535621643066:13.776421546936035] [0:13.680324554443359] [0:14.336836814880371] [0:13.705741882324219] [0:13.339088439941406] [0:12.963438034057617] [0:13.17811393737793]
tree_sizes=6616 6787 6796 6766 6794 6787 6815 6774 6833 6834 6845 6827 6818 6831 6844 6841 6840 6811 6850 6825 6859 6836 6835 6870 6837 6855 6818 6830 6854 6821 6817 6829 6840 6858 6856 6861 6841 6821 6826 6847 6839 6844 6867

Tree=0
num_leaves=63
num_cat=0
split_feature=5 29 31 24 23 28 28 23 0 0 15 12 33 24 0 18 17 31 34 18 16 28 34 10 7 37 28 17 42 36 20 23 37 27 19 27 17 27 23 36 23 17 18 21 23 27 33 16 2 44 16 36 42 42 28 13 18 28 28 43 36 18
split_gain=3236.41 751.902 241.47 101.931 76.0787 60.2214 50.9186 41.3104 29.2109 26.2147 30.5236 24.2067 24.1673 22.5607 20.518 17.5481 16.9202 24.0812 21.2457 16.4066 16.2766 22.4529 15.0651 14.1554 13.819 13.1524 14.6522 12.7287 12.6062 12.2169 12.738 12.2704 12.0729 16.6778 11.672 16.2974 11.1742 14.6202 10.5866 14.5244 10.5812 10.5597 10.4594 10.9119 11.1879 10.3304 10.2443 10.458 11.0712 10.1498 10.1089 10.4234 9.94055 15.9815 12.9451 10.8365 9.85732 9.40115 9.38143 9.27878 9.11338 8.9384
threshold=1.5000000000000002 1.0000000180025095e-35 4.5000000000000009 12812.000000000002 0.77428787946701061 0.027666559442877773 0.19984780251979831 0.8786434829235078 95000.000000000015 45000.000000000007 1.0000000180025095e-35 4830.5000000000009 516.50000000000011 1.0000000180025095e-35 295000.00000000006 5995.5000000000009 1098.5000000000002 1.5000000000000002 390.50000000000006 1640.5000000000002 1590.5000000000002 0.036531364545226104 -2867.4999999999995 1.0000000180025095e-35 -1.4999999999999998 -3384.9999999999995 0.032335517928004272 4065.5000000000005 1819.0000000000002 26879.500000000004 3309.0000000000005 0.9376533329486848 -1007.9999999999999 0.21296937018632892 1876.5000000000002 0.8109627664089204 2570.5000000000005 0.14370966702699664 0.56369268894195568 -677.49999999999989 0.98315852880477916 67.000000000000014 4213.5000000000009 1489.0000000000002 0.1222548931837082 2.2847054004669194 -3526.4999999999995 1.0000000180025095e-35 2.5000000000000004 1376.5000000000002 2113.5000000000005 390.50000000000006 100.50000000000001 -399.49999999999994 0.11460025981068613 30513.500000000004 67.500000000000014 0.037915313616395004 0.49249458312988287 -502.49999999999994 7288.0000000000009 1700.5000000000002
decision_type=2 2 2 2 2 2 2 2 2 2 2 2 2 2 2 2 2 2 2 2 2 2 2 2 2 2 2 2 2 2 2 2 2 2 2 2 2 2 2 2 2 2 2 2 2 2 2 2 2 2 2 2 2 2 2 2 2 2 2 2 2 2
left_child=1 3 5 13 8 -3 7 23 36 10 -7 -10 15 14 -1 22 17 -11 56 60 -14 -22 28 46 41 -9 59 32 -4 30 31 -28 -12 -34 35 -8 37 38 -5 -40 -21 -15 43 44 -24 -43 -2 -48 -49 -20 -39 -52 53 57 55 -55 -19 -18 -56 -27 -6 -50
right_child=6 2 12 4 19 9 34 25 11 16 27 -13 20 24 -16 -17 52 18 49 40 21 -23 42 -25 -26 26 29 -29 -30 -31 -32 -33 33 -35 -36 -37 -38 50 39 -41 -42 45 -44 -45 -46 -47 47 48 61 -51 51 -53 -54 54 58 -57 -58 -59 -60 -61 -62 -63
leaf_value=-1.2568010223264841 -1.0924423128554044 -1.2136055503809275 -1.2460065251717136 -1.29787170501742 -1.2699741977898378 -1.1414376568136309 -1.1226726593250236 -1.082640664682661 -1.2899342947978847 -1.2714990883865955 -1.2712961160696823 -1.3077548611351824 -1.1737226341441829 -1.2696831581685553 -1.1893259304045569 -1.2281917756377723 -1.2196390463476348 -1.2406002435423162 -1.2585297429391489 -1.2882423271917662 -1.1883348944396301 -1.2551118416001725 -1.1990003291097946 -1.0897741855324654 -1.2604844907873214 -1.1209321378188337 -1.1493243948885528 -1.2996140756442656 -1.1705798004544081 -1.1862528861099522 -1.1615926541162092 -1.0972374836898107 -1.2369086966679492 -1.1683543306306226 -1.2144793670381748 -1.203885107472439 -1.3007497659270544 -1.293809436421123 -1.2349642406268797 -1.2877239275581509 -1.273385705821177 -1.3054765684144827 -1.1112051608597633 -1.190119727221397 -1.1472145668685101 -1.2458323163114753 -1.0817168494216833 -1.1212826595110525 -1.2023589882829337 -1.2083749577143066 -1.2353464432885151 -1.2981320400979313 -1.2827481483910086 -1.1559492548714874 -1.287438490932308 -1.2341506444054913 -1.1811994354921573 -1.2767958386981189 -1.2244489168903518 -1.1821141059151981 -1.2375769939469294 -1.1269260587557746
leaf_weight=32.560162156820297 33.421542108058929 96.130002558231354 11.7147673368454 102.15966221690178 102.15966221690178 8.2692475318908674 14.988011151552202 9.9920074343681318 247.73287397623062 75.97371169924736 18.433530956506729 825.71882125735283 18.778082937002182 83.72613126039505 17.227599024772644 15.849391102790831 7.7524195611476889 10.336559414863588 57.540180742740631 336.79956093430519 21.189946800470352 31.009678244590759 12.920699268579481 114.56353351473808 183.64620560407639 7.9246955513954154 15.849391102790831 8.6137995123863202 10.508835405111311 8.7860755026340467 17.055323034524918 39.451201766729355 52.371901035308838 10.681111395359038 12.920699268579481 10.508835405111311 95.096346616744995 15.504839122295378 18.778082937002182 42.724445581436157 186.05806946754456 51.855073064565659 8.2692475318908674 40.312581717967987 54.094660937786102 8.4415235221385938 11.197939366102217 43.413549542427063 9.1306274831295031 12.231595307588575 36.005681961774826 8.0969715416431409 98.541866421699524 6.8910396099090603 14.12663120031357 12.403871297836302 21.534498780965805 99.920074343681335 10.164283424615858 28.425538390874863 27.56415843963623 6.8910396099090567
leaf_count=189 194 558 68 593 593 48 87 58 1438 441 107 4793 109 486 100 92 45 60 334 1955 123 180 75 665 1066 46 92 50 61 51 99 229 304 62 75 61 552 90 109 248 1080 301 48 234 314 49 65 252 53 71 209 47 572 40 82 72 125 580 59 165 160 40
internal_value=-1.25836 -1.27451 -1.23394 -1.28869 -1.29309 -1.24999 -1.12115 -1.11509 -1.2997 -1.25665 -1.23337 -1.30364 -1.18951 -1.26481 -1.23345 -1.17837 -1.262 -1.2502 -1.23429 -1.27901 -1.21364 -1.228 -1.17264 -1.1019 -1.26958 -1.13771 -1.1424 -1.24181 -1.21034 -1.13058 -1.12382 -1.11217 -1.2357 -1.2253 -1.17576 -1.15615 -1.2864 -1.28028 -1.288 -1.27162 -1.28296 -1.28117 -1.16539 -1.16956 -1.1572 -1.29713 -1.11525 -1.12604 -1.13439 -1.24974 -1.25908 -1.24687 -1.27039 -1.26234 -1.2368 -1.20622 -1.20046 -1.27268 -1.26108 -1.16878 -1.26309 -1.16991
internal_weight=3652.94 3268.42 846.564 2421.86 2044.4 621.916 384.52 346.102 1391.82 525.786 98.3696 1073.45 224.648 377.457 49.7878 153.67 427.417 177.617 101.643 652.581 70.9777 52.1996 137.821 218.618 327.669 127.484 117.492 90.1003 22.2236 81.142 72.3559 55.3006 81.4865 63.053 38.4175 25.4968 318.366 223.27 163.662 61.5025 522.858 144.023 115.597 107.328 67.0154 60.2966 104.055 70.6332 59.4352 69.7718 59.6075 44.1027 249.8 151.258 43.5858 19.2949 31.8711 107.672 24.2909 36.3502 129.724 16.0217
internal_count=21204 18972 4914 14058 11867 3610 2232 2009 8079 3052 571 6231 1304 2191 289 892 2481 1031 590 3788 412 303 800 1269 1902 740 682 523 129 471 420 321 473 366 223 148 1848 1296 950 357 3035 836 671 623 389 350 604 410 345 405 346 256 1450 878 253 112 185 625 141 211 753 93
is_linear=0
shrinkage=1


Tree=1
num_leaves=63
num_cat=0
split_feature=5 29 31 24 0 17 10 34 46 0 19 24 0 34 0 15 10 34 19 46 24 46 36 36 42 35 31 20 12 5 34 34 24 12 43 35 4 27 43 46 0 46 12 4 39 44 37 18 13 41 35 42 37 37 22 39 36 37 41 4 24 18
split_gain=2600.9 760.836 195.842 101.773 69.7863 48.3719 33.7972 25.7094 24.5789 22.4282 20.1249 19.7556 23.8829 18.8477 15.2226 15.2572 14.3674 14.1901 27.6824 14.1115 16.6111 14.0194 17.156 13.9385 13.7383 13.5677 12.7633 13.2275 13.8776 11.9366 13.2686 11.5454 11.7567 11.4463 11.3792 10.6561 10.2073 10.1728 9.93278 9.91025 9.8681 10.6152 10.191 9.81937 9.75061 9.22188 9.21292 9.06586 9.77253 8.99513 8.81443 9.951 8.79327 8.69944 8.66858 9.76259 8.57677 16.4821 8.47404 8.40061 8.37897 8.22883
threshold=1.5000000000000002 1.0000000180025095e-35 4.5000000000000009 8940.0000000000018 75000.000000000015 6.5000000000000009 1.0000000180025095e-35 7657.5000000000009 7.8050665855407724 125000.00000000001 3000.5000000000005 1.0000000180025095e-35 245000.00000000003 332.50000000000006 25000.000000000004 163.50000000000003 -1.4999999999999998 68.500000000000014 150.50000000000003 7.7754857540130624 995416.00000000012 9.8391623497009295 -1802.4999999999998 1490.5000000000002 -99.499999999999986 1719.5000000000002 1.5000000000000002 1256.0000000000002 9082.5000000000018 -1.0000000180025095e-35 548.50000000000011 -2059.4999999999995 28806.000000000004 1.0000000180025095e-35 -7795.9999999999991 -2546.4999999999995 51.500000000000007 0.06580823659896852 148.50000000000003 9.0950975418090838 145000.00000000003 11.5405650138855 4216.0000000000009 40.500000000000007 1524.5000000000002 4967.5000000000009 8299.5000000000018 1327.5000000000002 26445.500000000004 -4998.9999999999991 -4077.4999999999995 -1911.4999999999998 366.50000000000006 20329.000000000004 363.50000000000006 1079.5000000000002 3735.5000000000005 206.50000000000003 -2696.4999999999995 29.500000000000004 3034.5000000000005 1823.5000000000002
decision_type=2 2 2 2 2 2 2 2 2 2 2 2 2 2 2 2 2 2 2 2 2 2 2 2 2 2 2 2 2 2 2 2 2 2 2 2 2 2 2 2 2 2 2 2 2 2 2 2 2 2 2 2 2 2 2 2 2 2 2 2 2 2
left_child=1 3 5 11 13 10 8 23 -2 21 14 12 -1 47 15 -3 -13 18 60 -6 40 25 -23 36 33 26 -7 31 -29 30 38 -28 -33 -16 -10 -26 45 -25 -11 -34 41 -21 -42 -43 50 -4 -24 54 -49 -8 -36 -52 -45 -48 55 -5 -46 -58 -51 -35 -18 -37
right_child=6 2 7 4 19 9 49 -9 34 29 -12 16 -14 -15 24 -17 17 -19 -20 20 -22 22 46 37 35 -27 27 28 -30 -31 -32 32 39 59 44 61 -38 -39 -40 -41 42 43 -44 52 56 -47 53 48 -50 58 51 -53 -54 -55 -56 -57 57 -59 -60 -61 -62 -63
leaf_value=-0.0028298839783620212 0.059177295540159172 0.13303494949177941 0.072574060205980201 0.068950905061585382 -0.025298881409364812 -0.013410281470939556 0.091314287532785865 -0.025817095725409918 0.059803998620575144 0.053345271451129689 -0.0075243043350486831 -0.020158341862108558 0.067230452909406685 -0.029441205912803331 -0.015483641019103015 0.041180090300455122 0.11602907502773595 -0.016764760669025592 0.0021228316916034723 -0.039593955912214762 -0.024926764721366245 0.046132461116891454 -0.018325059678052397 0.054990920882130701 -0.01719469704408123 -0.012815171265205472 0.094723277640896997 -0.045446667211937297 0.042448201336260233 -0.020337391678113055 -0.03418097100174125 0.082975547394925867 -0.012658589001207391 0.078704617126925516 0.15735020668688221 0.035780908248773877 0.11739461775130303 -0.0019175460224636603 -0.0070380262226410932 0.047395199623689842 -0.033502861051334765 -0.030125867133377948 -0.047999024639993448 0.049049818475918439 0.14657693394811233 0.022386943705357418 0.065904578554396964 -0.026801377139865808 -0.0065915645941358805 0.18243753268535612 0.062775186285303972 0.10971617813090823 -0.018034030730103276 -0.013473660810713434 -0.011636811721899586 0.0079762239661061683 0.16260276785155381 0.07730531005654348 0.13730106497011432 0.011406506656290168 0.042623063417180945 0.072123686567702266
leaf_weight=29.316792339086533 23.26296178996563 7.3159224987030056 165.2905158996582 8.2619340717792493 171.59191642701626 12.775780543684958 9.8311718255281431 7.7171618193387976 9.538731783628462 16.987971633672718 34.308078840374947 125.56092309951782 20.790722116827965 216.09747156500816 26.686958789825439 11.832363352179526 7.2157365381717673 51.718935579061508 62.608473643660545 307.00479421019554 151.94165998697281 15.424573972821234 71.946049258112907 32.528177410364151 8.483385041356085 20.44847097992897 12.874331697821615 7.9522684663534191 10.317140474915503 138.37143763899803 11.682454437017439 11.493731632828711 11.545658528804781 6.9803650230169323 8.7176604568958265 118.43917794525623 12.037471145391462 10.352040499448774 11.36782146990299 16.962931871414185 146.91614393889904 45.918808847665787 693.77395857870579 8.8529516905546206 39.002324625849724 9.6898338794708234 6.9120723456144315 105.13693548738956 138.76682741940022 11.240970924496649 12.399628072977064 126.18748107552528 10.898427307605742 6.8946072459220886 43.861756846308708 31.95301653444767 8.9701769053936022 15.363103374838827 138.76604653894901 13.81333616375923 8.428109332919119 17.933908894658089
leaf_count=170 129 41 920 48 1014 74 53 44 52 98 198 736 117 1269 155 68 42 301 364 1819 898 90 418 184 49 119 74 46 60 808 68 65 66 40 47 675 67 59 66 97 867 270 4133 52 211 54 40 618 816 60 67 683 64 40 256 187 49 84 741 79 49 103
internal_value=1.07681e-05 -0.0148332 0.0252718 -0.0294085 -0.0333655 0.0106778 0.119783 0.0639502 0.108055 -0.000409528 0.0279974 -0.00246687 0.0262397 -0.0179764 0.0337599 0.0762748 -0.00809597 0.00355708 0.0169883 -0.0388134 -0.0405119 0.0108489 -0.00241359 0.0669635 0.0295273 0.0237057 0.0326044 0.0408673 0.00418951 -0.0133805 0.0106624 0.0535398 0.0402854 0.00618647 0.113219 0.0371778 0.0728586 0.0412522 0.0291376 0.0230741 -0.0424635 -0.0356911 -0.0454657 -0.0174455 0.115638 0.0697949 -0.0111457 -0.0104225 -0.0153032 0.137647 0.108584 0.105516 0.0120343 0.0262657 0.00373613 0.0205031 0.132044 0.108749 0.140683 0.0339982 0.0764816 0.0405602
internal_weight=3657.26 3253.98 867.366 2386.62 2080.98 629.751 403.28 237.615 243.442 383.957 245.793 305.64 50.1075 544.078 211.485 19.1483 255.532 129.971 78.2523 1536.9 1365.31 205.548 101.177 229.898 192.337 104.37 83.9218 71.1461 18.2694 178.41 40.0382 52.8767 40.0023 47.4807 220.179 144.856 187.018 42.8802 28.3558 28.5086 1213.37 372.675 840.69 65.6702 210.64 174.98 85.7527 327.98 243.904 159.838 147.305 138.587 19.7514 13.8067 84.0767 40.215 63.3356 24.3333 150.007 20.7937 15.6438 136.373
internal_count=21231 19055 4965 14090 12311 3637 2176 1328 1322 2229 1408 1779 287 3194 1210 109 1492 756 455 9117 8103 1189 588 1284 1101 601 482 408 106 1040 232 302 228 274 1193 827 1041 243 164 163 7205 2205 5000 386 1141 974 498 1925 1434 854 797 750 116 80 491 235 344 133 801 119 91 778
is_linear=0
shrinkage=0.05


Tree=2
num_leaves=63
num_cat=0
split_feature=5 29 31 24 26 0 28 23 23 12 22 31 34 4 27 35 4 26 34 0 0 42 24 4 3 21 20 25 24 0 0 35 50 6 41 19 23 36 23 16 25 50 31 23 10 10 22 34 21 26 27 26 25 25 35 36 35 34 17 26 12 25
split_gain=2293.97 672.5 167.315 101.554 72.1729 53.9669 37.3761 31.2337 28.7979 38.1538 20.8038 21.9446 20.1329 14.2175 13.9751 22.8174 13.6811 13.4264 12.8422 16.7592 12.1734 14.0836 11.6385 20.0009 15.5674 11.341 12.3566 10.9346 10.5365 11.3755 10.1864 9.94261 9.9904 9.72895 9.69677 9.62656 10.3076 12.3945 9.34127 13.0114 9.25805 11.417 15.6714 11.2683 9.99233 8.81934 8.79588 8.42598 8.42288 8.42203 8.25749 8.8214 8.25642 21.9756 8.25136 8.26966 12.6604 8.12175 8.52064 10.8132 8.23549 8.10859
threshold=1.5000000000000002 1.0000000180025095e-35 4.5000000000000009 4560.0000000000009 5335.0000000000009 75000.000000000015 0.25706480443477636 0.90305146574974071 0.8786434829235078 4617.0000000000009 9895.0000000000018 2.5000000000000004 4830.5000000000009 45.500000000000007 0.038103990256786353 4932.5000000000009 54.500000000000007 4851.0000000000009 332.50000000000006 13000.000000000002 45000.000000000007 371.50000000000006 1.0000000180025095e-35 32.500000000000007 1.5000000000000002 1169.5000000000002 400.50000000000006 0.48370730876922613 2097.5000000000005 185000.00000000003 25000.000000000004 565.50000000000011 7.2587642669677743 1.5000000000000002 1112.5000000000002 372.50000000000006 0.0045984375756233939 -106.49999999999999 0.95798408985137951 4157.0000000000009 0.75141903758049022 9.2211813926696795 6.5000000000000009 0.93034887313842785 1.0000000180025095e-35 1.0000000180025095e-35 942.50000000000011 1568.5000000000002 430.50000000000006 4328.0000000000009 3.1492785215377812 18387.000000000004 0.79240167140960704 0.64532759785652172 -2361.4999999999995 -214.49999999999997 1067.5000000000002 -592.49999999999989 3100.5000000000005 7300.5000000000009 99029.000000000015 0.69805407524108898
decision_type=2 2 2 2 2 2 2 2 2 2 2 2 2 2 2 2 2 2 2 2 2 2 2 2 2 2 2 2 2 2 2 2 2 2 2 2 2 2 2 2 2 2 2 2 2 2 2 2 2 2 2 2 2 2 2 2 2 2 2 2 2 2
left_child=1 3 4 13 16 18 7 45 9 -7 11 30 14 22 40 25 20 -9 19 -5 21 -3 23 -1 -25 26 49 -28 -24 47 -6 32 -8 57 -13 -22 -37 -38 -20 -40 41 42 -4 -42 -43 -2 50 -30 -31 -16 -11 -52 53 -19 -27 56 -56 58 59 -32 -60 -29
right_child=6 2 12 5 10 8 31 17 -10 46 -12 34 -14 -15 15 -17 -18 52 38 -21 35 -23 28 24 -26 54 27 61 29 48 33 -33 -34 -35 -36 36 37 -39 39 -41 43 44 -44 -45 -46 -47 -48 -49 -50 -51 51 -53 -54 -55 55 -57 -58 -59 60 -61 -62 -63
leaf_value=-0.014977308884022864 0.111845724299365 0.077228164744789898 0.056273496875209029 0.035390409985450053 0.024365667607438076 -0.026339918155738641 0.071566472249929125 0.049624027520223261 -0.021534496718204024 -0.039272985333846246 -0.036913655108644298 0.010123241513236828 -0.0094985852087514106 0.033989854499326892 0.14145822331444932 -0.033624541352476958 0.095854054969662414 0.14001190064435695 -0.035520379061154482 -0.014803464345011112 0.031046515344686672 0.011048434872704582 -0.024051225867426692 0.023027146482168612 0.10960976110893483 -0.0026751955969059049 0.023130581131367407 0.11667375615924425 0.012117373905488754 0.00059452701902676993 0.058458361232493178 0.10031527681614627 0.010003997621686 0.033477260817756802 0.042614853567129761 -0.02518370472601434 0.072278640615318523 -0.01483993819823789 0.031472224307784881 -0.023133820877051181 0.11900097527726212 0.017772826595668804 0.13000757696610446 0.062374710543595314 0.068000227532919663 0.13022067076364494 -0.047308613864746996 0.073090784492390634 -0.05102499439572053 0.077118843277490842 0.040826389818903935 -0.026482019638128119 0.10552005450825003 0.047038080015363699 0.081024697117424466 0.017269558882168998 0.0081686939210257516 -0.023591988658720253 -0.022334352413808323 0.00038414653866666198 0.016097941066513504 0.056125963568048068
leaf_weight=20.062448278069496 120.99195572733879 25.478357642889023 17.552751228213314 17.56809775531292 23.510807260870934 387.53417414426804 14.092183321714403 16.198167204856873 265.9601154178381 156.07521504163742 40.539202705025673 86.351473525166512 10.868857085704802 34.064479634165764 7.4535907506942776 7.8012824803590766 8.3827394247055036 9.1339047104120272 139.55133257806301 311.41704858839512 123.90259629487991 11.744776934385298 60.218044519424438 14.750788077712059 8.010958656668663 10.264331310987471 18.416876748204231 7.6415078639984158 30.839807718992233 24.816054299473763 9.7548796087503415 10.480866491794584 12.379012122750281 12.195482701063154 31.281155496835709 17.853804588317871 8.3680247515440005 7.9723568707704535 13.140485092997549 64.236567750573158 20.201803937554359 17.823880732059479 12.225477084517477 15.546118050813673 22.279350340366364 141.8731190264225 765.40262806415558 6.9413317441940299 11.595085784792898 16.014723137021065 6.706415310502055 17.756360664963722 91.81933781504631 20.895088896155357 22.715555295348171 15.654603138566015 8.0852717012166959 95.279455870389938 68.422848924994469 44.95228785276413 17.505374953150749 20.00685827434063
leaf_count=114 617 139 95 102 133 2316 75 84 1592 954 237 495 62 197 40 43 47 47 835 1840 699 65 354 83 45 56 99 41 180 146 56 56 66 69 180 103 47 45 78 382 108 96 66 84 119 707 4677 41 68 86 40 108 470 108 122 86 44 558 401 262 103 108
internal_value=-0.000202872 -0.0147165 0.0224718 -0.0286669 0.0087921 -0.0319243 0.107214 0.111649 -0.0365573 -0.0395536 -0.00282651 0.000723532 0.0570595 0.00440586 0.0600777 0.0493606 0.0333062 0.0923915 -0.0183503 -0.0121231 0.0306218 0.0563469 -0.00128018 0.0214193 0.0534998 0.0544883 0.0680228 0.0529784 -0.00851243 0.00409961 -0.00708914 0.0590971 0.0427773 -0.0100698 0.0187635 0.0245649 0.00107899 0.0297741 -0.0277944 -0.0138604 0.0736789 0.0630917 0.0865451 0.0943752 0.0456767 0.121763 -0.044967 0.0233197 -0.0158437 0.0975532 -0.0350395 -0.00802957 0.0980769 0.0753179 0.0378961 0.0468603 0.0618999 -0.0123209 -0.00468486 0.0107394 -0.0145049 0.0728603
internal_weight=3678.56 3240.7 884.048 2356.65 633.496 2145.35 437.864 400.912 1599.43 1333.47 429.793 389.254 250.553 211.299 239.684 134.055 203.703 138.046 545.914 328.985 195.32 37.2231 177.235 42.8242 22.7617 126.253 69.5336 46.0652 134.41 74.1923 271.621 36.9521 26.4712 248.11 117.633 158.097 34.1942 16.3404 216.928 77.3771 105.629 69.8815 29.7782 35.7479 40.1032 262.865 945.941 37.7811 36.4111 23.4683 180.538 24.4628 121.848 30.029 56.7198 46.4554 30.8008 235.915 140.635 54.7072 85.9282 27.6484
internal_count=21376 19146 4994 14152 3639 12924 2230 2033 9687 8095 2494 2257 1355 1228 1293 725 1145 709 3237 1942 1098 204 1031 242 128 682 374 248 789 435 1582 197 141 1449 675 894 195 92 1295 460 568 376 161 192 215 1324 5779 221 214 126 1102 148 625 155 308 252 166 1380 822 318 504 149
is_linear=0
shrinkage=0.05


Tree=3
num_leaves=63
num_cat=0
split_feature=30 5 24 31 0 28 24 26 24 28 31 10 26 4 52 52 38 0 41 52 28 0 19 43 34 43 44 28 41 44 41 26 55 39 5 15 8 4 2 4 52 28 46 27 44 0 33 38 49 2 38 36 42 4 28 28 33 52 4 28 52 39
split_gain=1999.98 543.609 185.938 119.117 60.1225 33.5278 32.8301 26.7575 25.3318 18.5322 17.157 16.8515 15.6482 16.1868 14.5924 13.9252 13.8678 13.0504 12.0611 11.6186 10.99 10.7688 10.6823 10.9863 9.81557 9.6879 10.3916 9.4854 9.78629 13.196 9.44602 11.5561 9.40518 9.39249 9.26696 9.13 13.9826 9.05077 14.4432 12.3704 15.2141 9.30144 9.62649 11.0863 11.417 8.6539 12.7895 11.8325 8.88975 8.39035 10.4285 8.37154 8.3678 8.0496 8.03917 10.0109 10.3868 8.52034 8.01377 15.8501 7.98668 7.94126
threshold=1.5000000000000002 1.5000000000000002 4560.0000000000009 4.5000000000000009 75000.000000000015 0.68853542208671581 1.0000000180025095e-35 5335.0000000000009 21150.500000000004 0.038627687841653831 10.500000000000002 1.0000000180025095e-35 1171.5000000000002 35.500000000000007 7.0812880992889413 7.3786959648132333 4337.5000000000009 245000.00000000003 6986.0000000000009 8.9429836273193377 0.96239975094795238 145000.00000000003 2300.5000000000005 3702.0000000000005 332.50000000000006 -200.49999999999997 -99.499999999999986 0.12417937815189363 4156.5000000000009 -3802.9999999999995 514.50000000000011 14888.500000000002 5.2958111763000497 1954.5000000000002 -1.4999999999999998 18487.500000000004 2.5000000000000004 50.500000000000007 2.5000000000000004 34.500000000000007 8.9646959304809588 0.03110629785805941 8.4123883247375506 0.098929386585950865 -960.49999999999989 75000.000000000015 -3032.4999999999995 435.50000000000006 10.464060306549074 1.5000000000000002 -691.49999999999989 3612.0000000000005 699.50000000000011 43.500000000000007 0.073022656142711653 0.035661894828081138 -2032.4999999999998 7.532891273498536 47.500000000000007 0.60586181282997142 4.2193996906280526 1791.5000000000002
decision_type=2 2 2 2 2 2 2 2 2 2 2 2 2 2 2 2 2 2 2 2 2 2 2 2 2 2 2 2 2 2 2 2 2 2 2 2 2 2 2 2 2 2 2 2 2 2 2 2 2 2 2 2 2 2 2 2 2 2 2 2 2 2
left_child=2 3 6 7 18 11 12 21 -6 19 16 37 13 -1 20 -11 17 30 24 -10 22 52 23 25 33 -9 -27 28 29 -13 49 -32 -26 61 -8 -31 -37 39 -39 40 41 -3 -43 44 -44 46 47 -16 -48 50 -5 -41 -2 54 55 -12 57 -57 -36 -60 -51 -4
right_child=1 5 4 10 8 -7 34 14 9 15 53 27 -14 -15 45 -17 -18 -19 -20 -21 -22 -23 -24 -25 32 26 -28 -29 -30 35 31 -33 -34 -35 58 36 -38 38 -40 51 -42 42 43 -45 -46 -47 48 -49 -50 60 -52 -53 -54 -55 -56 56 -58 -59 59 -61 -62 -63
leaf_value=0.017523551972364562 0.058837175836865867 0.057094898550164752 -0.006489271289184472 0.12573261118436979 -0.021544507054472875 0.022950713758899122 -0.019946457161201123 0.062203772442464327 -0.032518211360122631 -0.027655500351767288 0.096367031956002658 0.064435283146211733 -0.018136442705209411 0.054607050206974532 0.041932454163701359 -0.043438940762031315 0.0045749135577977341 0.0033578212716412373 -0.049621531961547546 -0.0089635446621703554 -0.029459330110185263 0.0078432602405004333 0.0057375523515788458 0.094352798246035957 -0.00053403865353485148 0.048271574695841563 -0.016321737718779507 0.060802668756449164 0.16088365198636784 0.13432564934648739 0.051752713276758767 0.0026553072803553049 -0.028229184103571031 -0.025549641539710805 -0.00099743836088636573 0.11304215376103446 0.054920724031658819 0.10276341636668165 0.023910284995371234 0.11592177072202425 0.028178553234597305 0.047048193775799371 0.042749591762912036 0.13229931158799432 0.098805860026378756 -0.010972562726268252 -0.017365361677879991 -0.017995597396482765 0.029645229503515537 0.078968637951665879 0.06242799223906767 0.084159229772924171 0.013335445626180588 0.11040267566507714 0.10829502882054012 0.096003848378405893 -0.0047084517129795025 0.02902280931294466 -0.020138734239914503 0.073008825632417534 0.042597190151093416 0.042802727968965726
leaf_weight=63.629534021019936 42.345372572541237 19.350723415613174 249.15228141844273 10.877152770757677 279.03926268219948 14.934472590684889 59.517910033464432 15.281091243028635 205.10612590610981 164.87092766165733 11.293193519115446 14.385628759860991 15.912944480776785 54.743970572948456 35.102193638682365 916.99341244995594 18.37933574616909 13.648909002542494 25.870814993977547 70.295647010207176 9.9565080404281598 23.890501216053963 36.885545045137405 8.1561962813138944 37.450199782848358 11.025939181447024 14.304679572582254 9.113709628581999 10.107353046536444 42.178027451038361 47.857671037316322 15.988935232162474 168.94505995512009 69.80541767179966 131.29429863393307 99.586199104785919 11.547959998250006 10.998115584254265 12.303836092352867 73.064143151044846 11.264223545789717 9.5464884489774686 10.630038022994993 20.449238076806068 62.425212576985359 138.98477816581726 46.76308885216713 10.762084811925886 12.811343297362326 22.819358959794044 16.187344923615456 28.970733106136322 13.27054141461849 13.44236499071121 9.3538993746042234 9.1445025503635389 8.7071919143199974 9.8747671544551832 7.8660259842872646 10.889246597886084 44.579254671931267 8.4480843991041166
leaf_count=350 229 96 1478 57 1683 78 354 85 1268 1015 59 69 89 299 199 5713 100 74 157 429 57 133 210 46 226 62 80 44 48 199 251 87 1025 417 763 472 56 54 61 357 56 49 52 99 305 819 270 62 75 118 85 144 73 69 48 47 45 52 45 62 234 50
internal_value=-0.000433494 0.054823 -0.0250732 0.0261296 -0.0304265 0.0966433 0.00911517 0.00980594 -0.035265 -0.0380858 0.0532893 0.0991114 0.0284155 0.0346735 0.00370009 -0.0410336 0.0458566 0.0502689 -0.0162803 -0.0265059 0.0202613 0.0359195 0.0260409 0.0413974 -0.0146645 0.0307622 0.0117945 0.110553 0.113103 0.110223 0.0543134 0.0394574 -0.0232039 -0.0092812 -0.00325208 0.11452 0.107003 0.0908542 0.0611276 0.093793 0.0837851 0.0889024 0.0948751 0.0997581 0.0906493 -0.00277809 0.00802351 0.0278703 -0.00725584 0.0643544 0.08787 0.106903 0.04798 0.0761753 0.066664 0.0566841 0.040521 0.0612274 0.00336983 0.0339424 0.0549116 -0.00487272
internal_weight=3672.38 1132.55 2539.83 671.694 2195.98 460.856 343.854 419.54 1636.31 1357.27 252.154 445.922 134.286 118.374 340.033 1081.86 190.338 171.959 559.672 275.402 95.61 79.5064 85.6535 48.7679 533.801 40.6117 25.3306 186.919 177.805 167.698 158.31 63.8466 206.395 327.406 209.567 153.312 111.134 259.003 23.302 235.701 133.666 122.402 103.051 93.5045 73.0553 244.423 105.439 45.8643 59.5744 94.4631 27.0645 102.035 55.6159 61.8159 48.3736 39.0197 27.7265 19.0193 150.05 18.7553 67.3986 257.6
internal_count=21388 5965 15423 3726 13461 2239 1962 2400 10108 8425 1326 2161 738 649 1965 6728 1006 906 3353 1697 540 435 483 273 3196 227 142 888 844 796 832 338 1251 1945 1224 727 528 1273 115 1158 657 601 505 456 357 1425 606 261 345 494 142 501 302 320 251 203 144 99 870 107 352 1528
is_linear=0
shrinkage=0.05


Tree=4
num_leaves=63
num_cat=0
split_feature=5 5 29 31 26 31 28 0 28 33 11 11 28 41 54 38 0 10 17 54 16 0 24 57 33 28 0 43 41 36 11 40 0 7 21 26 26 44 17 2 34 28 12 17 28 24 36 33 33 33 31 43 17 40 12 17 0 28 16 17 41 37
split_gain=1842.68 384.827 189.067 105.678 91.7891 54.7727 44.1323 32.8632 30.7311 28.0304 21.5666 18.9726 18.5249 17.5239 14.2026 14.0988 15.3519 13.535 13.1506 12.9408 12.3496 11.6511 14.2026 11.2296 11.0569 11.5145 12.4351 10.6327 10.473 10.0062 9.80066 11.2461 9.33443 9.32968 8.8467 8.55705 8.13142 14.2195 11.0306 10.296 8.08979 7.96164 7.94885 7.84975 7.64659 7.42514 7.28308 7.25813 8.28874 12.3172 9.82556 7.18105 8.60207 7.12642 6.98322 6.96591 9.76846 6.95311 6.93957 7.33553 6.91768 6.77555
threshold=1.0000000180025095e-35 1.5000000000000002 1.0000000180025095e-35 3.5000000000000004 7200.5000000000009 4.5000000000000009 0.13116433471441272 65000.000000000007 0.4351020902395249 447.00000000000006 17416.000000000004 3806.0000000000005 0.040552426129579551 1112.5000000000002 7.8242459297180185 -414.49999999999994 355000.00000000006 1.0000000180025095e-35 6.5000000000000009 7.166651964187623 17247.000000000004 55000.000000000007 4868.5000000000009 6.3994262218475351 165.50000000000003 0.035208754241466529 65000.000000000007 -8216.9999999999982 947.50000000000011 13025.000000000002 50415.500000000007 669.50000000000011 45000.000000000007 -1.0000000180025095e-35 7000.5000000000009 15201.000000000002 5523.5000000000009 395.50000000000006 1350.5000000000002 1.5000000000000002 525.00000000000011 0.071922630071640029 1.0000000180025095e-35 3195.0000000000005 0.10074847191572191 109008.50000000001 -1802.4999999999998 -3526.4999999999995 31452.000000000004 20989.000000000004 6.5000000000000009 391.00000000000006 2850.5000000000005 880.50000000000011 4056.0000000000005 1547.5000000000002 25000.000000000004 0.041748251765966422 5767.0000000000009 1221.5000000000002 6283.5000000000009 527.00000000000011
decision_type=2 2 2 2 2 2 2 2 2 2 2 2 2 2 2 2 2 2 2 2 2 2 2 2 2 2 2 2 2 2 2 2 2 2 2 2 2 2 2 2 2 2 2 2 2 2 2 2 2 2 2 2 2 2 2 2 2 2 2 2 2 2
left_child=2 3 4 6 9 10 18 30 17 15 14 -9 29 51 20 19 28 27 32 -1 36 22 -11 -15 25 -5 41 -3 55 -13 40 -32 -2 -10 47 -8 38 -38 39 -4 57 61 -18 -25 -43 -22 53 -29 49 58 -50 52 -7 -12 -14 56 -17 -6 59 -49 -59 -27
right_child=1 8 5 24 7 13 35 11 33 21 46 12 54 23 -16 16 42 -19 -20 -21 45 -23 -24 43 -26 26 -28 34 -30 -31 31 -33 -34 -35 -36 -37 37 -39 -40 -41 -42 44 -44 -45 -46 -47 -48 48 50 -51 -52 -53 -54 -55 -56 -57 -58 60 -60 -61 -62 -63
leaf_value=-0.030907790584819059 0.065125444477381597 0.032549821678967361 0.048516425145938541 0.10887199817147962 -0.04134512178246999 0.10486183772095291 0.0017932483992642479 -0.022893240288387563 0.014493862134439858 0.049825767766770411 -0.006116528684296795 -0.03343618581368283 -0.029647598895923617 0.060676035258497886 -0.016674428618959913 0.041255072676752311 0.079932641012443351 0.10426174225705542 -0.013501789488331563 0.037200993219544252 0.079502077887022599 -0.027510868342864866 -0.012064912014377045 0.023838126777407279 0.042738317590398762 0.052994233251289914 0.039316963461289593 0.10530122797891579 0.051155177945380305 -0.013958840777700999 -0.01128788024895023 0.043406780363068706 0.029216081624229191 0.075573848703761645 0.12407104548890376 -0.02191036945130416 -0.013487697838461932 0.038664596469042828 0.06952224271994778 -0.0047047361708269231 -0.033170975529216835 0.13667211216550945 0.011429740814381613 -0.038544159900617429 0.073798063210850195 0.017920242678434332 -0.017101960274798513 0.083038775900737563 0.10895706996304862 0.041156314637433938 0.049503309590874955 0.033525164314049553 0.05600278002921795 0.04218252305043492 -0.043417526450006037 -0.037944649340768029 0.00090491996517094372 -0.0093911153069381557 0.076084727623150911 0.1408296971838367 -0.05651015526213498 0.10446867117061423
leaf_weight=39.832132592797279 21.556523323059082 8.7047237902879697 14.839725464582441 15.469848841428755 22.580263435840607 15.800126209855078 92.209120079874992 253.74127925932407 15.750283643603327 10.097427830100058 25.81036651134491 217.48276384174824 104.80085423588753 10.138228565454485 30.467225834727287 17.058771207928658 11.586371168494226 199.47132256627083 15.613737523555754 8.4544692337512952 13.079194232821466 157.81461043655872 113.0505768507719 11.432176172733309 63.917408183217049 31.075137987732887 36.217660665512085 40.927437230944633 12.179599627852438 94.632221132516861 36.619065478444099 12.643360421061514 112.77326609194279 10.366813972592352 16.560753643512726 64.853542968630791 42.912083238363266 18.794362455606461 12.812567666172979 23.443644016981125 96.457757234573364 8.953368231654169 6.6740565598011008 9.0228708088397962 10.514926970005034 7.8223372995853415 128.02407263219357 13.24952305853367 42.648846790194511 21.769628897309303 8.3020016103982908 12.804455563426016 20.957523256540298 10.84669643640518 758.1248305439949 9.7384322434663755 124.25137916207314 155.64441178739071 92.116427958011627 9.3772199600934965 8.1998342424631101 8.0487962514162046
leaf_count=238 114 42 81 78 135 79 534 1573 81 59 150 1367 653 53 177 99 62 909 89 51 72 966 680 59 334 155 185 190 72 590 222 76 613 52 78 388 245 106 68 126 597 44 40 49 53 44 752 63 203 104 40 66 108 64 4856 58 722 936 434 44 51 40
internal_value=0.000339258 0.0597632 -0.0209515 0.0281783 -0.026586 0.0103425 0.0105283 -0.0319988 0.0914773 -0.00792367 0.00130913 -0.0352921 -0.0379695 0.0474038 0.0141334 0.00502896 0.0114175 0.094517 0.0299303 -0.0189827 0.0211536 -0.0185165 -0.00699023 0.0176473 0.0592847 0.0688749 0.0623487 0.0868539 0.00655357 -0.0275307 -0.0178319 0.00274968 0.0349786 0.0387387 0.0887836 -0.00799433 0.0146125 0.00239669 0.029365 0.0159253 -0.0214161 0.0765854 0.0548953 -0.00367916 0.102714 0.0564553 -0.0114755 0.0862249 0.0820602 0.0756371 0.0992696 0.0657716 0.0770046 0.00817499 -0.0417452 0.00295717 0.00577594 -0.015334 0.0821789 0.106989 -0.0117493 0.0635838
internal_weight=3641.12 960.448 2680.67 481.203 2271.66 409.008 307.006 1760.93 479.245 510.738 328.852 1428.78 1175.04 80.1554 164.171 229.775 181.489 453.128 149.944 48.2866 133.704 280.963 123.148 30.5933 174.197 110.28 94.8099 253.657 163.228 312.115 332.145 49.2624 134.33 26.1171 244.952 157.063 112.802 61.7064 51.0959 38.2834 282.882 58.5922 18.2604 20.455 19.4683 20.9015 164.681 228.391 187.464 136.513 50.9508 49.5621 36.7576 36.6571 862.926 151.049 141.31 186.425 114.743 22.6267 163.844 39.1239
internal_count=21269 4867 16402 2627 14103 2299 1738 11056 2240 3047 1885 9039 7466 414 919 1342 1053 2107 816 289 742 1705 739 161 889 555 477 1198 951 1957 2017 298 727 133 1156 922 626 351 275 207 1719 292 102 108 97 116 966 1078 888 645 243 253 187 214 5509 879 821 1122 541 107 987 195
is_linear=0
shrinkage=0.05


Tree=5
num_leaves=63
num_cat=0
split_feature=30 31 24 0 31 24 12 4 31 42 41 25 8 42 11 31 0 28 0 0 22 25 27 25 19 22 39 33 52 41 42 35 42 26 38 11 18 12 27 11 44 13 39 43 28 27 28 49 16 30 28 20 44 33 43 41 34 25 20 56 44 34
split_gain=1591.38 224.406 178.966 45.9966 31.3487 29.5147 26.8038 26.7677 25.0724 24.9467 29.4051 24.3865 21.6927 21.5028 17.0488 16.1261 14.6818 14.4518 14.35 14.0343 13.4819 12.6124 13.7474 12.3627 12.7478 13.4344 11.8188 14.6053 11.4554 10.9879 12.2013 11.6208 10.9476 10.6408 10.4677 10.2402 10.1884 10.1031 9.98423 9.96689 9.6115 9.16843 8.69146 8.54525 8.53615 8.78177 13.0935 8.34498 9.60664 8.28064 8.99905 8.20048 8.18654 8.18311 9.27498 15.2816 8.11157 11.2575 9.10663 7.76501 7.66529 8.63909
threshold=1.5000000000000002 5.5000000000000009 4560.0000000000009 95000.000000000015 11.500000000000002 1.0000000180025095e-35 4216.0000000000009 53.500000000000007 3.5000000000000004 -424.49999999999994 -100.49999999999999 0.51473897695541393 1.0000000180025095e-35 999.50000000000011 78333.000000000015 7.5000000000000009 45000.000000000007 0.03545335307717324 295000.00000000006 25000.000000000004 10000.500000000002 0.87188801169395458 0.061288917437195785 0.0025026904186233882 264.50000000000006 712.50000000000011 -214.49999999999997 -9334.4999999999982 7.2089703083038339 -506.49999999999994 3902.0000000000005 2177.5000000000005 1784.5000000000002 1000.5000000000001 -1498.4999999999998 1.0000000180025095e-35 3661.0000000000005 44033.500000000007 0.02631732635200024 5626.0000000000009 183.50000000000003 81230.000000000015 2401.0000000000005 29544.000000000004 0.023693554103374485 0.20693634450435641 0.15525700151920321 10.238065242767336 29917.000000000004 3.5000000000000004 0.030664153397083286 2999.0000000000005 1376.5000000000002 -149.49999999999997 225.50000000000003 1112.5000000000002 -1395.4999999999998 0.56164440512657177 400.50000000000006 7.1716566085815439 5000.5000000000009 -3281.4999999999995
decision_type=2 2 2 2 2 2 2 2 2 2 2 2 2 2 2 2 2 2 2 2 2 2 2 2 2 2 2 2 2 2 2 2 2 2 2 2 2 2 2 2 2 2 2 2 2 2 2 2 2 2 2 2 2 2 2 2 2 2 2 2 2 2
left_child=2 8 5 16 12 7 -5 18 9 26 19 39 14 28 47 36 44 -13 33 -11 29 22 -17 -7 25 -25 27 -2 52 30 34 32 -31 -1 -10 -26 56 59 -23 -8 -15 -18 -30 60 -4 -46 -47 -3 -49 50 -6 -38 -12 -29 -55 -56 -14 58 -58 -24 -19 -62
right_child=1 4 3 6 49 23 11 -9 20 10 13 17 15 40 -16 21 41 43 -20 -21 -22 38 37 24 35 -27 -28 53 42 31 -32 -33 -34 -35 -36 -37 51 -39 -40 -41 -42 -43 -44 -45 45 46 -48 48 -50 -51 -52 -53 -54 54 55 -57 57 -59 -60 -61 61 -63
leaf_value=0.01902024186173237 0.09077165077281435 0.082415567899461417 0.048134805161206856 -0.022396279521072114 0.13835593639610375 -0.011177575348230183 -0.029835693947450982 0.11849402147532771 0.065514442027647807 0.055761236871900391 0.030744391751193062 -0.005733844584782358 0.081831090997195044 -0.012597309307167355 0.11843656330614789 0.087807668668863872 -0.024090631650657623 -0.036251241944429795 0.049555876935633847 0.005567958204199001 -0.017609936462676008 0.0015003752326267108 0.0790140656154113 0.020090169144025567 -0.0527466361895539 0.094597347876905602 -0.0051059189815777324 -0.023283486755935889 0.074267667725633243 0.064330688448071563 0.066643495434930852 0.020168098479321779 0.0012302409568363459 -0.03149222224357992 0.0058186320301584285 0.007427683538182555 -0.019260373495428654 0.0096761970621400857 0.054840156184973878 -0.045938065769969436 0.040735578290444725 0.018485885911194329 0.031701540751460922 0.018765632356658013 -0.01479934350224036 0.063642237779352032 -0.0027414554294690583 0.0092007937704451041 0.068562151882108166 0.071923902400894066 0.091387035230935609 0.038792536311592768 0.08254746750672215 -0.017378010713446655 0.0084739530099894027 0.10603355489786873 0.052808392178561571 0.079794358890728778 -0.016379099719587249 0.035187934828787397 -0.049395755411584343 0.013815768420986111
leaf_weight=80.15619994699955 7.3069151937961569 56.429092779755592 6.7133424133062354 381.96789735555649 11.139150172471998 128.2339608669281 115.26099818944931 7.7730875611305228 8.9401884675025922 15.829045012593268 62.275601327419281 65.31920725107193 12.575030341744421 21.899434387683868 23.862570837140083 60.098219096660614 469.52828687429428 237.48397980630398 36.329424187541008 115.8640121370554 8.9007347822189313 12.325627833604811 29.010201334953308 30.778016775846481 8.8660138696432096 7.5303186327219001 99.995613038539886 10.731650367379187 57.265807375311852 103.53039203584194 15.995485112071036 21.747692450881004 7.3625510185956946 11.984851658344267 41.117276638746262 34.904122442007065 13.135845154523851 10.719919592142103 30.438399121165276 578.0512879639864 13.752999514341353 12.994230180978773 15.168984726071356 8.0602962076663953 163.01744394004345 9.0115423351526243 42.271460726857185 9.791459918022154 22.425338432192802 52.808112859725952 120.70349000394344 11.330166831612585 8.6909042447805387 7.3410299420356777 9.374614894390108 7.0194021910428992 8.1333047449588829 9.0441930294036847 11.453556433320044 15.510576799511908 8.0394648611545581 16.496464639902115
leaf_count=432 40 262 40 2380 49 758 742 40 46 84 331 411 63 118 109 286 2921 1528 190 652 47 59 137 178 52 43 571 61 279 514 85 110 40 68 220 203 67 54 146 3820 72 82 76 52 986 53 258 46 103 240 536 60 46 42 52 40 40 45 58 75 52 106
internal_value=-0.000141597 0.0475675 -0.0230395 -0.0284987 0.0721016 0.0102653 -0.0337069 0.0283945 0.028206 0.0216059 0.0295355 -0.0379067 0.0630127 0.0427262 0.0809224 0.0540082 -0.0180556 -0.0268384 0.022943 0.011601 0.042593 0.0626589 0.0712579 -0.00147902 0.0136734 0.0347361 0.00422504 0.026561 0.0513658 0.0452898 0.0286278 0.0535873 0.0601412 0.01245 0.0164802 -0.00476114 0.0331821 0.0532529 0.0394663 -0.0432611 0.00797596 -0.0229441 0.0653537 -0.0319425 -0.00738314 -0.00912234 0.00892361 0.070824 0.0505208 0.0886542 0.0953554 0.00762383 0.0370884 0.0129484 0.0293305 0.0502459 0.0483572 0.0336552 0.0123505 0.0637455 -0.0335024 -0.00689618
internal_weight=3641.82 1181.04 2460.77 2114.22 520.934 346.556 1410.68 136.244 660.11 452.516 310.747 1028.71 336.284 179.054 112.508 223.775 703.536 335.399 128.47 131.693 207.594 158.103 115.339 210.312 82.0785 38.3083 141.769 41.7736 143.401 198.694 66.053 132.641 110.893 92.1411 50.0575 43.7701 65.6721 55.2407 42.764 693.312 35.6524 482.523 72.4348 270.08 221.014 214.3 51.283 88.6459 32.2168 184.651 131.843 24.466 70.9665 34.4667 23.735 16.394 41.2061 28.6311 19.5869 44.5208 262.02 24.5359
internal_count=21356 5961 15395 13431 2435 1964 9091 730 3526 2464 1658 6711 1610 922 520 1090 4340 2149 690 736 1062 757 552 1234 476 221 806 235 732 1015 351 664 554 500 266 255 333 266 205 4562 190 3003 355 1738 1337 1297 311 411 149 825 585 127 377 195 134 92 206 143 98 212 1686 158
is_linear=0
shrinkage=0.05


Tree=6
num_leaves=63
num_cat=0
split_feature=5 29 31 24 0 26 23 24 0 11 11 48 4 3 53 33 8 26 4 0 8 0 28 23 23 21 34 6 30 28 11 33 26 53 53 27 37 49 35 28 21 40 35 40 53 24 35 26 43 43 34 25 25 27 37 2 17 19 4 26 20 27
split_gain=1394.23 399.024 102.853 81.5055 59.7788 49.5062 31.2289 28.4584 23.0447 18.5926 13.7321 16.2127 13.9276 13.1392 12.5879 11.8949 11.5445 11.7946 12.35 15.2681 12.1982 11.7434 11.4379 10.8028 10.6346 15.1213 14.2297 10.5921 10.8411 10.251 10.1816 9.92704 16.5071 11.0954 9.27719 9.16219 8.64992 8.5666 8.52621 13.0337 11.6504 11.2043 10.6881 10.0774 8.50854 9.71626 8.43369 9.92717 9.50761 23.0647 8.41725 10.7643 8.38415 8.38245 9.08352 8.33323 8.21583 8.11955 8.09613 8.02901 7.67157 7.87172
threshold=1.5000000000000002 1.0000000180025095e-35 4.5000000000000009 7563.0000000000009 65000.000000000007 4328.0000000000009 0.8786434829235078 64060.000000000007 135000.00000000003 537.00000000000011 18252.500000000004 7.5496089458465585 52.500000000000007 1.5000000000000002 8.4273777008056658 223.50000000000003 -1.0000000180025095e-35 1.0000000180025095e-35 32.500000000000007 355000.00000000006 -1.4999999999999998 105000.00000000001 0.037105072289705283 0.0093222223222255724 1.0037432909011843 1489.0000000000002 1145.5000000000002 1.5000000000000002 2.5000000000000004 0.14207155257463458 2000.5000000000002 -2944.4999999999995 10626.500000000002 7.6243748664855966 7.7542669773101816 0.050497189164161689 2643.0000000000005 6.0342838764190683 -1182.4999999999998 0.035910751670598991 941.50000000000011 -1512.9999999999998 1928.5000000000002 -200.49999999999997 9.2778120040893572 413732.00000000006 -1013.4999999999999 15001.500000000002 100.50000000000001 -73.499999999999986 -1308.4999999999998 0.47164714336395269 0.50162622332572948 1.3432086706161501 -213.49999999999997 2.5000000000000004 1372.5000000000002 1599.5000000000002 26.500000000000004 3101.5000000000005 699.50000000000011 0.2442290857434273
decision_type=2 2 2 2 2 2 2 2 2 2 2 2 2 2 2 2 2 2 2 2 2 2 2 2 2 2 2 2 2 2 2 2 2 2 2 2 2 2 2 2 2 2 2 2 2 2 2 2 2 2 2 2 2 2 2 2 2 2 2 2 2 2
left_child=1 3 5 16 14 10 7 30 13 -2 11 12 53 31 24 -11 17 18 -1 -20 -19 23 34 -22 26 55 46 36 38 -24 -6 32 52 -33 -8 -35 -4 -25 41 42 43 -29 -40 -41 45 -31 47 48 49 -5 -51 -52 -7 54 -3 -26 -9 -27 -30 -28 61 -15
right_child=9 2 27 4 6 8 22 56 -10 15 -12 -13 -14 60 -16 -17 -18 20 19 -21 21 -23 29 37 25 57 59 28 58 44 -32 33 -34 35 -36 -37 -38 -39 39 40 -42 -43 -44 -45 -46 -47 -48 -49 -50 50 51 -53 -54 -55 -56 -57 -58 -59 -60 -61 -62 -63
leaf_value=-0.0092810223418802514 0.021371218690433576 -0.017420215091245805 0.031320789664392591 -0.02368693672234929 -0.01364095876346693 0.040694262927230496 -0.039311384946196293 -0.023414290926950666 -0.016905443025404351 0.085900095719941838 -0.031663628392361601 0.075239198324539264 0.077790615312201383 0.0027281933242883972 -0.037086694694517405 0.070170752495291963 0.05665615537459491 -0.019973429976737175 0.017537635798993392 0.089194963912123393 0.070934141308750684 -0.0057949270760222459 -0.029880372591956552 0.040794224736518239 -0.025088168155346643 0.08344626487534948 0.016709311737682413 0.045646395337269219 0.036524737031372941 -0.023982404181568856 -0.03078917216160942 -0.0098438046090128066 0.0072314864594622457 0.051509075124951634 0.0031596385691129002 -0.012986771730612155 -0.021613848040419464 -0.022021158233888533 0.10236650814858626 -0.0022007065913443075 -0.0006217434126803387 0.10435270316096326 0.033382668241840774 0.062032513751692553 -0.037632415272881775 0.053040683873020127 -0.012151985245244339 0.055658338842127203 -0.031457313231062434 -0.005852615913958286 0.013476801368073575 0.085884296844740027 0.1105854424030993 0.068577214065909817 0.021842990329695139 0.035507077753852596 -0.043281672678758765 0.017833262841869878 0.082267758490468954 -0.033389791871140294 -0.011304915006092433 0.05164606604295862
leaf_weight=26.051855355501175 14.418002948164938 16.665006339550018 71.380428999662399 25.280556470155712 125.50717091560364 8.4232717901468295 15.288404092192648 56.112474992871284 206.5322045981884 273.31749196350574 9.85142834484577 17.127015963196754 11.248107254505156 43.383052840828896 45.875252917408943 214.53645049035549 9.0670618712902051 93.357252240180969 30.811037331819534 9.7974561452865583 10.717051848769186 80.247143194079399 153.08276882767677 10.923887342214586 22.417670622467998 8.531439349055292 8.7927711457014066 51.388725534081459 13.859158068895338 6.5675182938575807 278.94423957169056 36.255895495414734 17.436751961708069 18.845308870077137 80.880246952176094 7.7796817272901526 8.6529520750045759 10.787791833281515 9.79399421811104 8.7951079607009905 34.760321974754333 9.6544100344181043 13.159238293766974 19.972236528992653 8.2335554212331754 10.8733933866024 200.19747400283813 9.2794689834117872 17.394351184368134 6.961733639240264 8.4613304287195295 13.048145145177839 8.7466616630554181 8.4335019588470441 126.91003331542015 7.5964647829532614 716.41679988801479 10.540695026516913 32.026107236742973 88.394973650574684 103.72862747311592 10.147407650947569
leaf_count=148 69 93 356 153 795 46 97 365 1222 1191 52 89 57 244 292 967 52 564 174 50 62 476 987 63 137 52 54 248 66 42 1826 206 101 106 509 45 45 64 47 43 173 46 66 97 53 70 1219 57 106 42 51 78 47 44 678 46 4829 65 151 560 593 55
internal_value=-3.5206e-06 -0.0124076 0.0151592 -0.0239638 -0.0276407 0.00435753 -0.032669 -0.036213 -0.00449366 0.0773293 0.0258197 0.0289591 0.0241039 0.00556902 -0.0121985 0.078983 0.00115254 -0.000692959 0.0175884 0.0348261 -0.00660774 0.00446635 -0.0174965 0.0298586 -0.00952399 0.0123701 -0.0123685 0.0408955 0.0472259 -0.0249768 -0.0254678 0.0199913 0.0414985 0.00815471 -0.00359219 0.0326637 0.0255977 0.00958341 0.0406239 0.030525 0.0188573 0.0549312 0.0628176 0.0423943 0.00426022 0.024037 -0.00665803 0.00701766 0.000673538 0.0110712 0.0419342 0.0574009 0.076298 0.0201313 0.0172856 -0.00975174 -0.0418386 0.0471836 0.0684516 -0.0288572 -0.00337158 0.0120012
internal_weight=3633.67 3131.4 924.957 2206.44 1924.68 651.514 1451.91 1176.98 461.279 502.272 190.235 180.384 163.257 254.747 472.772 487.854 281.761 272.693 66.6603 40.6085 206.033 112.676 274.926 32.4287 426.897 49.0863 377.811 273.443 193.409 178.757 404.451 97.4876 34.6067 62.8809 96.1687 26.625 80.0334 21.7117 147.524 86.4809 63.5277 61.0431 22.9532 28.7673 25.6745 17.4409 280.623 80.4256 71.1461 53.7518 28.4712 21.5095 17.1699 152.009 143.575 30.0141 772.529 19.0721 45.8853 97.1877 157.259 53.5305
internal_count=21381 19154 5016 14138 12485 3678 9573 7815 2665 2227 1013 961 872 1443 2912 2158 1653 1601 372 224 1229 665 1758 189 2620 300 2320 1338 937 1152 2621 551 194 357 606 151 401 127 720 426 313 294 113 140 165 112 1706 487 430 324 171 129 93 815 771 183 5194 117 217 614 892 299
is_linear=0
shrinkage=0.05


Tree=7
num_leaves=63
num_cat=0
split_feature=5 29 26 31 23 26 11 33 11 0 23 25 25 11 25 28 18 47 4 19 28 23 23 15 17 35 22 51 0 15 17 17 26 25 26 35 0 0 51 0 13 42 4 42 2 11 22 14 25 28 13 34 42 32 40 3 14 2 4 11 40 15
split_gain=1219.66 372.003 82.3879 78.8069 41.8798 38.0892 29.0903 20.8532 20.8193 18.4514 17.6358 16.0217 13.2004 14.4033 12.2212 11.9536 11.1164 10.752 10.6646 9.9761 9.94091 9.46437 9.41072 8.75669 9.64726 9.65853 9.31542 8.92468 8.74981 8.96386 8.70242 8.44922 8.3119 10.3514 8.08147 7.96699 8.83702 7.92911 10.1152 7.86377 7.75448 7.69537 10.7284 12.623 7.4579 8.28925 8.61756 8.15377 8.10841 9.08806 7.36726 7.35869 7.31244 7.17408 9.48773 6.99152 8.32329 7.09566 6.90291 6.9745 6.80329 7.52721
threshold=1.5000000000000002 1.0000000180025095e-35 7000.5000000000009 4.5000000000000009 0.85041785240173351 5335.0000000000009 8910.5000000000018 447.00000000000006 537.00000000000011 45000.000000000007 0.88872501254081737 0.60366666316986095 0.48370730876922613 5267.0000000000009 0.66126304864883434 0.31648229062557226 7000.5000000000009 9.7389960289001483 46.500000000000007 583.50000000000011 0.68853542208671581 0.12684803456068042 0.20511724799871447 96581.500000000015 4998.5000000000009 -1653.4999999999998 3903.0000000000005 9.8797583580017108 175000.00000000003 391.50000000000006 1547.5000000000002 1793.5000000000002 5741.5000000000009 0.85230132937431347 16503.500000000004 -849.49999999999989 315000.00000000006 355000.00000000006 5.0720391273498544 95000.000000000015 113751.50000000001 -1506.9999999999998 37.500000000000007 1626.0000000000002 2.5000000000000004 26800.000000000004 599.50000000000011 17790.000000000004 0.85741576552391063 0.11460025981068613 4310.0000000000009 -306.49999999999994 -100.49999999999999 3.5000000000000004 10.500000000000002 1.5000000000000002 416.50000000000006 2.5000000000000004 47.500000000000007 17416.000000000004 -5997.4999999999991 101516.00000000001
decision_type=2 2 2 2 2 2 2 2 2 2 2 2 2 2 2 2 2 2 2 2 2 2 2 2 2 2 2 2 2 2 2 2 2 2 2 2 2 2 2 2 2 2 2 2 2 2 2 2 2 2 2 2 2 2 2 2 2 2 2 2 2 2
left_child=1 2 7 5 6 15 16 30 -2 -8 20 40 13 19 -14 35 22 -13 -17 -5 44 -15 -4 24 25 -12 -25 31 29 55 37 -27 -29 -34 41 -3 -37 -1 -39 -11 -7 -23 43 -43 48 46 -46 -48 49 -10 -51 58 -50 54 -28 56 57 -9 59 -31 -16 -62
right_child=8 3 4 12 -6 11 9 28 10 39 23 17 14 21 60 18 -18 -19 -20 -21 -22 34 -24 26 -26 27 53 32 -30 51 -32 -33 33 -35 -36 36 -38 38 -40 -41 -42 42 -44 -45 45 -47 47 -49 52 50 -52 -53 -54 -55 -56 -57 -58 -59 -60 -61 61 -63
leaf_value=0.0052157030655918951 0.01159410949384773 0.063168098908265122 -0.02003924029904805 0.034062943899190255 -0.015555066933375382 -0.0092448785909192404 -0.0026049183329081745 0.04807406408129189 0.092477086955974563 -0.029783339960933054 0.1021390088508482 0.048950119715888703 0.071424592048786997 -0.019229148083311613 -0.0029265338118226935 -0.0065360325597103204 -0.036886631910677516 0.0049987839100667422 0.04613968941149154 0.094497605908801255 0.026916303632909207 0.070669348323975714 0.026723892598082416 0.11468664772522481 0.013143660866650579 0.055652789688139227 0.050172746287114378 0.0028788389509501948 -0.028733656718992601 -0.018661157586772843 -0.030445735527251577 0.10933537738359392 0.024136697258978383 0.06669267162446238 -0.018842197861611416 0.020373079861302212 0.055123980864018443 0.062719660647972728 -0.0074656822985121121 -0.04302977588915196 -0.057479163848340467 0.016819959916922651 -0.010847365942813915 0.090270354769976607 0.10714111924352554 0.047432040901773082 0.024997609062419018 0.090265461198937441 0.089828183534083603 0.094843416818266191 0.043391708527963369 -0.030477591329238087 0.039762983559806425 0.035384550911011156 0.11984553664770339 -0.0092093400145122559 -0.021344665922464312 -0.0073054043600852565 -0.048044168955435014 0.029576779003160265 0.037116566102391987 0.075495845018595936
leaf_weight=187.14021719992161 14.280774295330046 15.635868802666662 319.5192264765501 22.222416818141937 451.81621736288071 266.06606279313564 33.256938770413399 20.268729388713837 189.66339132189751 136.53957331180573 11.147242963314055 15.497627824544905 37.995859175920486 17.743269667029381 9.0073818266391736 50.605566158890724 108.84835469722748 136.26245062053204 11.86069519817829 9.8576264679431898 8.6947441995143873 9.5211510062217695 11.133476018905638 12.923573195934294 13.441006228327749 20.062281057238582 10.212103858590128 10.769908189773558 78.94999423623085 13.535610273480417 15.349586635828016 11.54929208755493 23.028911173343658 37.654014766216278 10.100062921643255 122.01191629469395 21.521038368344307 13.954418718814852 8.1213087886571866 624.41296295821667 8.6020056456327421 18.131633117794994 16.392926335334778 8.6352207511663419 18.091579362750053 31.123954311013222 9.1760455518960971 10.000161945819853 12.545844167470934 11.14254939556122 18.523332834243774 59.70592312514782 17.420878380537033 12.810111403465269 9.3691945523023588 55.728413254022598 9.7192693352699262 8.0938243865966815 6.6974662244319907 16.7862319201231 95.062816217541695 14.759065508842466
leaf_count=1093 68 81 2073 106 2881 1563 206 125 805 894 49 82 181 88 45 280 728 781 62 46 42 46 68 56 60 89 45 48 501 83 94 51 103 164 52 636 111 70 50 4339 52 87 78 41 77 134 40 43 53 50 81 378 74 56 41 342 61 50 41 104 454 73
internal_value=-0.000238315 -0.0120726 -0.0233156 0.014636 -0.0285786 0.00518751 -0.0333482 -0.00536013 0.0711197 -0.0390597 0.0728221 -0.00355142 0.0373628 0.0243019 0.0467408 0.0220013 -0.0230271 0.00948706 0.0034657 0.0526334 0.0796625 0.0130149 -0.0184647 0.0599144 0.0532115 0.0579269 0.0787966 0.053145 -0.0147373 -0.00893786 0.00589282 0.0752657 0.0433586 0.0505429 0.0221278 0.0292757 0.0255836 0.00855887 0.0368996 -0.0406529 -0.0107555 0.0299826 0.021007 0.0405157 0.0811061 0.0664799 0.0823875 0.059034 0.0851187 0.0884518 0.062717 -0.0196182 0.0607232 0.0644771 0.0835096 0.00207435 0.0185867 0.0322704 -0.00210381 0.00804346 0.0388481 0.0422744
internal_weight=3610.7 3097.07 2179.58 917.493 1685.53 648.063 1233.71 494.051 513.631 794.209 499.35 426.428 269.429 112.604 156.825 221.635 439.501 151.76 62.4663 32.08 326.382 80.5243 330.653 172.968 127.653 114.212 45.315 103.064 269.485 190.535 224.566 31.6116 71.4528 60.6829 62.781 159.169 143.533 209.216 22.0757 760.953 274.668 52.6809 43.1598 26.7669 317.688 68.3917 37.2678 19.1762 249.296 219.329 29.6659 96.7252 29.9667 32.3914 19.5813 93.8102 38.0818 28.3626 37.0193 30.3218 118.829 109.822
internal_count=21355 19126 14181 4945 11189 3648 8308 2992 2229 5439 2161 2478 1297 544 753 1170 2869 863 342 152 1399 392 2141 762 564 504 198 455 1685 1184 1307 140 315 267 304 828 747 1213 120 5233 1615 252 206 128 1357 294 160 83 1063 936 131 606 127 142 86 578 236 175 228 187 572 527
is_linear=0
shrinkage=0.05


Tree=8
num_leaves=63
num_cat=0
split_feature=30 5 11 29 23 11 25 7 0 32 20 0 0 0 53 28 4 34 33 53 27 54 54 37 53 12 4 30 39 53 39 40 23 17 25 12 54 39 22 28 13 2 54 25 37 40 51 43 35 0 25 43 37 23 51 33 23 53 27 20 17 11
split_gain=1146.79 300.638 104.396 63.4764 48.8563 43.5512 33.3126 18.514 18.2905 17.2174 16.0744 15.273 14.9663 13.6306 12.8923 13.5879 11.4794 11.4611 11.3411 10.9126 10.6697 11.7257 10.4877 12.7233 11.4379 10.3991 10.046 9.7995 9.39152 12.3117 9.29036 9.22504 8.98349 8.9768 10.6353 8.85367 10.2643 9.63863 8.82972 8.48581 13.4967 10.8825 11.4282 9.85318 8.48075 8.47182 8.46512 8.13753 8.08842 7.96544 7.8161 7.73813 7.73426 7.69761 14.3265 7.61793 7.54018 7.42701 7.32633 7.1543 7.05627 7.04775
threshold=1.5000000000000002 1.5000000000000002 537.00000000000011 3.5000000000000004 0.78075966238975536 8451.5000000000018 1.0000000180025095e-35 -1.0000000180025095e-35 235000.00000000003 1.5000000000000002 2077.0000000000005 95000.000000000015 225000.00000000003 315000.00000000006 8.5160923004150408 0.037105072289705283 52.500000000000007 -785.49999999999989 -3526.4999999999995 7.4280359745025644 0.94613361358642589 5.0205800533294687 7.5717310905456552 8619.5000000000018 6.7551863193511972 391.00000000000006 25.500000000000004 -1.4999999999999998 -687.49999999999989 8.1573700904846209 1436.5000000000002 -3.4999999999999996 0.95798408985137951 7997.5000000000009 0.87188801169395458 16965.500000000004 8.3897008895874041 1324.0000000000002 1.0000000180025095e-35 0.082372773438692107 21741.000000000004 2.5000000000000004 7.6307039260864267 0.65075895190238964 6094.5000000000009 1600.5000000000002 9.060737609863283 2865.0000000000005 1857.5000000000002 215000.00000000003 0.070905257016420378 1143.5000000000002 1649.5000000000002 0.98974046111106884 9.8729767799377459 13968.000000000002 0.65830311179161083 8.2944250106811541 0.99987998604774486 800.50000000000011 2440.5000000000005 145568.50000000003
decision_type=2 2 2 2 2 2 2 2 2 2 2 2 2 2 2 2 2 2 2 2 2 2 2 2 2 2 2 2 2 2 2 2 2 2 2 2 2 2 2 2 2 2 2 2 2 2 2 2 2 2 2 2 2 2 2 2 2 2 2 2 2 2
left_child=2 3 6 8 5 10 13 58 9 35 12 -7 19 -1 17 33 20 26 49 31 27 -22 23 52 48 -10 30 -8 29 -5 -6 46 -19 -16 -35 36 37 -2 -30 40 -20 42 43 -42 -26 -45 -4 51 -24 56 -23 -34 55 57 -55 -11 -9 60 -3 -39 -28 -37
right_child=1 7 4 28 14 11 16 18 25 22 -12 -13 -14 -15 15 -17 -18 32 39 -21 21 50 24 -25 44 -27 53 -29 38 -31 -32 -33 47 34 -36 61 -38 59 -40 -41 41 -43 -44 45 -46 -47 -48 -49 -50 -51 -52 -53 -54 54 -56 -57 -58 -59 -60 -61 -62 -63
leaf_value=0.013042974647160652 0.0097879307031680796 0.047487391500370124 0.012239072782449817 0.084794610518119762 0.0064938817083743288 -0.025876522834265031 -0.039034740030166465 0.096413258256537293 0.041176970928865728 0.037257011759078147 -0.031106735062699134 -0.041708770380752672 -0.028000760478487222 0.049641063867868429 -0.02577290499217141 -0.031901157449503996 0.031781477754907077 -0.025562971274013142 0.085130140589564474 -0.021057931570166964 0.036899480064737512 -0.00059933578031510126 0.075470512510367238 0.084362581929696756 -0.0100480925665037 -0.019603419339045629 1.419756173737446e-05 -0.011187760259874158 0.051529448302640404 0.032837683345477174 0.065858324090069406 -0.0047771943794441604 -0.0068384205714474774 -0.0073130439828243193 0.052023666685221251 -0.0073791494907509848 -0.030124837490769607 0.065247850275357039 0.024028216920791039 0.046937822059890444 0.080249618752537819 0.040395922117340534 0.082648714043407012 0.053077257572128882 0.040760574931240107 0.0046259573001055845 0.071849013759805055 0.038543503290747752 0.012498987321674565 0.05250411446481186 -0.054871064317096374 -0.062230950598291535 -0.0091990415089120894 -0.023611524292500734 0.068252953395650739 -0.00041762330578822389 0.072927273549792893 0.038404083550574744 -0.0054292315132316114 0.016143030541247595 -0.030019716413815831 0.044302728097260581
leaf_weight=107.47871714830399 78.021244868636131 18.558295637369159 31.033049181103706 28.320911228656769 15.90677084028721 201.97591754794121 40.649563789367676 74.067497000098228 7.8576390445232382 95.170667499303818 182.73616135120392 619.69921234250069 106.51757141947746 33.330994561314583 24.931377306580544 143.05419684946537 17.218642517924309 103.23670552670956 84.958385288715363 72.754818096756935 20.337768375873566 68.574367821216583 9.4815729111433047 10.772471785545347 49.839710220694542 67.411910876631737 42.883198589086533 141.79801353812218 57.172038733959198 19.085247784852982 11.252798736095427 110.22752691805363 135.19686055183411 20.989845335483551 11.795378893613814 123.41923560202122 11.770228609442709 16.481369093060497 59.625740423798561 54.610850170254707 25.978671699762344 47.348129272460938 69.952561169862747 42.338306173682213 9.8333507776260358 11.465251877903937 7.3701981753110877 9.430687949061392 11.033194497227667 20.983781337738037 7.344658911228179 6.6132378280162802 12.734711393713949 7.6317393481731441 9.5612061172723752 15.619923487305639 63.450792118906975 7.4944888055324546 10.101194873452185 13.48775079846382 35.952181547880173 6.9689831137657157
leaf_count=565 423 83 187 130 99 1316 256 309 42 474 1226 4414 693 163 161 955 102 668 356 478 121 416 45 55 266 387 263 858 265 91 69 683 855 134 74 724 69 86 282 238 110 205 299 183 54 50 44 60 56 88 48 42 66 47 60 82 264 49 50 76 231 42
internal_value=5.04593e-05 0.0392249 -0.0203757 0.0178859 -0.0253989 -0.0306906 0.00168721 0.0679088 0.00960664 0.0133107 -0.0192233 -0.037817 -0.0126009 0.0217061 -0.0133663 -0.0236389 -0.00783842 -0.00801148 0.0701703 -0.00519134 -0.0102862 0.00318258 0.0237051 0.0322485 0.00939671 -0.0132584 0.00402445 -0.0173921 0.0451081 0.0638773 0.0310899 0.00257537 -0.0141923 -0.00316053 0.014035 0.00439824 0.0142133 0.0190459 0.03749 0.0649781 0.0684712 0.0612898 0.0678968 0.0549623 -0.00167548 0.0427525 0.0236792 -0.00643073 0.0416033 0.0811984 -0.00584976 -0.00942162 0.0277037 -0.00307626 0.0274754 0.0319454 0.0855768 -0.00916075 0.0288366 0.043148 -0.0136825 -0.00461686
internal_weight=3582.9 1227.92 2354.98 704.108 1918.25 1332.31 436.733 523.814 539.904 464.634 510.639 821.675 327.903 140.81 585.931 200.771 295.923 385.16 495.154 221.386 278.704 96.2568 214.486 134.298 80.1878 75.2695 130.682 182.448 164.204 47.4062 27.1596 148.631 254.477 57.7166 32.7852 250.149 119.761 107.99 116.798 336.652 282.041 197.083 149.735 79.7822 59.6731 53.8036 38.4032 151.241 20.5148 158.502 75.919 141.81 123.525 103.523 17.1929 110.791 137.518 86.3299 28.6595 29.9691 78.8354 130.388
internal_count=21287 5950 15337 3715 12808 9041 2529 2235 2947 2518 3311 5730 2085 728 3767 1324 1801 2443 2102 1392 1699 585 1098 677 421 429 818 1114 768 221 168 914 1625 369 208 1420 654 585 547 1441 1203 847 642 343 320 233 231 957 101 661 464 897 622 650 107 556 573 543 133 162 494 766
is_linear=0
shrinkage=0.05


Tree=9
num_leaves=63
num_cat=0
split_feature=5 5 29 26 31 23 34 6 11 23 26 8 7 4 55 27 15 42 34 55 35 35 17 23 4 39 23 7 18 11 13 19 27 41 41 15 26 51 4 35 17 0 0 0 3 40 0 33 2 11 36 40 36 42 33 2 15 35 34 36 39 38
split_gain=1009.25 171.338 127.374 69.4825 43.8754 40.2579 22.6 22.5525 18.8364 24.5677 18.0514 25.6957 17.2772 16.9994 13.3174 21.7251 12.9569 12.1256 11.8073 10.8567 10.5526 15.1978 10.2865 11.6299 10.7592 10.1805 10.1479 9.982 9.87604 9.74878 26.5987 9.69752 9.39972 9.38416 9.20847 9.02056 10.2923 10.0937 8.82646 8.49448 8.27425 8.25083 8.06125 7.90002 8.21406 12.4067 7.8291 7.72974 9.45093 8.69969 7.72004 7.67095 7.53523 10.1488 7.4415 7.30155 7.60852 11.6365 11.9466 7.15548 7.93079 8.31374
threshold=1.0000000180025095e-35 1.5000000000000002 1.0000000180025095e-35 7000.5000000000009 5.5000000000000009 0.95546361804008495 649.50000000000011 1.5000000000000002 8451.5000000000018 0.56369268894195568 3500.5000000000005 -1.0000000180025095e-35 -1.0000000180025095e-35 52.500000000000007 6.6852364540100107 0.1750832945108414 15940.500000000002 554.50000000000011 1.0000000180025095e-35 7.6504068374633798 -1029.4999999999998 -3567.4999999999995 441.00000000000006 0.0029718254227191214 27.500000000000004 2401.0000000000005 0.66539856791496288 1.5000000000000002 3540.0000000000005 37640.500000000007 29479.000000000004 75.500000000000014 0.030266500078141693 5501.0000000000009 3151.0000000000005 35878.500000000007 10626.500000000002 10.313442707061769 33.500000000000007 1583.5000000000002 1600.5000000000002 305000.00000000006 25000.000000000004 315000.00000000006 1.5000000000000002 -1.0000000180025095e-35 135000.00000000003 3822.0000000000005 2.5000000000000004 992.00000000000011 11062.000000000002 -2497.9999999999995 4495.5000000000009 -3998.4999999999995 -3917.4999999999995 1.5000000000000002 117451.50000000001 -1091.4999999999998 2523.0000000000005 11407.500000000002 -3271.4999999999995 3865.0000000000005
decision_type=2 2 2 2 2 2 2 2 2 2 2 2 2 2 2 2 2 2 2 2 2 2 2 2 2 2 2 2 2 2 2 2 2 2 2 2 2 2 2 2 2 2 2 2 2 2 2 2 2 2 2 2 2 2 2 2 2 2 2 2 2 2
left_child=2 4 3 18 10 8 7 14 19 40 13 46 -3 42 15 16 -4 -9 22 41 21 -13 23 24 -1 35 47 -17 50 30 -11 38 -24 -28 51 36 -7 -38 -26 -29 -10 -5 -2 44 -44 -46 -12 49 -49 -14 -27 -6 53 -8 -36 -30 -57 -58 -59 60 -22 -62
right_child=1 12 6 5 34 25 52 17 9 29 11 20 26 -15 -16 27 -18 -19 -20 -21 59 -23 32 -25 31 28 33 39 55 -31 -32 -33 -34 -35 54 -37 37 -39 -40 -41 -42 -43 43 -45 45 -47 -48 48 -50 -51 -52 -53 -54 -55 -56 56 57 58 -60 -61 61 -63
leaf_value=-0.036168193973203901 0.055142544177899704 0.023202135582716645 -0.038696085128506252 -0.0089759177010586746 0.079564138193244358 -0.022232525978555628 0.043108282478089781 0.030144717465801236 -0.02708906136089341 -0.022758703108644963 0.0029175797351011527 -0.003861734317580346 0.033406940517431594 0.092380187325061938 0.00033276725391554455 0.012948678817406854 0.014319229273498655 0.090939389670648851 -0.014592762735452109 -0.030364429610776997 0.043193255884168474 0.055404524477670795 -0.05679493778357099 0.059583627313689005 -0.00034336448362425585 0.067785501661556044 0.055248567864612935 0.066169006487589985 -0.028753774475687718 -0.028752062665754488 0.060320037468866064 -0.0090027994417537088 -0.003887160619222953 0.095139637815173303 0.048349134043364217 -0.025739798782795323 0.002543215192650764 0.070142272826679439 0.041553467834659935 0.0076192953807318886 -0.044307545305081505 -0.032636462028901282 -0.0044882822855823543 0.046186549464982622 -0.031281586304052783 0.035130375764344184 -0.029448697897127729 0.067023688663973055 0.0093798929764419489 0.078971037047533416 0.0035653573887056583 0.044868147779253298 -0.042633679108183789 -0.014145741152190368 -0.0042232944440027606 -0.015010665936090914 -0.030256586335272811 0.011091417571659502 0.097682935188021403 0.03546981174026264 -0.00052670908960611657 -0.054221876092767719
leaf_weight=12.39345173537731 15.065216779708861 28.036977991461754 15.86422576010227 166.34536872804165 19.342914566397667 42.296920150518417 8.8187734037637693 24.464633226394653 82.16828116774559 51.934379652142525 27.500108554959297 16.560266450047493 11.184213906526564 8.825025945901869 177.57456469535828 19.805986747145653 42.13458651304245 12.338352814316748 210.37910883128643 202.96880827844143 8.6478473097085935 31.18978776037693 8.8796079307794553 11.966921985149382 19.739835932850838 9.6107676625251788 271.11772014200687 35.261680737137794 21.206296101212502 320.86972594261169 11.828611001372336 30.195086166262627 153.79232107102871 15.590735897421835 11.889066085219385 111.4508503973484 40.133170425891876 6.4032233953475943 34.613736182451248 7.5150549262762061 462.46321150660515 47.329368889331818 46.943288683891296 18.597622856497765 8.3901903331279737 43.454541802406311 58.279546529054642 24.319262713193893 10.048796266317366 165.4555142223835 9.1208091080188733 90.30161289870739 18.869434088468552 63.276778325438499 15.5149749815464 20.357356056571007 6.3275314420461681 8.9198288321495074 7.1971135586500159 16.092695564031601 51.63931493461132 8.3784860670566541
leaf_count=72 73 129 85 1095 87 266 51 122 573 330 161 98 49 42 1002 104 225 61 1335 1385 47 164 56 66 109 61 1144 171 138 2222 75 180 945 65 55 730 255 40 182 42 3390 319 248 93 45 230 360 102 43 681 58 411 112 357 74 133 41 58 46 86 269 46
internal_value=-0.000442846 0.0414979 -0.0173454 -0.0223781 0.020437 -0.0273124 0.00759668 0.0135987 -0.030917 -0.0348777 0.0112617 0.00224895 0.0613914 0.0251874 0.00904054 0.0218641 -0.000181877 0.0505264 -0.00570101 -0.0220831 0.0160514 0.0348503 0.00118695 0.0130796 0.00733895 -0.0101713 0.0635427 0.0422952 0.00458269 -0.0252036 -0.00734685 0.0137164 -0.00677518 0.0574178 0.0445096 -0.0162663 -0.00438083 0.0118446 0.0263376 0.0558829 -0.0417098 -0.0142168 0.0207104 0.0162914 0.0106635 0.0243827 -0.0190724 0.0718649 0.0501694 0.0760861 0.0365153 0.050989 -0.0145046 -0.00714239 0.0185849 -0.0047622 0.0071245 0.0272013 0.0497594 0.00546067 -0.00157236 -0.00802256
internal_weight=3559.18 1022.37 2536.82 2110.89 496.613 1628.93 425.924 334.959 1345.91 929.264 359.564 218.288 525.753 141.276 298.156 120.582 57.9988 36.803 481.96 416.644 132.508 47.7501 271.581 108.909 96.9421 283.024 497.716 62.5827 82.7397 384.633 63.763 84.5487 162.672 286.708 137.049 200.284 88.8333 46.5364 54.3536 42.7767 544.631 213.675 132.451 117.386 98.788 51.8447 85.7797 211.008 34.3681 176.64 18.7316 109.645 90.965 72.0956 27.404 64.0081 42.8018 22.4445 16.1169 84.7583 68.6656 60.0178
internal_count=21294 4802 16492 14160 2589 11215 2332 1812 9389 6590 1962 1231 2213 731 1629 627 310 183 2945 2799 710 262 1610 609 543 1826 2084 317 535 2627 405 471 1001 1209 627 1291 561 295 291 213 3963 1414 689 616 523 275 521 875 145 730 119 498 520 408 129 416 278 145 104 448 362 315
is_linear=0
shrinkage=0.05


Tree=10
num_leaves=63
num_cat=0
split_feature=31 31 24 0 10 12 23 31 40 54 9 41 38 8 36 16 28 20 34 0 38 25 42 41 43 40 35 40 28 12 42 33 23 29 0 40 43 41 42 42 31 16 25 38 25 35 17 28 44 12 23 11 11 24 16 20 23 36 9 24 25 42
split_gain=902.786 151.051 122.424 37.4662 23.5853 22.4886 32.7762 18.2221 16.9227 14.0283 14.0271 14.963 13.5347 12.639 12.1649 11.4598 11.1645 10.7758 10.6226 9.96247 12.5844 10.6561 9.95617 11.4534 26.8094 16.5265 11.0197 14.3663 10.9837 17.9096 10.6168 10.5219 9.62164 9.62114 10.0685 9.53533 9.41325 9.3269 9.10288 8.91894 8.64372 13.8321 9.63761 8.5364 8.43264 8.41443 8.19437 8.05405 8.03104 7.95119 9.83831 8.92573 7.67253 7.84667 9.78447 8.99402 7.40329 7.29837 8.27239 7.27492 8.97278 6.96544
threshold=1.5000000000000002 5.5000000000000009 4560.0000000000009 75000.000000000015 1.0000000180025095e-35 4056.0000000000005 0.76088184118270885 11.500000000000002 3096.0000000000005 7.1232697963714608 1.0000000180025095e-35 10765.000000000002 1.0000000180025095e-35 1.0000000180025095e-35 4233.5000000000009 -40.499999999999993 0.037105072289705283 3500.5000000000005 332.50000000000006 335000.00000000006 -15.499999999999998 0.0038434473099187021 -399.49999999999994 690.50000000000011 781.00000000000011 -1498.9999999999998 -1029.4999999999998 -1000.4999999999999 0.098176132887601866 4830.5000000000009 -51.499999999999993 30035.500000000004 1.0426005125045779 1.0000000180025095e-35 115000.00000000001 -2020.9999999999998 -1.0000000180025095e-35 -205.49999999999997 -38893.499999999993 1784.5000000000002 3.5000000000000004 29271.500000000004 0.66126304864883434 -596.49999999999989 0.011571388691663744 1261.5000000000002 8073.0000000000009 0.023693554103374485 197.50000000000003 10102.000000000002 0.57892832159996044 2000.5000000000002 164379.50000000003 592929.00000000012 46503.500000000007 799.50000000000011 0.40081954002380377 -18.499999999999996 -1.0000000180025095e-35 114731.50000000001 0.052416335791349418 -199.49999999999997
decision_type=2 2 2 2 2 2 2 2 2 2 2 2 2 2 2 2 2 2 2 2 2 2 2 2 2 2 2 2 2 2 2 2 2 2 2 2 2 2 2 2 2 2 2 2 2 2 2 2 2 2 2 2 2 2 2 2 2 2 2 2 2 2
left_child=2 4 12 18 8 -5 9 13 10 -7 11 22 19 17 -15 -14 46 35 49 21 -21 33 23 43 25 -25 48 -28 30 37 -29 36 -9 34 -1 -3 -32 44 -18 -37 -6 42 -42 -2 -30 -38 -8 -20 -24 51 -51 -4 53 54 55 59 -27 -53 -59 60 -10 -48
right_child=1 7 3 5 40 6 16 32 52 -11 -12 -13 15 14 -16 -17 38 -19 47 20 -22 -23 26 24 -26 56 27 28 29 -31 31 -33 -34 -35 -36 39 45 -39 -40 -41 41 -43 -44 -45 -46 -47 61 -49 -50 50 -52 57 -54 -55 -56 -57 -58 58 -60 -61 -62 -63
leaf_value=-0.039820322573610845 0.02400060164998891 0.1000531058281315 -0.014631754608291506 -0.017655237759158084 -0.01469665530153292 -0.023958660138486115 -0.01466709532649136 0.067466394793144743 -0.0047241987178220785 -0.041085914841263713 0.0027626345521116532 -0.01909598688535584 0.039212290489857603 0.043405575240041405 0.0072256705289715428 -0.025412015685353884 0.033701874726713578 0.089277131131315579 0.022096334721252817 -0.02510617217971144 0.043945543201304497 0.033084538402878012 0.040851107603979094 -0.014719351456100017 0.076396880889081809 0.011628788476121518 0.011500375544968411 0.097311279553318419 -0.0075259821063983906 -0.019528470032720461 0.012015951620508863 0.07498190182005561 0.018446688738535132 0.015855799974157179 0.00061234839269482552 0.054132420182121194 0.067906632653845792 0.060946480276712039 -0.027364263165674609 0.012015092376809831 0.0174685316769327 -0.015795912985283624 0.080936212946558422 -0.023643662198916074 0.049421333771051651 0.014485629405406462 0.059415380805791146 -0.023988712762618859 0.076961108627667779 -0.02805792856403419 -0.0052625095361289159 0.037020062860675627 0.041642535172493722 -0.05220668929827163 0.04053642732394025 -0.024266028241964038 0.065843875759357476 0.031099431504912511 -0.043183409708239889 -0.026140839740327493 0.067652477014148379 0.0034584661000076193
leaf_weight=18.275912329554558 15.996464326977728 9.2707599699497205 26.964640706777573 366.42665262520313 64.775649607181549 149.41222125291824 74.932971253991127 188.86696611344814 8.1086631119251305 598.28178362548351 58.629934296011925 15.700003087520598 8.1279401034116727 219.26207213103771 25.987102851271629 43.976808160543442 6.3078513592481604 24.088177561759949 9.9832370430231077 7.8565205037593833 41.196346297860146 36.603975966572762 46.09155099093914 29.47868050634861 21.692145079374313 11.873978704214098 71.313595935702324 10.37979134917259 14.544741526246073 18.02094379067421 28.064295783638954 20.230134174227715 10.570575341582297 92.587683409452438 97.747039973735809 71.180264249444008 23.421502694487572 24.185069382190704 187.58589346706867 15.265696570277212 21.265674978494648 23.945498645305634 8.322219252586363 22.803441300988197 11.75402896106243 10.756554901599882 6.9779658168554297 188.28781524300575 23.122077628970146 63.738217681646347 183.90233318507671 28.195249363780022 10.729370728135107 7.4634006470441809 13.190197959542273 32.95909109711647 13.406362906098364 7.4729589074850082 7.5189969390630704 7.2795971632003775 9.0745438784360868 27.394429907202721
leaf_count=106 79 39 167 2443 381 1075 498 776 45 4478 314 88 46 982 120 259 42 101 61 48 208 206 220 160 110 63 352 45 74 89 128 88 45 484 572 300 106 117 1297 65 110 127 40 118 60 51 44 1248 108 414 1146 166 56 42 75 190 68 47 46 40 46 174
internal_value=-0.000430056 0.0334792 -0.019217 -0.0241213 0.017936 -0.0283213 -0.0320403 0.0527143 0.0220844 -0.0376634 0.025714 0.0288229 0.00815742 0.0460744 0.0395719 -0.0153311 -0.0181738 0.0593855 -0.0125864 0.0123164 0.0328859 0.00820171 0.0306265 0.0181246 0.0293535 0.0107179 0.0353994 0.0301891 0.0384488 0.0232613 0.0496539 0.0436558 0.0648683 0.00383564 -0.0057566 0.0518629 0.0334742 0.0385357 -0.0253776 0.0466948 -0.00241044 0.0124559 0.0353202 -0.00400084 0.0179262 0.0510939 -0.00539505 -0.0216683 0.0529143 -0.00692021 -0.0111296 0.00793933 0.0019973 -0.00345087 0.00170241 -0.00721802 0.0403795 0.022032 -0.00615604 0.015751 0.0334983 0.0148183
internal_weight=3542.83 1263.07 2279.76 1933.38 698.579 1417.32 1050.89 564.492 580.27 747.694 491.465 432.835 346.372 365.054 245.249 52.1047 303.199 119.805 516.063 294.267 49.0529 245.215 417.135 115.251 76.4512 54.759 301.884 232.671 161.357 68.5048 92.8523 82.4725 199.438 208.611 116.023 95.7167 62.2424 50.4838 193.894 86.446 118.309 53.5334 29.5879 38.7999 26.2988 34.1781 109.305 198.271 69.2136 317.792 247.641 70.1518 88.8049 78.0755 70.6121 57.4219 25.2803 43.1872 14.992 24.4628 17.1832 34.3724
internal_count=21293 6018 15275 13346 3590 10051 7608 2428 2932 5553 2438 2124 1929 1607 1102 305 2055 505 3295 1624 256 1368 2036 598 401 291 1438 1110 758 340 418 373 821 1162 678 404 285 251 1339 365 658 277 150 197 134 157 716 1309 328 1986 1560 426 494 438 396 321 131 259 93 131 91 218
is_linear=0
shrinkage=0.05


Tree=11
num_leaves=63
num_cat=0
split_feature=30 5 54 31 23 47 24 28 23 22 0 11 33 8 39 36 23 24 36 33 11 53 33 26 23 23 41 34 22 39 23 17 44 0 38 16 15 55 33 40 40 36 37 28 11 22 44 25 25 36 37 0 42 28 41 55 28 43 33 55 17 27
split_gain=857.802 221.616 117.879 49.8817 33.7243 29.2769 27.5442 16.504 16.4706 14.9732 14.4488 12.4591 11.9073 14.4998 11.3159 10.2165 10.0179 12.7316 10.0423 9.97389 10.5836 9.47768 9.41596 16.8541 9.86318 9.16645 8.91312 8.77832 9.86925 8.76136 8.70522 9.43325 8.40901 8.04676 10.2332 7.76284 9.89178 7.7088 8.01265 7.69561 8.77396 10.0294 7.58154 7.52137 9.23062 10.5304 8.31946 7.70863 9.76183 8.03598 7.31437 7.1634 7.09781 9.49135 11.0837 8.54109 7.0975 10.6715 11.1564 10.5099 10.7631 7.22234
threshold=1.5000000000000002 1.5000000000000002 6.3707566261291513 4.5000000000000009 0.63229998946189891 9.3966956138610858 1.0000000180025095e-35 0.42339371144771581 0.90305146574974071 13013.500000000002 295000.00000000006 15911.000000000002 3822.0000000000005 -1.4999999999999998 549.50000000000011 1672.0000000000002 0.99233669042587291 98082.500000000015 -1043.4999999999998 589.50000000000011 6021.0000000000009 8.7174367904663104 1365.5000000000002 33463.500000000007 0.20511724799871447 0.45707750320434576 947.50000000000011 185.50000000000003 999.50000000000011 976.50000000000011 0.94378998875617992 2488.5000000000005 3602.0000000000005 215000.00000000003 -669.49999999999989 6802.5000000000009 89214.500000000015 7.7413163185119638 28604.000000000004 -5503.9999999999991 -3069.9999999999995 2143.5000000000005 792.50000000000011 0.03110629785805941 46690.000000000007 760.50000000000011 -77.499999999999986 0.79240167140960704 0.67741778492927562 9440.0000000000018 3943.5000000000005 145000.00000000003 -4178.4999999999991 0.036136720329523093 320.50000000000006 8.0715308189392108 0.11814519017934801 -33.499999999999993 -1901.9999999999998 5.9699847698211679 1165.5000000000002 0.33516684174537664
decision_type=2 2 2 2 2 2 2 2 2 2 2 2 2 2 2 2 2 2 2 2 2 2 2 2 2 2 2 2 2 2 2 2 2 2 2 2 2 2 2 2 2 2 2 2 2 2 2 2 2 2 2 2 2 2 2 2 2 2 2 2 2 2
left_child=2 3 6 9 5 22 10 8 -3 11 -1 56 13 -8 32 26 17 18 -6 21 -21 42 23 24 39 -22 29 28 -28 33 -14 -32 -13 34 -15 -27 37 38 -37 -4 41 -41 -5 44 -10 -46 -47 48 -45 -50 -20 -7 -18 54 -54 -56 57 -2 -59 61 -61 -58
right_child=1 7 4 19 16 51 12 -9 43 -11 -12 14 30 15 -16 -17 52 -19 50 20 25 -23 -24 -25 -26 35 27 -29 -30 -31 31 -33 -34 -35 -36 36 -38 -39 -40 40 -42 -43 -44 47 45 46 -48 -49 49 -51 -52 -53 53 -55 55 -57 59 58 -60 60 -62 -63
leaf_value=0.0087228388711252901 0.00012920412914572946 0.06571958959136727 -0.049605306744467656 0.036120473370516326 -0.041480976347743594 -0.030846313847698561 -0.01169384949303082 0.019074364063805971 -0.0097602759376534346 -0.042172406674100216 0.042971512873534568 0.0060831435610414998 -0.021964354520620167 0.074680408062465869 -0.012335657865765987 -0.011188552130152615 0.03633696860692489 -0.022171713322542655 0.039827501156845219 0.058718152571783602 -0.018290997692513508 0.0001106123894152502 -0.033212925438137975 -0.033638751974346619 0.034423640391295918 0.061825099071521387 0.07603730088220928 0.0007326560787675483 0.0022616405343067066 -0.027462530163217314 0.029708523440758305 -0.031137430748014207 0.059795176692150488 -0.011366738607175013 0.016112753103305243 -0.0052997815309811557 0.056724268878081789 -0.041226215778907921 0.0536438544551818 0.065075776824078307 -0.013028958760557957 -0.020226983182510101 0.064125300451913503 0.064352248436881129 0.078849118111186944 0.051763006031303793 -0.011888002467950553 0.060305611278444152 0.040937732959345496 -0.024692356268722626 -0.022267766444545808 -0.04362610770418808 0.052491506160504187 -0.015940667875541822 -0.03108281320626511 0.025390997627907946 0.0098027567081334366 0.080365013119322065 0.021887611310420371 0.015198748593657153 -0.022494340458100538 0.044048180700570476
leaf_weight=101.44881415367126 17.333406329154968 343.44918243587017 13.219452962279318 158.25228975713253 7.3714178055524817 160.4602368324995 146.02677768468857 26.642268881201744 11.427876219153402 16.605125114321709 44.217966184020042 103.71039491891861 134.85113763809204 8.6904612779617292 118.414754986763 43.837473720312119 9.6492588967084867 440.11785668134689 19.476922705769542 13.050207644701002 20.809704825282097 15.836752384901045 143.68226094543934 115.10552597045898 11.736117124557493 9.4839801937341672 16.837533593177799 10.34515795111656 6.2032005190849295 14.057358175516127 18.375744774937633 9.749743849039076 7.8375611901283255 21.125198364257812 52.598414808511734 18.523508161306385 9.7375832796096784 8.6460569947957975 8.3711555004119855 7.9148431867361051 193.25742800533772 6.1026483029127121 28.523465365171432 13.428800433874128 12.367666155099867 10.435656145215033 10.104204058647158 92.013644278049469 9.4216919690370577 9.2367636710405332 6.2688080370426169 346.28521794080734 12.212687596678732 103.02306859195232 14.460608035326006 12.467440843582152 34.338165462017059 15.022089391946791 17.845303073525429 40.218346953392029 35.794828116893768 27.910291150212288
leaf_count=525 88 1399 90 708 48 1156 915 122 49 101 209 578 929 53 692 294 62 3020 121 59 101 75 1019 826 71 43 102 67 40 87 114 63 41 128 303 87 47 43 40 53 1257 41 128 56 52 44 43 381 40 40 40 2697 78 679 92 77 182 76 88 216 209 144
internal_value=0.000187677 0.0331362 -0.018324 0.0151136 -0.0254436 -0.0311485 6.29957e-05 0.0574417 0.0594386 0.00439212 0.0191192 0.00624003 -0.00568772 -8.09027e-05 -0.00157065 0.00968221 -0.0163368 -0.0199221 0.00997523 0.0311288 0.017138 0.0372483 -0.0224476 -0.0179943 -0.0102401 0.00995768 0.0167278 0.0389952 0.0561749 0.00902171 -0.016687 0.00861618 0.00985705 0.0152448 0.0244174 0.0206922 0.0120765 -0.000156263 0.0130468 -0.0126174 -0.0102584 0.0279384 0.0403972 0.0466315 0.0289543 0.0423989 0.0204511 0.0529467 0.0318444 0.00844793 0.024708 -0.0395794 -0.00516085 -0.00797749 0.0129826 -0.00493595 0.0157706 0.0318736 0.0486148 0.00992389 -0.00255104 0.0251574
internal_weight=3515.97 1264.79 2251.18 726.265 1622.81 997.764 628.365 538.528 511.885 435.03 145.667 418.425 482.698 319.722 229.963 173.695 625.048 473.235 33.1171 291.235 88.6222 202.613 491.018 347.336 232.23 75.572 129.857 33.3859 23.0407 96.4714 162.977 28.1255 111.548 82.4141 61.2889 54.7623 45.2783 35.5407 26.8947 220.494 207.275 14.0175 186.776 168.436 44.3354 32.9075 20.5399 124.101 32.0873 18.6585 25.7457 506.745 151.813 142.164 39.1407 26.928 188.462 50.2008 32.8674 138.262 76.0132 62.2485
internal_count=21228 5972 15256 3746 11427 7210 3829 2226 2104 2415 734 2314 3095 1989 1311 1074 4217 3229 209 1331 420 911 3357 2338 1512 361 780 209 142 571 1106 177 619 484 356 260 217 170 127 1441 1351 94 836 705 188 139 87 517 136 80 161 3853 988 926 247 169 1003 252 164 751 425 326
is_linear=0
shrinkage=0.05


Tree=12
num_leaves=63
num_cat=0
split_feature=5 5 26 29 29 29 23 11 33 26 25 11 23 0 36 23 3 42 25 11 35 35 39 2 11 8 39 21 6 34 21 27 21 38 1 22 19 43 35 21 19 12 50 40 55 26 25 53 43 23 40 55 39 35 4 11 0 4 39 33 35 55
split_gain=780.315 123.664 93.881 37.0957 36.7513 33.6129 26.8598 21.054 21.0451 17.5426 18.0058 17.4629 14.8757 13.7818 11.6198 10.203 9.85693 9.62293 12.1028 10.1575 9.40146 21.5832 9.3387 9.33113 10.763 9.20713 11.9191 10.4356 8.83915 12.4088 10.1069 8.50773 8.41338 14.8526 15.5067 9.14853 7.98981 7.88241 7.78352 8.77035 7.62007 7.882 8.59547 8.27299 9.5554 7.42339 7.3814 8.7648 13.0631 7.35285 7.34628 7.33547 10.0203 9.72986 7.58741 7.48808 8.03061 7.46819 10.4564 7.1699 12.3198 7.04732
threshold=1.0000000180025095e-35 1.5000000000000002 12139.500000000002 1.0000000180025095e-35 1.0000000180025095e-35 2.5000000000000004 0.94378998875617992 10307.000000000002 20606.500000000004 1398.5000000000002 0.45992569625377661 6875.5000000000009 0.0061083333566784867 85000.000000000015 24530.000000000004 0.70232665538787853 1.5000000000000002 1.0000000180025095e-35 0.068179003894329085 5267.0000000000009 -1029.4999999999998 350.50000000000006 -499.49999999999994 2.5000000000000004 98016.000000000015 -1.0000000180025095e-35 1664.5000000000002 1326.5000000000002 1.5000000000000002 -98.499999999999986 452.50000000000006 0.15434421598911288 1.0000000180025095e-35 21.000000000000004 1.5000000000000002 836.50000000000011 301.50000000000006 916.00000000000011 -849.49999999999989 109.50000000000001 499.50000000000006 25681.500000000004 9.5061397552490252 499.50000000000006 4.8322978019714364 1939.0000000000002 0.59815612435340892 7.4033656120300302 100.50000000000001 0.8786434829235078 77.500000000000014 6.2156071662902841 6500.5000000000009 2501.5000000000005 30.500000000000004 900.50000000000011 235000.00000000003 44.500000000000007 -2313.4999999999995 -2344.4999999999995 -1286.4999999999998 5.8391859531402597
decision_type=2 2 2 2 2 2 2 2 2 2 2 2 2 2 2 2 2 2 2 2 2 2 2 2 2 2 2 2 2 2 2 2 2 2 2 2 2 2 2 2 2 2 2 2 2 2 2 2 2 2 2 2 2 2 2 2 2 2 2 2 2 2
left_child=2 5 4 6 7 9 11 17 28 -2 -11 51 -3 14 45 -13 20 25 -19 -20 -12 -22 -18 49 -25 26 37 31 29 40 36 -27 59 34 -34 -35 -30 -1 -5 50 -6 42 43 -42 -45 -9 -47 48 -48 -14 -40 52 55 57 -54 56 -4 -53 -59 -7 -61 -33
right_child=1 12 3 38 8 32 -8 13 -10 10 16 15 23 -15 -16 -17 22 18 19 -21 21 -23 -24 24 -26 27 -28 -29 30 -31 -32 61 33 35 -36 -37 -38 -39 39 -41 41 -43 -44 44 -46 46 47 -49 -50 -51 -52 53 54 -55 -56 -57 -58 58 -60 60 -62 -63
leaf_value=0.0073522684619027959 0.024839341239744819 0.0074559143469079287 0.039015700476638104 -0.01513445788028594 0.035161454525466103 0.074513241516526094 -0.011840837852857512 0.02915949659008742 -0.039108308738065145 -0.0099288785825603684 0.085102403547971994 -0.038591640181463584 0.062692674840959389 -0.032622403943694242 0.020649882987130608 -0.024660669921665847 0.026905637860717393 -0.020875732000988891 0.060269596836267529 -0.0033382169247583152 -0.033386879076168184 0.077512141988649558 -0.0271993239606204 0.048552649851501983 0.008577486905533593 -0.0083668580415479209 -0.032923732467157268 -0.027656843471357162 0.032293912786821082 -0.013484289597129091 0.0097032589308385375 0.018069862214218142 0.056826736631079025 0.040707478242897048 0.018196527155412669 -0.0181135577239105 0.088749136024220826 -0.021844137393290206 0.025270283090221193 0.013450451011077936 -0.037991015542190754 -0.017594663415006612 0.035266053233372799 0.05776784114307492 -0.01426922889310216 -0.026453904647903783 0.018978284882788344 -0.019921641631068004 -0.03527008642332103 0.048670478544956514 -0.032866116562796165 -0.024017787804697183 0.073734178290605884 -0.046482936671460334 0.0020270010565863672 -0.030842686516532481 -0.031705984502895072 0.047661982202235852 -0.01739226484239955 -0.012800697665763007 0.051592835872515563 0.073694358231430404
leaf_weight=196.44515538215637 102.43739984929562 17.694239780306816 9.9552243053913134 84.059513539075851 50.080042734742165 19.390706121921539 230.98740807175636 9.2349670231342298 17.511581584811211 146.24996043741703 9.4815408289432543 518.19356553256512 261.6810177564621 108.34491617232561 25.383131861686707 176.097447514534 18.996557861566544 100.61603635549545 8.8324861675500888 21.686761595308781 8.5806158632040042 8.9776665419340116 13.746737182140349 100.4980640411377 20.227096572518349 7.34593637287617 24.357223719358444 7.2578599303960791 13.46778240799904 35.589674726128578 18.251725524663925 9.0637251883745211 49.28714956343174 9.1152852326631528 54.930644795298576 24.05491515994072 11.72173462808132 26.200752705335617 7.220025688409808 81.647232115268707 10.07379285991192 19.225937336683273 35.688894689083099 8.3968188464641589 10.189623177051542 105.59790551662445 44.850729703903198 77.859444350004196 14.745646253228186 145.45605386793613 21.965264052152634 147.27250890433788 5.9634205996990195 41.392700985074043 9.6723548620939237 31.891941517591476 6.7260811179876319 9.2497199177742022 18.593353286385536 9.3901273310184461 35.542441710829735 15.316803455352781
leaf_count=1156 510 80 66 476 249 83 1538 57 101 878 50 4073 1060 819 163 1264 99 648 52 133 44 48 74 414 84 46 160 47 65 194 88 53 219 42 246 115 56 170 42 465 53 106 181 40 54 718 283 510 93 601 129 1042 42 304 70 222 45 65 131 42 159 94
internal_value=0.000102832 0.036003 -0.0154673 -0.0239006 -0.00403434 0.0183072 -0.0271714 -0.00908258 0.0135785 0.0079291 -0.000478493 -0.0308033 0.0525514 -0.0174979 -0.0115965 -0.0350582 0.0226404 -0.00129481 -0.01251 0.0150703 0.0449818 0.0233165 0.00419055 0.0540631 0.0418549 0.00384774 0.000283616 0.0264299 0.0179165 0.0127524 0.0380358 0.0388029 0.0341781 0.027191 0.0364657 -0.00194933 0.0585649 0.00391646 -0.00366082 0.00504122 0.0197387 0.010497 0.0188901 -0.00150193 0.018275 -0.0148408 -0.0165126 -0.00887542 0.00555587 0.057683 -0.018484 -0.0202798 -0.00543796 -0.0246814 0.0293758 -0.0166446 0.0105 -0.0195281 0.00421934 0.049102 0.0381357 0.0530154
internal_weight=3489.96 1055.74 2434.22 1400.89 1033.34 510.182 1206 803.139 230.198 308.47 206.033 975.008 545.556 386.017 277.672 694.291 59.7831 417.123 131.135 30.5192 27.0398 17.5583 32.7433 527.862 120.725 285.987 247.003 38.9843 212.686 169.245 43.4412 31.7265 201.711 137.388 104.218 33.1702 25.1895 222.646 194.892 110.833 133.655 83.5751 64.3491 28.6602 18.5864 252.289 243.054 137.456 59.5964 407.137 29.1853 280.717 64.209 216.508 15.6358 48.5732 16.6813 175.116 27.8431 64.3233 44.9326 24.3805
internal_count=21211 4848 16363 9974 6389 2609 8862 5202 1187 1703 1193 7324 2239 2643 1824 5337 315 2559 833 185 142 92 173 2159 498 1726 1486 240 1086 877 209 193 906 622 465 157 121 1326 1112 636 683 434 328 147 94 1661 1604 886 376 1661 171 1987 445 1542 112 333 111 1238 196 284 201 147
is_linear=0
shrinkage=0.05


Tree=13
num_leaves=63
num_cat=0
split_feature=30 31 26 0 12 23 24 10 31 41 0 34 11 0 18 19 9 8 31 6 24 8 31 33 43 38 25 41 40 43 12 15 57 28 33 33 33 43 20 14 51 44 28 37 25 21 43 10 12 35 15 26 21 27 23 26 37 23 20 38 0 25
split_gain=681.936 100.545 96.8802 28.363 22.724 23.7916 19.5762 19.3959 16.2816 13.9867 13.3043 11.7541 11.6651 9.92089 9.60852 9.57031 9.35189 9.15236 9.10162 8.60222 11.6826 8.57127 10.6888 9.40028 10.5546 9.51742 10.0135 8.52673 12.8633 9.14826 8.42309 8.85559 15.7919 8.27149 8.01791 19.8255 7.92172 7.85669 7.74055 7.61562 10.5226 8.68992 7.45253 7.36355 7.19006 7.09412 19.7771 7.0907 6.95382 7.85073 8.74216 7.20263 8.80211 11.3992 6.84395 6.77669 6.71913 6.67857 6.99872 6.67244 6.60082 6.55699
threshold=1.5000000000000002 5.5000000000000009 3664.0000000000005 145000.00000000003 4056.0000000000005 0.87362501025199901 1.0000000180025095e-35 1.0000000180025095e-35 11.500000000000002 -899.49999999999989 125000.00000000001 2719.5000000000005 8684.0000000000018 215000.00000000003 1600.5000000000002 529.00000000000011 -1.4999999999999998 1.0000000180025095e-35 2.5000000000000004 2.5000000000000004 555516.50000000012 1.0000000180025095e-35 2.5000000000000004 -3526.4999999999995 -82.499999999999986 -199.49999999999997 0.88622263073921215 669.50000000000011 -1241.4999999999998 391.00000000000006 33441.500000000007 629.50000000000011 5.5587549209594735 0.49249458312988287 8468.0000000000018 28065.500000000004 -499.49999999999994 800.50000000000011 3101.5000000000005 6606.5000000000009 10.101621150970461 79.500000000000014 0.037105072289705283 6094.5000000000009 0.99699583649635326 10030.500000000002 -3025.4999999999995 -1.0000000180025095e-35 30752.500000000004 -598.49999999999989 1250.5000000000002 5150.5000000000009 780.50000000000011 0.84666246175766002 0.95546361804008495 22475.500000000004 20329.000000000004 0.97948578000068676 3154.5000000000005 516.50000000000011 45000.000000000007 0.0032404166413471107
decision_type=2 2 2 2 2 2 2 2 2 2 2 2 2 2 2 2 2 2 2 2 2 2 2 2 2 2 2 2 2 2 2 2 2 2 2 2 2 2 2 2 2 2 2 2 2 2 2 2 2 2 2 2 2 2 2 2 2 2 2 2 2 2
left_child=2 7 6 11 -5 15 13 9 17 33 36 14 16 -1 45 30 -12 38 -9 -10 -21 23 -23 -11 25 26 -25 29 37 -26 31 -6 -33 -2 -19 -36 -8 -29 59 -24 -41 -42 -7 -37 60 46 -4 61 49 -48 51 -51 53 -53 -13 -46 57 -56 -59 -3 -16 -38
right_child=1 8 3 4 5 42 10 18 19 21 12 54 -14 -15 44 -17 -18 34 -20 20 -22 22 39 24 27 -27 -28 28 -30 -31 -32 32 -34 -35 35 43 47 -39 -40 40 41 -43 -44 -45 55 -47 48 -49 -50 50 -52 52 -54 -55 56 -57 -58 58 -60 -61 -62 -63
leaf_value=0.0086741197655658131 0.012658045968966712 0.051396347369343509 0.070530804660519419 -0.015956057293263156 -0.031757725901022833 0.0014093995112471037 0.055253706118695414 -0.016472514094497195 0.061620312939075744 0.050011828036242149 -0.019491355459359216 -0.03288092744206169 -0.051194844376069207 0.035728078650208162 -0.0030223187292016894 -0.03874677361569575 0.0073616124364372986 0.036654316357625588 0.010959417402458857 0.024011813061600606 0.084261759263530467 -0.003258161153238555 0.0030824185315523919 0.014622691071899655 0.031959408031175349 -0.0053875334575634072 0.061854087244114411 0.01242288037093142 0.0726508841864974 -0.0047396908690016523 -0.054514787698201089 0.080992879673673454 -0.010849694696362508 -0.016434788233304159 -0.019853595603620405 0.016338415346688524 -0.018731234518773478 0.065913715038489029 0.072371204617737564 0.07083886420982731 0.046009117336905971 -0.023126488761910681 -0.023232365621919427 0.077967618775889008 -0.010399130226236128 -0.045866196753207404 0.0042313648572989962 -0.035247171371100665 0.017108004605994296 -0.025546489866759808 -0.027032948357773375 0.0014102404843303125 -0.023999226553184802 0.085978950160239112 0.015408946843395525 0.052958652376821805 0.029365361756812154 -0.040341420337103272 0.0058617476497525231 0.022669537973257634 -0.02068790670249878 0.018642749638854927
leaf_weight=74.811025813221931 113.71806789934635 65.286027163267136 9.0272818282246572 296.72151680290699 19.383497647941113 53.713631421327591 9.4236884862184507 58.102815508842468 151.86710086464882 44.002636387944221 70.203640222549438 124.81708781421185 16.937955349683762 61.945972561836243 62.895906627178192 528.48505868017673 60.248541623353958 211.92925104498863 63.049089461565018 36.842542305588722 10.293737679719923 54.84485125541687 19.696088910102844 51.394842177629471 79.701918095350266 42.670384615659714 14.356544926762579 24.995482489466667 28.198259264230728 21.578709974884987 11.67084465920925 6.3909856900572803 17.487030334770679 31.116826862096786 22.042836502194405 9.0431367605924624 14.364338114857672 9.4637991338968259 28.145895734429359 16.594256684184074 10.472205325961115 8.0307232737541181 71.561841160058975 10.444831326603888 10.62678435444832 9.5972779467701894 71.68182235211134 8.9173538237810117 30.454135470092297 14.382601618766783 73.678054563701153 8.6188755258917862 7.8915888220071784 7.4109510779380789 11.137788832187651 7.0008201897144309 8.2895956933498365 31.000525042414665 11.142132148146628 29.279397219419479 332.02012324333191 64.127794414758682
leaf_count=381 601 268 58 2032 140 348 51 347 612 204 434 921 122 294 409 4266 356 920 326 152 42 313 98 245 366 205 64 122 122 105 92 47 132 174 102 41 85 44 115 78 54 41 508 46 68 64 451 55 201 86 486 55 51 47 76 47 56 207 74 122 2352 382
internal_value=-0.000447054 0.0288145 -0.0171639 -0.0219226 -0.0275731 -0.032437 0.00578244 0.0159739 0.0442629 0.0198304 -0.0026989 -0.0150917 -0.012158 0.0209286 -0.0118971 -0.0366821 -0.00708948 0.0381442 -0.00219657 0.0558288 0.0371693 0.0243939 0.0123464 0.0285691 0.0251048 0.0130016 0.0249355 0.0331094 0.047607 0.0241403 -0.0168191 -0.0066498 0.0137321 0.00640764 0.0327176 0.0126287 0.0116989 0.0271135 0.049353 0.0279656 0.0419297 0.0160026 -0.0126669 0.0493694 -0.0164798 -0.00377404 -0.00196369 0.00700319 -0.00502008 -0.00868924 -0.01696 0.0024155 0.0192275 0.0405083 -0.0261517 0.0147635 -0.01251 -0.0190252 -0.0281257 0.0425019 -0.0178744 0.0118032
internal_weight=3485.23 1267.16 2218.07 1837.09 1005.41 708.693 380.98 691.988 575.175 570.836 244.223 831.673 147.39 136.757 645.286 583.417 130.452 376.171 121.152 199.003 47.1363 426.001 109.638 316.363 272.36 108.422 65.7514 163.938 62.6575 101.281 54.9324 43.2615 23.878 144.835 253.46 41.5308 96.8332 34.4593 122.711 54.7933 35.0972 18.5029 125.275 19.488 412.544 232.743 223.145 87.4095 214.118 183.664 111.982 38.304 23.9214 16.0298 186.387 17.6276 61.57 53.2804 42.1427 94.5654 394.916 78.4921
internal_count=21363 5929 15434 13274 7565 5533 2160 3509 2420 2836 1485 5709 912 675 4375 4677 790 1614 673 806 194 2061 584 1477 1273 514 309 759 288 471 411 319 179 775 1109 189 573 166 505 271 173 95 856 87 2876 1499 1435 522 1377 1176 725 239 153 102 1334 115 413 357 281 390 2761 467
is_linear=0
shrinkage=0.05


Tree=14
num_leaves=63
num_cat=0
split_feature=5 5 18 25 54 31 31 35 41 12 23 36 39 15 25 52 35 34 23 42 44 34 37 55 14 27 55 54 44 37 55 43 11 23 42 0 27 40 13 25 36 41 14 33 34 40 23 16 33 52 35 25 52 15 41 42 1 23 37 39 39 54
split_gain=667.111 122.201 65.0528 29.9722 29.2665 26.3211 21.4395 19.7208 17.5783 16.5915 16.1908 14.1606 12.7085 12.9416 12.5056 11.3669 11.0216 12.1828 10.7853 13.9947 12.54 12.5807 10.5467 13.3583 10.3772 12.2266 11.0255 10.7677 12.797 15.274 9.49628 8.98078 8.87927 11.9424 8.72814 8.50632 8.19763 8.12672 7.87467 8.7742 7.85841 7.77567 7.69997 8.21345 7.52047 10.9766 13.1768 7.45279 8.76178 7.7806 7.41506 7.10451 7.06928 7.05711 6.78897 6.78804 6.7518 7.54622 6.92022 6.6878 6.61663 6.56778
threshold=1.0000000180025095e-35 1.5000000000000002 1500.5000000000002 0.64532759785652172 6.7906594276428232 4.5000000000000009 3.5000000000000004 1719.5000000000002 -149.49999999999997 4408.0000000000009 0.94731000065803539 898.50000000000011 1496.0000000000002 112065.00000000001 0.41629999876022344 2.0126758217811589 -1008.4999999999999 -1209.4999999999998 1.0037432909011843 -499.49999999999994 8.5000000000000018 -29.499999999999996 2119.5000000000005 7.7842652797698983 35769.500000000007 0.043701143935322768 6.2490091323852548 8.4815659523010272 477.50000000000006 1351.0000000000002 5.3351285457611093 -4.4999999999999991 2253.0000000000005 0.88872501254081737 677.50000000000011 25000.000000000004 0.14370966702699664 -1909.4999999999998 781.00000000000011 0.0018840579432435336 2501.5000000000005 1296.5000000000002 5000.5000000000009 -3526.4999999999995 25.500000000000004 -125.49999999999999 0.0074618055950850257 14157.000000000002 -6840.4999999999991 8.1609468460083026 -918.49999999999989 0.80689612030982982 7.439265489578248 4162.0000000000009 700.50000000000011 285.50000000000006 1.5000000000000002 0.65026000142097484 -111.49999999999999 1739.5000000000002 260.50000000000006 9.3405785560607928
decision_type=2 2 2 2 2 2 2 2 2 2 2 2 2 2 2 2 2 2 2 2 2 2 2 2 2 2 2 2 2 2 2 2 2 2 2 2 2 2 2 2 2 2 2 2 2 2 2 2 2 2 2 2 2 2 2 2 2 2 2 2 2 2
left_child=2 6 5 4 11 7 8 22 -2 40 -9 16 13 18 30 35 17 -4 20 -20 21 37 23 44 34 27 -27 -26 61 -30 -11 60 -3 42 41 -10 -7 -5 39 -17 47 -14 -34 -44 -1 46 -46 48 -6 -50 -47 -28 -12 -51 -25 -13 57 58 -8 -45 -21 -29
right_child=1 32 3 12 9 36 56 10 15 14 52 55 24 -15 -16 38 -18 -19 19 31 -22 -23 -24 54 25 26 51 28 29 -31 -32 -33 33 -35 -36 -37 -38 -39 -40 -41 -42 -43 43 59 45 50 -48 -49 49 53 -52 -53 -54 -55 -56 -57 -58 -59 -60 -61 -62 -63
