tree
version=v4
num_class=1
num_tree_per_iteration=1
label_index=0
max_feature_idx=57
objective=binary sigmoid:1
feature_names=Column_0 Column_1 Column_2 Column_3 Column_4 Column_5 Column_6 Column_7 Column_8 Column_9 Column_10 Column_11 Column_12 Column_13 Column_14 Column_15 Column_16 Column_17 Column_18 Column_19 Column_20 Column_21 Column_22 Column_23 Column_24 Column_25 Column_26 Column_27 Column_28 Column_29 Column_30 Column_31 Column_32 Column_33 Column_34 Column_35 Column_36 Column_37 Column_38 Column_39 Column_40 Column_41 Column_42 Column_43 Column_44 Column_45 Column_46 Column_47 Column_48 Column_49 Column_50 Column_51 Column_52 Column_53 Column_54 Column_55 Column_56 Column_57
feature_infos=[10000:1000000] [1:2] [0:6] [0:3] [21:79] [-2:8] [-2:7] [-2:8] [-2:8] [-2:8] [-2:8] [-165580:964511] [-69777:983931] [-157264:1664089] [-170000:891586] [-81334:927171] [-339603:961664] [0:873552] [0:1684259] [0:896040] [0:621000] [0:426529] [0:528666] [-0.61989200115203857:6.4552998542785645] [-336259:5263883] [-0.23259000480175018:5.3643083572387695] [0:3764066] [-8706.599609375:11453.6669921875] [-546.9285888671875:390.15887451171875] [0:6] [-2:8] [0:36] [0:6] [-428791:708323] [-489972:470400] [-1682177:512650] [-386187:1542332] [-487241:418098] [-414369:446948] [-528666:728552] [-1679893:504669] [-845317:1562428] [-519862:846040] [-414370:601000] [-528466:414910] [9.2104406356811523:13.815511703491211] [-12.017215728759766:13.779377937316895] [-11.153074264526367:13.799311637878418] [-11.96568775177002:14.324789047241211] [-12.043560028076172:13.70075798034668] [-11.306331634521484:13.739893913269043] [-12.735535621643066:13.776421546936035] [0:13.680324554443359] [0:14.336836814880371] [0:13.705741882324219] [0:13.339088439941406] [0:12.963438034057617] [0:13.17811393737793]
tree_sizes=6877 6874 6861 6853 6858 6847 6839 6870 6851 6864 6853 6846 6847 6872 6862 6856 6883 6872 6851 6880 6838 6861 6884 6885 6875 6862 6874 6869 6903 6875 6857 6858 6815 6855 6861 6855 6854 6881 6864 6878 6871 6873 6858 6876 6836 6845 6851 6876 6896 6834 6859 6882 6842 6850 6860 6856 6844

Tree=0
num_leaves=63
num_cat=0
split_feature=31 5 24 0 31 23 12 24 17 34 20 34 24 28 11 27 36 0 42 0 11 25 20 34 0 33 23 14 34 41 13 41 0 28 44 37 16 23 37 41 2 37 36 13 13 10 11 1 34 57 25 20 20 36 0 24 15 24 10 57 44 14
split_gain=3471.71 542.783 488.636 168.614 160.721 96.2592 99.196 68.0311 42.3151 32.5033 28.9136 27.1776 24.6106 23.8878 22.0204 21.8047 21.7578 21.1209 20.1572 19.4046 20.2572 24.158 18.8415 18.5135 16.4577 16.2796 15.9445 28.4642 15.5343 16.352 15.1177 15.0289 14.9269 14.8367 14.2622 13.9747 13.5401 13.0402 13.1979 13.0133 17.4458 12.9425 12.4179 24.0771 12.1571 12.0321 12.0265 16.5499 15.5144 19.2752 12.0166 11.9306 11.7915 11.6954 11.6699 11.4841 11.4697 11.3805 11.8362 12.5535 11.3376 10.8574
threshold=1.5000000000000002 1.5000000000000002 10781.500000000002 75000.000000000015 4.5000000000000009 0.86738571524620067 7073.5000000000009 1.0000000180025095e-35 1545.5000000000002 -135.49999999999997 173.50000000000003 14286.000000000002 -1.0000000180025095e-35 0.62418740987777721 2158.5000000000005 0.042560888454318054 15047.000000000002 275000.00000000006 85.500000000000014 235000.00000000003 16065.500000000002 0.19281151890754702 2999.0000000000005 -366.49999999999994 145000.00000000003 582.50000000000011 0.56801670789718639 12752.500000000002 -1504.4999999999998 100.50000000000001 3027.5000000000005 5856.5000000000009 315000.00000000006 0.036616975441575057 -849.49999999999989 383.50000000000006 3415.5000000000005 0.98472043871879589 27021.500000000004 1309.5000000000002 1.5000000000000002 -2641.9999999999995 150.50000000000003 13595.500000000002 740.50000000000011 -1.4999999999999998 148122.00000000003 1.5000000000000002 -735.49999999999989 6.783891201019288 0.013371168635785581 1900.5000000000002 1800.5000000000002 1938.5000000000002 85000.000000000015 2502.0000000000005 226.00000000000003 939406.00000000012 1.0000000180025095e-35 8.150611877441408 23.500000000000004 548.00000000000011
decision_type=2 2 2 2 2 2 2 2 2 2 2 2 2 2 2 2 2 2 2 2 2 2 2 2 2 2 2 2 2 2 2 2 2 2 2 2 2 2 2 2 2 2 2 2 2 2 2 2 2 2 2 2 2 2 2 2 2 2 2 2 2 2
left_child=2 4 7 9 8 6 14 12 11 26 -11 24 -1 -3 -5 16 28 41 22 20 23 -22 35 51 -2 31 27 42 -7 -30 55 -6 -14 -27 -21 45 -35 38 -31 40 -28 -8 -4 -44 -12 50 48 -48 49 -43 -9 -10 -18 -16 -50 61 -19 58 -23 -60 -36 -20
right_child=1 13 3 5 25 15 17 18 19 10 44 -13 32 -15 53 -17 52 56 30 34 21 57 -24 -25 -26 33 39 -29 29 37 -32 -33 -34 36 60 -37 -38 -39 -40 -41 -42 46 43 -45 -46 -47 47 -49 54 -51 -52 -53 -54 -55 -56 -57 -58 -59 59 -61 -62 -63
leaf_value=-0.016428574851443601 0.033970599445822716 0.079165547251205406 0.0086931959243221092 -0.024953070104930534 0.057957165347925652 -0.0009232161589611571 -0.077972219294072873 -0.014913288470974659 0.041183495054263754 -0.001461099363296051 -0.090551359062568809 -0.051508938664384336 0.025217700281184439 0.02840550832278475 -0.041255424227435139 -0.044250138728358972 -0.041769954871715871 -0.040295104007480993 -0.046334821520482475 -0.075311913385067972 -0.078994440267667457 0.0044250567596007383 -0.055115234990454204 -0.046941409071359748 0.0089015138921574553 0.053917603013794169 -0.035336757715953432 -0.052142750071469963 -0.062785577085716165 -0.070808391351715447 0.03310817275771058 0.013191593950016097 0.057293102851678622 0.042957971232974387 0.02126792092487232 0.052021523505788057 -0.0003151630933030758 -0.0023447093394028664 0.007983867748912488 -0.036616271572662056 0.0038081206013426544 -0.026811274603568424 -0.07213682713822768 0.023806340189836489 -0.038959625932202528 0.0084432844796673394 0.0090993005763955592 -0.061636603520756734 -0.038525974609577553 -0.058963299447079592 0.03151446943779064 -0.0063745516168887606 0.0089249809159257579 -0.064326704600981235 -0.073197449638354437 -0.037554274530179094 -0.078586007149851103 0.050631700779790456 -0.0379449354169141 0.011793806038976068 -0.040600359676825154 0.014294002821934748
leaf_weight=28.398615792393684 213.42570848762989 939.8693560063839 48.868746653199196 185.22852103412151 306.94013401865959 33.079717636108398 92.350075960159302 140.79259479045868 60.036179572343826 55.051508098840714 11.960953667759894 11.653166487812994 140.79738318920135 23.76379619538784 223.16489270329475 129.73938496410847 13.585842311382292 20.821806088089943 10.529629111289976 13.733124151825903 10.760469496250151 116.88391095399857 15.107337161898611 8.5200064927339536 94.437216222286224 54.334934145212173 33.207164227962494 61.39899243414402 45.552851870656013 19.357422783970836 11.037592127919195 19.968779593706131 48.857917353510857 33.202946677803993 13.047214746475222 13.381448924541472 39.680271804332733 33.561233654618263 7.3261340707540503 30.311456367373466 199.23033271729946 61.766285359859467 16.224262788891796 10.954033583402632 251.80096063017845 188.6303685605526 15.538353383541105 17.675422593951225 27.576253846287727 190.02566932141781 15.468018338084219 16.899342894554138 73.665909931063652 72.865206584334373 202.39540976285934 88.680682599544525 321.93461139500141 9.7535494118928892 41.887676060199738 18.196609109640121 17.123571529984474 24.720216482877731
leaf_count=124 692 2100 186 844 831 133 530 610 185 222 72 60 484 80 1098 647 67 102 53 78 62 456 79 43 359 152 159 317 246 108 36 74 133 101 46 38 159 136 28 146 780 284 91 38 1226 719 59 95 134 1010 51 70 280 396 1140 429 1852 28 203 68 84 91
internal_value=-0.000144277 0.0505137 -0.0324908 -0.0429564 0.0265209 -0.0511823 -0.0569683 0.00361748 0.0105045 -0.0225095 -0.0344201 0.0234435 0.0269808 0.0779138 -0.038474 -0.0279105 -0.0185358 -0.0663364 -0.00640411 -0.00214461 0.00265449 -0.00614627 -0.000418007 0.0229925 0.0262806 0.0493171 -0.0130209 -0.0268198 -0.0308291 -0.0401798 -0.0229643 0.0552227 0.0334808 0.0341416 -0.0330723 0.00188842 0.0193985 -0.0230869 -0.0491755 -0.00580262 -0.00178431 -0.0607359 -0.00637455 -0.0334676 -0.0412992 -5.66971e-05 -0.057645 -0.0285443 -0.0596513 -0.0510762 -0.0103175 0.0307371 0.00103135 -0.0469342 -0.0690399 -0.0279582 -0.0762599 -0.00194815 -0.00484607 -0.0228815 -0.0138457 -0.00381669
internal_weight=5296.74 2064.12 3232.62 2506.22 1100.48 1787.21 1431.34 726.402 646.358 719.008 318.813 319.516 218.054 963.633 481.259 355.868 226.129 950.084 508.348 326.842 282.938 197.482 373.38 85.4555 307.863 454.127 400.195 137.446 138.877 105.798 134.968 326.909 189.655 127.218 43.9039 358.272 72.8832 60.2448 26.6836 262.749 232.437 607.327 76.047 27.1783 263.762 344.891 514.977 33.2138 481.764 251.792 156.261 76.9355 87.2518 296.03 229.972 123.931 342.756 186.722 176.968 60.0843 30.1708 35.2498
internal_count=21204 5931 15273 12426 3751 9189 7544 2847 2434 3237 1520 1111 741 2180 2338 1645 998 5206 2106 1323 1115 817 1497 298 1051 1317 1717 632 651 518 609 905 617 412 208 1418 260 272 136 1085 939 3252 315 129 1298 1380 2722 154 2568 1294 661 255 347 1494 1274 573 1954 755 727 271 130 144
is_linear=0
shrinkage=1


Tree=1
num_leaves=63
num_cat=0
split_feature=29 5 18 31 0 24 0 27 12 22 17 12 19 42 42 35 36 0 36 43 18 46 35 42 39 0 22 38 38 46 34 39 14 22 10 24 35 4 35 46 27 38 42 19 18 15 0 19 2 1 34 19 37 20 4 22 19 36 44 16 31 18
split_gain=3225.79 648.252 241.321 203.458 81.274 71.4099 60.3335 56.4023 66.6141 45.4854 39.7707 31.6337 27.334 22.1248 21.3135 20.2814 27.2972 20.1644 28.2391 19.2493 18.5511 17.6967 17.1937 19.4599 17.0567 16.8837 16.6328 16.1617 15.1111 15.0434 14.8553 16.0157 14.9753 14.7068 14.2262 15.8944 14.2224 14.3165 14.2142 25.6613 19.7437 18.7593 16.1754 14.0932 14.0734 13.2772 13.2221 23.6374 13.1737 13.1126 12.8344 15.9223 15.4827 12.871 12.7456 12.7031 12.6769 12.537 12.4864 12.255 12.0688 11.9745
threshold=1.0000000180025095e-35 1.5000000000000002 1638.5000000000002 4.5000000000000009 75000.000000000015 4765.5000000000009 65000.000000000007 0.043804805725812919 4598.0000000000009 9973.5000000000018 925.50000000000011 284033.00000000006 554.50000000000011 760.50000000000011 -3499.4999999999995 -748.49999999999989 13088.500000000002 265000.00000000006 24250.500000000004 1.0000000180025095e-35 3816.5000000000005 5.9674272537231454 876.00000000000011 10074.500000000002 2947.5000000000005 295000.00000000006 7077.5000000000009 -1567.4999999999998 -2828.4999999999995 6.3944263458251962 -664.49999999999989 -250.49999999999997 48386.000000000007 397.50000000000006 -1.4999999999999998 8804.0000000000018 1.0000000180025095e-35 38.500000000000007 2155.0000000000005 11.00813150405884 0.060199640691280372 1553.5000000000002 -782.49999999999989 1500.5000000000002 5997.5000000000009 477.00000000000006 45000.000000000007 990.50000000000011 1.5000000000000002 1.5000000000000002 -2153.4999999999995 1.0000000180025095e-35 -15.499999999999998 1.0000000180025095e-35 26.500000000000004 4296.5000000000009 2300.5000000000005 740.50000000000011 690.50000000000011 24901.500000000004 1.5000000000000002 1999.5000000000002
decision_type=2 2 2 2 2 2 2 2 2 2 2 2 2 2 2 2 2 2 2 2 2 2 2 2 2 2 2 2 2 2 2 2 2 2 2 2 2 2 2 2 2 2 2 2 2 2 2 2 2 2 2 2 2 2 2 2 2 2 2 2 2 2
left_child=2 3 5 9 20 36 15 11 13 10 19 17 34 14 -9 -7 33 18 24 27 26 -21 23 55 43 -16 30 28 60 -3 31 -4 -33 57 -8 -36 37 -1 40 58 41 56 54 -6 -5 -38 47 -35 -32 -45 -44 -52 -53 61 -42 -14 -12 -17 -40 -22 -2 -54
right_child=1 29 4 44 7 6 12 8 -10 -11 38 -13 22 -15 25 16 -18 -19 -20 21 59 -23 -24 -25 -26 -27 -28 -29 -30 -31 48 32 -34 46 35 -37 45 -39 39 -41 42 -43 50 49 -46 -47 -48 -49 -50 -51 51 52 53 -55 -56 -57 -58 -59 -60 -61 -62 -63
leaf_value=-0.00077885939811119182 -0.023570450599346 0.03455298429171947 -0.075048894972790992 0.051147802829380362 -0.016798755170023823 0.010218966460695714 -0.03706752031591775 -0.058919041703383038 -0.066488447887291441 -0.038996786446043222 -0.01239698147217265 -0.0014184816602424023 -0.049354306882868709 -0.055606717682041742 0.0010626833767805857 0.0010953627825072835 0.025800622397212217 -0.060327334386930213 -0.0066664784883638155 -0.024255297669949039 -0.059479828597348218 0.018158151560690325 -0.06128996109562386 0.012544125238642206 -0.0081729951108980414 -0.048248396842487343 0.027723487696848993 0.031157467048066947 -0.047059615418484399 0.075454873598028868 -0.068892018833950353 -0.016272061801435391 0.023740803768357244 -0.080081009702502023 0.030479448116505076 -0.019289526350292234 -0.008412624865398453 0.023476823019876601 -0.022405534235367779 0.014763815989692883 -0.057718155383976733 0.015363837278128255 0.039861960973407336 -0.035977498228300771 0.020132714665352613 -0.074429296988168567 -0.052709284128240885 7.8445098063747208e-06 -0.027839307022952543 -0.060204034364364049 0.046293564371422978 0.023284166941082821 0.022799407828846589 -0.064432267262056281 0.0024373302073567075 -0.0054273302734862503 -0.056937464568228062 -0.042083611431775476 -0.072162815616569218 -0.015542663986109507 0.039014096385186776 -0.049377675950924689
leaf_weight=154.50881458818913 11.902604177594183 23.023143604397774 9.3140233010053617 425.41661430895329 33.442140802741051 99.16482101380825 77.628350302577019 29.067632153630257 707.48284335434437 48.697628512978554 47.701968044042587 51.001271799206734 106.51490215957165 74.374780878424644 76.027342736721039 71.940143778920174 32.534733921289444 122.93982806801796 63.707037538290024 39.080564603209496 57.825212225317955 66.345723867416382 118.01440095901489 18.351115554571152 31.129074364900589 22.494808450341225 16.991115137934685 296.64620961248875 12.697204694151877 953.08330975472927 23.124077543616295 103.59060160815716 30.201252549886703 11.879865169525145 20.781641036272049 70.343611344695091 49.721854671835899 100.34181712567806 50.009916007518768 42.426172956824303 10.604492202401159 40.17178313434124 62.678063720464706 87.570622324943542 40.016125932335854 8.993884935975073 56.790643230080605 41.038405776023865 126.14103402197361 154.20699200034142 23.768494576215744 34.624426335096359 16.426509663462642 12.529353916645048 51.902546688914299 19.466220051050186 24.018956437706947 21.93700584769249 16.859101235866547 21.87383408844471 21.83328965306282 8.8383541554212552
leaf_count=620 54 73 53 1193 148 376 378 156 3931 238 204 207 548 393 305 287 112 666 266 178 310 237 640 69 131 115 58 974 64 2131 129 454 105 69 69 315 209 348 226 156 56 147 194 425 141 51 296 165 587 833 70 120 57 68 205 81 127 109 95 96 68 45
internal_value=-8.53023e-06 0.0431894 -0.0352075 0.0214466 -0.0462074 -0.0164404 -0.0246645 -0.0516406 -0.0592584 0.00805734 0.0106289 -0.0389052 -0.0370366 -0.0339313 -0.0212962 -0.00875681 -0.0167262 -0.0427833 -0.0369549 0.0211219 -0.0259104 0.00243587 -0.0471343 -0.0355598 -0.0432535 -0.0101961 -0.0203688 0.026864 -0.000565744 0.0744901 -0.0231637 -0.0116532 -0.00723983 -0.0235223 -0.0213386 -0.00793942 0.00366004 0.00877128 -5.05856e-06 -0.0156524 0.00512652 -0.0119914 0.0137788 -0.0472213 0.0484812 -0.0185248 -0.0359535 -0.0179717 -0.0341992 -0.0514293 0.0222566 0.0107845 -0.000869893 -0.0229982 -0.00776821 -0.0425668 -0.0273134 -0.0089946 -0.0349504 -0.047421 0.0169332 -0.00245015
internal_weight=5303.76 2381.3 2922.46 1405.2 1842.51 1079.95 766.386 1453.44 909.447 939.763 891.066 543.997 431.1 201.965 127.59 335.286 236.121 492.996 370.056 448.506 389.061 105.426 262.347 144.332 306.349 98.5222 309.362 343.079 46.4331 976.106 292.371 143.106 133.792 203.586 168.754 91.1253 313.566 254.851 442.56 109.295 333.265 111.893 221.372 275.22 465.433 58.7157 109.709 52.9183 149.265 241.778 158.865 96.1871 72.4186 37.7942 62.507 125.981 71.7209 93.8771 66.869 79.699 33.7359 25.2649
internal_count=21231 7121 14110 4917 9368 4742 3514 7576 4900 3583 3345 2676 2100 969 576 1414 1038 2469 1803 1575 1792 415 1338 698 1537 420 1386 1160 186 2204 1328 612 559 926 762 384 1228 968 1770 477 1293 478 815 1406 1334 260 530 234 716 1258 554 360 290 170 261 629 331 396 321 406 122 102
is_linear=0
shrinkage=0.05


Tree=2
num_leaves=63
num_cat=0
split_feature=29 5 26 31 23 26 24 12 0 6 23 27 14 20 28 23 24 22 34 28 35 13 24 4 8 35 0 27 18 34 18 42 42 22 36 18 28 28 12 35 23 22 28 23 42 44 36 0 20 44 35 36 24 16 20 21 25 41 4 0 35 27
split_gain=2841.39 540.409 214.67 162.372 113.45 83.3893 56.8387 56.186 43.2282 40.3707 30.4355 28.5995 24.9369 23.5663 22.4076 19.24 18.1242 17.9606 16.9591 20.305 16.9423 16.94 17.2032 24.4979 24.1488 16.4201 15.9357 15.732 15.8717 15.5105 16.2691 15.2787 14.7025 14.7022 14.6439 13.9815 13.8548 19.1133 13.5756 17.3351 13.5249 13.1897 13.0216 13.0031 12.336 12.2894 13.3341 12.0935 13.6295 18.6467 12.0145 11.9969 11.8172 13.411 11.6359 11.5709 11.3741 15.6088 12.8187 12.2464 11.4471 11.2475
threshold=1.0000000180025095e-35 1.5000000000000002 11595.000000000002 4.5000000000000009 0.90237125754356395 8001.0000000000009 7404.0000000000009 4400.5000000000009 65000.000000000007 1.5000000000000002 0.52887573838233959 0.49718555808067327 19224.500000000004 1732.5000000000002 0.42943631112575537 0.9619249999523164 96681.500000000015 991.00000000000011 -135.49999999999997 0.017276563681662086 -769.49999999999989 -24.499999999999996 1.0000000180025095e-35 32.500000000000007 -1.4999999999999998 -5476.9999999999991 355000.00000000006 0.04209514148533345 2006.5000000000002 -963.49999999999989 8600.5000000000018 99.500000000000014 1499.5000000000002 1640.5000000000002 13756.000000000002 5801.0000000000009 0.035320134833455093 0.032451678067445762 10908.500000000002 -1527.9999999999998 0.87264168262481701 9649.5000000000018 0.57191374897956859 0.95677581429481517 376.50000000000006 1583.0000000000002 -2211.9999999999995 65000.000000000007 1493.5000000000002 777.50000000000011 564.50000000000011 30848.000000000004 193622.00000000003 7489.5000000000009 1050.5000000000002 820.50000000000011 0.62124475836753856 -1653.9999999999998 26.500000000000004 65000.000000000007 5444.0000000000009 0.2048602029681206
decision_type=2 2 2 2 2 2 2 2 2 2 2 2 2 2 2 2 2 2 2 2 2 2 2 2 2 2 2 2 2 2 2 2 2 2 2 2 2 2 2 2 2 2 2 2 2 2 2 2 2 2 2 2 2 2 2 2 2 2 2 2 2 2
left_child=2 3 6 5 7 44 21 13 18 26 12 15 17 25 40 20 -12 42 61 -20 38 -1 23 -23 -24 -4 51 29 -29 -6 35 52 34 -13 50 43 37 -18 39 -10 -3 -11 -9 -31 -2 46 -46 -27 49 -49 -21 56 53 -22 -26 -28 57 -7 -59 -60 -61 -8
right_child=1 14 4 -5 27 9 8 10 11 41 16 33 -14 -15 -16 -17 36 -19 19 32 31 22 24 -25 54 47 55 28 -30 30 -32 -33 -34 -35 -36 -37 -38 -39 -40 -41 -42 -43 -44 -45 45 -47 -48 48 -50 -51 -52 -53 -54 -55 -56 -57 -58 58 59 60 -62 -63
leaf_value=-0.056097203859785109 0.029047423931248595 0.075857514063266893 -0.04515216043845019 0.045653746323286025 0.0095179887850127612 -0.033970198042319093 -0.0093277191571101582 -0.051717123476997397 -0.046074932504852235 0.02869728728745229 0.011306391811512112 -0.020597107276291479 -0.070360741161036799 -0.043370009614951709 0.030566472629354025 0.0028758766118109807 -0.061469095618351094 -0.059212889337394208 0.033413927681629797 -0.027992152600840866 -0.048807179111647267 -0.021856918672683204 -0.019269784551904645 0.041848176229500059 0.012640214897328901 0.037159859243027317 -0.0076496859155681836 2.7661135381861793e-05 -0.037784556198957001 -0.064188393170191871 0.0062231009903193557 -0.079284905650745863 0.017254457113573877 0.03659316120964369 0.0017445777130422773 -0.060391705750952651 -0.050138952996148636 0.0067855680032544736 -0.051178261125540053 0.016864863238239415 0.063167584041058294 -0.028338561603906545 -0.015061216710820002 -0.012502251810974294 0.047279598335514046 0.059500909070858359 -0.0067334849808819812 -0.0030904822739327271 0.039943796423419803 -0.057556926631980955 -0.059437415431279055 -0.059354591120594893 -0.087365618921437085 0.0039220861077352695 -0.032931474792975389 -0.068837859806113871 0.0049262669978869626 -0.039801908621577203 0.028370838468225697 -0.0024030614602580007 -0.060750401992842706 0.021251954744244617
leaf_weight=13.252104163169859 369.57448820769787 598.27216458320618 35.46044896543026 463.84926702082157 61.559048280119896 67.884885743260384 219.40486009418964 48.959898725152016 20.137232154607773 96.046163812279701 14.478382334113119 53.176684468984604 388.8416360616684 194.25500817596912 34.861054688692093 19.362836375832558 16.737671360373497 231.59757150709629 13.534432604908941 68.290893167257309 64.258911818265915 21.31125807762146 138.7933341562748 51.704158753156662 159.91596312820911 14.243432417511938 12.53919196128845 33.525859415531158 161.15067352354527 14.266299501061438 44.323034182190895 57.792455524206161 14.72456645965576 14.248896181583403 22.680577963590622 27.676427647471428 269.07315760850906 26.489331468939781 43.823035597801208 23.952721521258354 323.50530254840851 11.332243487238882 47.961769431829453 82.753302589058876 13.694057971239088 10.5557564496994 68.999921172857285 49.118003234267235 10.7031092941761 23.105977296829224 54.712917730212212 11.401882901787756 14.964069962501524 14.844194158911703 15.351888149976729 20.129723265767097 123.98809584975243 22.972811937332153 30.66975724697113 94.503350436687469 9.2268094569444639 34.84534078836441
leaf_count=70 1223 1292 181 1337 235 325 929 258 103 319 55 241 2229 983 112 78 92 1267 44 320 333 95 618 156 596 46 53 136 797 79 173 341 54 46 91 150 1412 105 231 89 790 53 214 360 40 28 284 203 34 124 296 61 91 60 73 113 483 113 103 385 50 124
internal_value=0.000238675 0.0408372 -0.0325554 0.0213485 -0.0433688 0.00964769 -0.0157394 -0.050367 -0.0238171 -0.00449449 -0.0560305 -0.0375193 -0.061792 -0.0322769 0.0699157 -0.045067 -0.0433824 -0.0516499 -0.0133672 -0.0253975 -0.0489386 -0.000510045 0.00139306 0.0232544 -0.00368943 -0.0160296 -0.0119128 -0.0208066 -0.0312728 -0.01197 -0.0197962 -0.0590512 -0.0303597 -0.00851122 -0.0351722 -0.0290447 -0.0459178 -0.0196429 -0.0314703 -0.0118817 0.0714039 0.022678 -0.0335779 -0.0201025 0.0249471 0.00869618 0.00221104 -0.00540185 -0.0127122 -0.0205154 -0.0419792 -0.0088837 -0.0466201 -0.0389122 0.00864854 -0.0453522 -0.00723596 -0.0139304 -0.00528595 0.000613817 -0.00759306 -0.00513673
internal_weight=5335.37 2384.01 2951.36 1427.37 1796.28 963.519 1155.08 1371.03 754.755 500.695 1044.14 326.561 717.361 326.886 956.639 259.135 326.779 328.519 428.194 173.943 239.773 400.329 387.077 73.0154 314.061 132.631 393.317 425.255 194.677 230.578 169.019 151.86 160.409 67.4256 145.684 124.696 312.3 43.227 87.913 44.09 921.777 107.378 96.9217 97.0196 462.824 93.2497 82.694 97.1705 82.9271 72.224 123.004 360.648 94.0672 79.1031 175.268 32.6689 349.246 225.258 157.373 134.4 103.73 254.25
internal_count=21376 7164 14212 4970 9133 3633 5079 7203 3471 2058 5632 1613 3968 1571 2194 1326 1664 1739 1858 805 1248 1608 1538 251 1287 588 1686 1930 933 997 762 825 761 287 707 589 1609 197 423 192 2082 372 472 439 1575 352 324 407 361 327 616 1520 484 393 669 166 1459 976 651 538 435 1053
is_linear=0
shrinkage=0.05


Tree=3
num_leaves=63
num_cat=0
split_feature=31 5 26 31 24 0 27 49 26 28 34 36 18 31 34 36 44 38 38 56 7 4 24 4 52 0 38 0 52 12 34 24 0 16 49 38 37 34 36 26 38 55 52 26 41 41 55 2 56 56 44 37 24 15 13 37 35 4 42 22 35 27
split_gain=2580.92 420.426 379.63 121.55 82.8842 63.9545 60.7425 52.5856 43.9108 35.0642 31.1775 27.11 24.737 21.8637 22.8832 21.0628 20.3905 19.271 17.751 18.6079 17.425 16.9593 16.3508 19.84 16.2665 15.5898 22.726 15.446 15.4119 15.2924 15.2356 14.9999 14.4952 18.1632 14.2596 14.1545 18.9069 14.0178 13.5356 13.4132 13.1277 13.6483 12.6267 12.5963 12.5714 21.5751 13.2116 11.8854 11.7832 16.7364 13.3092 13.2074 12.7406 12.3685 14.8607 12.7267 14.0013 11.7788 11.1905 18.8112 15.622 11.6504
threshold=1.5000000000000002 1.5000000000000002 7000.5000000000009 4.5000000000000009 1.0000000180025095e-35 75000.000000000015 0.04209514148533345 9.0857400894165057 8001.0000000000009 0.038133792579174049 26.500000000000004 1667.5000000000002 4984.5000000000009 2.5000000000000004 619.50000000000011 7757.0000000000009 -1674.4999999999998 908.50000000000011 -1371.4999999999998 5.0205800533294687 -1.0000000180025095e-35 53.500000000000007 274436.00000000006 30.500000000000004 7.3108842372894296 175000.00000000003 435.50000000000006 295000.00000000006 8.2181134223938006 5177.5000000000009 4293.0000000000009 7928.0000000000009 25000.000000000004 325.50000000000006 11.153661727905275 16047.000000000002 -2074.4999999999995 1014.5000000000001 899.50000000000011 326.00000000000006 -1491.4999999999998 8.5171933174133319 7.9379103183746347 4802.0000000000009 -2696.4999999999995 -1049.9999999999998 9.0014076232910174 1.5000000000000002 7.0470821857452401 7.9017474651336679 12462.500000000002 -1705.4999999999998 274436.00000000006 477.00000000000006 2149.5000000000005 -643.49999999999989 -1010.4999999999999 40.500000000000007 1461.5000000000002 517.50000000000011 69.500000000000014 0.66262099146842968
decision_type=2 2 2 2 2 2 2 2 2 2 2 2 2 2 2 2 2 2 2 2 2 2 2 2 2 2 2 2 2 2 2 2 2 2 2 2 2 2 2 2 2 2 2 2 2 2 2 2 2 2 2 2 2 2 2 2 2 2 2 2 2 2
left_child=2 3 4 8 21 12 15 11 25 28 17 35 34 14 24 29 42 18 -6 -20 37 27 -16 -24 -10 26 -2 39 -9 57 -5 -27 33 -12 48 36 38 -3 -8 -1 41 -26 -15 -21 -31 -46 -47 -17 52 -50 51 -51 53 -4 -55 -56 -57 -7 60 -60 61 -38
right_child=1 20 5 30 10 6 7 9 13 -11 32 -13 -14 16 22 47 -18 -19 19 43 -22 -23 23 -25 40 31 -28 -29 -30 44 -32 -33 -34 -35 -36 -37 58 -39 -40 -41 -42 -43 -44 -45 45 46 -48 -49 49 50 -52 -53 -54 54 55 56 -58 -59 59 -61 -62 -63
leaf_value=0.017100348063605064 0.040874267630146781 0.0078067357922635798 0.024941221711117584 0.043927718549061051 -0.048521655139854902 -0.034003629027347798 -0.066309044671701928 -0.073423421272309844 0.035608928561087605 -0.06185174824685083 0.037176650025263852 -0.052898515578726192 -0.052254011437854853 -0.00048044718460911115 -0.057515205671276305 -0.036495462046989113 0.021865905714240158 -0.027843432332659686 -0.0092604065642780987 0.024956166569914114 0.06904744016808001 0.070784977455336143 0.039957814475497511 -0.051043442838926027 0.031737788688898969 0.01778937444369276 0.0031089933338439221 0.043068875445727968 -0.010632735986506638 -0.078657585571621141 -0.0046373089088848421 -0.048431419411583271 -0.026538592377985677 -0.029046030631828965 0.043487255595997941 0.025709112191895762 -0.023200581928059068 0.066801052997941146 0.0038948713872978451 -0.040280229414415433 -0.01704310203242846 -0.031030255184880867 -0.066711432453876174 0.00077811534043715396 0.011700783563389222 -0.049444176875430679 -0.016037551483409528 -0.0099727610301802647 -0.039420940193431224 -0.055208864853145106 -0.064623291180909564 0.0028790414572051086 0.036176526827344499 -0.070365631042654198 0.0083082260826536272 0.0013244100651867278 -0.033688137286116242 -0.0036805375919875261 -0.0030034675216956447 -0.060216694994468523 -0.029781793013856323 0.020461575778144961
leaf_weight=125.44790604710579 148.53194515407085 21.446564793586731 17.303729310631752 436.49387688934803 15.661457598209379 98.486899808049202 45.469067618250847 12.110091879963873 24.633090987801552 666.81331327557564 21.571713656187057 157.15492121875286 66.527772754430771 21.468401953577995 38.350906729698181 59.945762604475021 125.58870226144791 56.44749790430069 128.15136906504631 126.95389918982983 916.02404071390629 19.318029135465622 12.159161031246187 11.803875654935835 32.52149024605751 26.227664440870285 54.435875073075294 58.937519744038582 50.627833247184753 24.003617629408836 16.769661262631416 12.688543751835821 248.38261687755585 19.911746963858604 8.7731710672378522 12.263959124684332 24.86986568570137 18.980946615338326 8.0870243012905103 11.084499418735502 114.03679919242859 11.803796395659445 10.824724599719046 93.574796989560127 18.176650896668434 210.86808307468891 34.427879616618156 143.0043797492981 142.33369068801403 11.369976386427878 10.659414976835249 70.221528723835945 12.636137962341307 13.212012931704519 42.914350941777229 41.156167879700661 93.246810406446457 47.457082852721214 22.281873106956482 40.444905415177345 76.553055435419083 39.613982051610947
leaf_count=445 448 79 60 1257 80 479 257 71 78 3743 69 844 353 86 204 297 438 264 542 436 2069 45 38 61 107 93 211 174 224 143 67 64 1160 94 27 44 115 44 33 54 502 56 60 377 71 1115 155 619 707 61 59 282 41 75 167 166 451 198 94 223 368 144
internal_value=-0.000463975 0.0433933 -0.0282056 0.0222878 -0.00112471 -0.0389941 -0.0435065 -0.0503345 0.00834504 -0.0584894 -0.00935105 -0.0363927 -0.0237414 -0.0017591 -0.0110999 -0.0311001 0.0127542 -0.000658884 0.00355282 0.00589182 0.0676297 0.0260932 -0.0372696 -0.0048682 -0.00218857 0.0251874 0.0307456 0.0216764 -0.022753 -0.0373248 0.0421309 -0.00380177 -0.0219692 0.00539026 -0.0196518 -0.0267706 -0.0292718 0.0355049 -0.0557082 0.0124419 -0.00806794 0.0150227 -0.0226812 0.0146969 -0.0440166 -0.0408606 -0.0447555 -0.0178068 -0.0208691 -0.0286691 -0.0120801 -0.00521565 -0.0125697 -0.0155334 -0.0192093 -0.0153976 -0.0229668 -0.0241434 -0.0223234 -0.0398934 -0.0145091 0.00362213
internal_weight=5303.25 2054.79 3248.46 1098.34 925.443 2323.02 1792.66 1156.29 645.075 729.551 710.655 426.739 530.355 403.191 245.309 636.37 157.882 420.789 364.342 348.68 956.452 214.788 62.3139 23.963 182.995 241.884 202.968 195.47 62.7379 433.42 453.264 38.9162 289.866 41.4835 463.827 269.584 257.32 40.4275 53.5561 136.532 158.362 44.3253 32.2931 220.529 287.476 263.473 245.296 202.95 455.054 234.585 92.2509 81.5915 220.469 207.833 190.529 177.317 134.403 145.944 203.764 62.7268 141.037 64.4838
internal_count=21388 5962 15426 3770 3740 11686 9237 6160 2446 4038 3022 2122 2449 1630 1046 3077 584 1699 1435 1355 2192 718 303 99 743 816 659 673 295 2161 1324 157 1323 163 2096 1278 1234 123 290 499 665 163 146 813 1484 1341 1270 916 2069 1109 402 343 960 919 859 784 617 677 944 317 627 259
is_linear=0
shrinkage=0.05


Tree=4
num_leaves=63
num_cat=0
split_feature=29 5 26 31 26 11 0 17 28 40 12 31 28 0 28 41 11 16 0 41 40 43 2 2 41 37 34 43 43 41 26 43 12 57 38 44 34 21 26 34 18 37 41 24 20 40 54 16 42 41 26 0 33 26 0 8 18 17 43 42 37 33
split_gain=2367.4 483.527 185.129 155.287 72.1877 54.6825 39.9781 28.0883 46.9319 25.7014 24.5985 24.2551 21.9192 26.1531 20.6826 19.2203 18.8805 18.916 17.6766 17.2049 17.0652 16.8216 16.7224 16.1434 15.9497 15.1421 16.89 15.3274 14.8826 14.8636 14.8635 14.108 14.104 14.0183 13.7853 14.3849 13.6809 20.2673 22.1628 17.425 14.2957 13.5346 13.6008 13.5101 14.0692 13.035 13.3228 12.9893 12.5225 13.831 14.4539 11.851 11.695 11.5512 11.2547 14.6654 11.1846 11.1561 12.0192 11.1046 11.0856 11.0061
threshold=1.0000000180025095e-35 1.5000000000000002 12125.500000000002 4.5000000000000009 8001.0000000000009 10490.500000000002 65000.000000000007 4566.5000000000009 0.040031705051660545 1.0000000180025095e-35 284033.00000000006 2.5000000000000004 0.98764950037002575 95000.000000000015 0.62418740987777721 -1418.4999999999998 990.50000000000011 32206.500000000004 45000.000000000007 -199.49999999999997 -3799.4999999999995 186.50000000000003 1.5000000000000002 1.5000000000000002 -2999.4999999999995 3502.5000000000005 1363.5000000000002 97.500000000000014 -32899.499999999993 -1210.9999999999998 38398.500000000007 794.50000000000011 78410.000000000015 9.1747651100158709 -3198.4999999999995 500.50000000000006 -168.49999999999997 1664.0000000000002 3151.0000000000005 -1945.9999999999998 2443.0000000000005 -350.49999999999994 147.50000000000003 74103.500000000015 237.50000000000003 -500.49999999999994 5.8593597412109384 40386.500000000007 843.50000000000011 -1100.4999999999998 6000.5000000000009 45000.000000000007 6107.0000000000009 13326.500000000002 345000.00000000006 -1.4999999999999998 12566.500000000002 3051.0000000000005 1501.0000000000002 -82997.499999999985 1940.5000000000002 318.50000000000006
decision_type=2 2 2 2 2 2 2 2 2 2 2 2 2 2 2 2 2 2 2 2 2 2 2 2 2 2 2 2 2 2 2 2 2 2 2 2 2 2 2 2 2 2 2 2 2 2 2 2 2 2 2 2 2 2 2 2 2 2 2 2 2 2
left_child=2 3 5 4 21 9 36 12 29 19 18 25 13 20 -3 24 17 -15 -10 31 -4 48 61 -12 -13 27 -27 56 -14 -9 32 -1 -24 -17 -31 -36 39 38 -38 -7 -40 -11 -43 44 52 46 -21 -29 51 -50 -51 -2 -20 -5 55 -47 -6 58 -8 -45 -30 -22
right_child=1 14 7 53 11 6 57 8 10 41 23 15 28 16 -16 33 -18 -19 43 45 22 -23 30 -25 -26 26 -28 47 60 34 -32 -33 -34 -35 35 -37 37 -39 40 -41 -42 42 -44 59 -46 54 -48 -49 49 50 -52 -53 -54 -55 -56 -57 -58 -59 -60 -61 -62 -63
leaf_value=-0.01341550592642776 0.046530369958647975 0.066124375816484698 -0.058439405021983297 0.047237116879653852 0.0049898257184968564 -0.067664303210013918 -0.052212899334007051 0.026822074732044759 -0.013050737827813018 -0.047364866886841793 -0.051260978440505311 -0.0015200506894233977 0.044429803594677623 0.0055022479450621935 0.017604970137607718 0.024270977799357524 -0.047998786752556803 -0.079587937491857774 -0.00099108790159373986 0.004860567063133669 -0.018812302397005168 0.0003443681891826568 -0.024770835027857891 0.028033361780108207 -0.075873264191946455 -0.025246245886742954 -0.096453833495528468 -0.03554785768749024 -0.011356986268605746 -0.0026246693600003898 0.022091407535473624 -0.082255774366972678 0.020540848924987795 -0.038417695616763364 -0.045124459117979306 -0.012650456365442517 0.022182116118490827 0.013723280143768987 -0.049179904187316284 -0.0042251457470440599 0.0056177659629941049 -0.024420636917167129 0.0070292328927613404 -0.013769966213943309 -0.053120099110827559 -0.005406151444980402 -0.034554694816220109 -0.00063000397485763783 0.032628954286191253 -0.059474908902019757 0.012965828282592984 0.02389274088852273 -0.061579669480759824 0.029553496654461275 0.036057603535582822 0.018516296907669812 -0.050741792525548036 -0.017858213981437929 0.0022908761070253871 -0.063015985883572434 -0.04873089447630994 -0.070066118761604887
leaf_weight=46.061839669942856 75.136403784155846 915.66762343049049 33.328831925988197 332.29884351789951 139.4824775159359 11.469638645648955 165.00612352788448 12.097993731498716 23.466355919837952 37.332501515746117 11.289273738861086 25.220659479498863 9.7791789174079877 31.727452144026756 22.50390088558197 110.01334443688393 416.18376903235912 8.2246126979589445 27.424562036991119 51.811034336686134 18.214107617735863 80.135012581944466 140.75582069158554 14.877881556749342 10.101411074399946 51.742547526955605 9.924851179122923 73.453233897686005 87.101787000894547 37.252908661961555 25.163477584719658 8.876800671219824 19.560099020600319 9.7044391483068448 123.95467329025269 47.044002518057823 14.808773458003996 25.023099184036255 102.04018786549568 192.35700500011444 13.473592594265936 101.81362961232662 51.901003137230873 11.753823578357695 124.52004544436932 126.48477846384048 36.572787523269653 41.784389957785606 20.8325135409832 13.077101632952692 14.544447675347326 250.77275216579437 11.224211409687994 127.88874328136444 37.442553386092186 129.81968884170055 9.6235262006521207 34.724848434329033 10.775427654385565 438.90391765534878 25.69360077381134 24.648733362555504
leaf_count=202 215 2088 184 920 548 64 895 43 104 193 61 102 31 128 78 374 2224 49 117 205 84 316 662 53 58 240 62 358 384 158 92 53 72 48 644 209 52 96 535 799 54 472 203 54 682 522 178 170 67 69 53 846 63 407 118 467 50 160 45 2511 136 142
internal_value=-0.000345593 0.0372018 -0.0303362 0.0185433 0.00684639 -0.0152365 -0.0264543 -0.040826 -0.047049 -0.00506235 -0.0536891 -0.00665377 -0.0342814 -0.0376183 0.0649605 0.00962685 -0.044847 -0.0120146 -0.05564 0.00162453 -0.0250175 0.0211352 -0.0201393 -0.00617653 -0.0227836 -0.0143963 -0.0367065 -0.00919164 -0.0147404 -0.0270561 -0.0136347 -0.0245385 -0.0192424 0.0191894 -0.030186 -0.0361904 -0.0163141 -0.0274919 -0.0354056 -0.00779496 -0.0427883 -0.0203603 -0.0138017 -0.0572681 -0.0449405 0.00538596 -0.0114493 -0.0228869 0.0255857 0.00186908 -0.0213304 0.0291117 -0.018587 0.0423227 0.0104514 0.00671071 0.00139282 -0.0437559 -0.0488718 -0.0617316 -0.0198704 -0.0482864
internal_weight=5255.89 2333.91 2921.99 1395.74 935.549 1197.8 569.679 1724.19 883.81 628.117 663.46 481.051 840.381 717.807 938.172 155.04 456.136 39.9521 637.293 437.069 261.671 454.498 228.342 26.1672 35.3221 326.011 61.6674 264.344 122.575 220.35 185.479 54.9386 160.316 119.718 208.252 170.999 359.172 155.346 130.323 203.827 115.514 191.047 153.715 613.827 163.169 382.131 88.3838 115.238 374.363 48.4541 27.6215 325.909 38.6488 460.188 293.747 256.304 149.106 210.506 175.782 450.658 112.795 42.8628
internal_count=21269 7069 14200 4903 3576 5313 2700 8887 4699 2613 3645 2010 4188 3637 2166 582 2401 177 3531 1745 1236 1566 1052 114 160 1428 302 1126 551 1054 826 255 734 422 1011 853 1600 737 641 863 589 868 675 3427 862 1490 383 528 1250 189 122 1061 180 1327 1107 989 598 1100 940 2565 520 226
is_linear=0
shrinkage=0.05


Tree=5
num_leaves=63
num_cat=0
split_feature=29 31 26 0 28 12 25 31 42 30 35 36 11 19 41 19 4 7 9 52 34 35 20 22 25 31 27 43 16 33 34 19 33 13 18 24 42 4 42 20 35 8 4 26 16 39 42 52 15 16 28 43 56 38 38 22 11 52 38 49 16 22
split_gain=2157.37 270.372 183.786 76.1714 51.0693 41.3817 78.0728 40.07 37.3469 33.248 31.6241 29.1886 27.2435 24.9897 23.7889 23.6181 22.9852 20.7244 20.5135 19.1427 19.13 17.1944 16.9305 16.8141 16.6562 15.5689 15.5524 15.217 15.0076 14.4694 18.8548 13.9716 13.2267 13.0549 12.7976 12.3948 12.322 24.7763 13.9922 13.9781 13.028 11.7385 11.6407 11.4639 15.9757 11.4322 18.7239 12.0867 11.6442 11.3269 12.4101 11.1991 15.5477 15.2134 16.588 13.4352 11.0913 11.0253 10.9929 10.781 12.8589 10.648
threshold=1.0000000180025095e-35 3.5000000000000004 6903.0000000000009 75000.000000000015 0.19521918147802356 4796.5000000000009 0.50022354722023021 5.5000000000000009 -740.49999999999989 1.5000000000000002 1.0000000180025095e-35 14367.000000000002 1630.5000000000002 1599.5000000000002 2945.5000000000005 390.50000000000006 45.500000000000007 1.5000000000000002 1.0000000180025095e-35 7.2452983856201181 10401.000000000002 -1426.4999999999998 4.5000000000000009 600.50000000000011 0.71367597579956066 11.500000000000002 0.04910485818982125 2175.5000000000005 1231.0000000000002 32851.000000000007 -664.49999999999989 12696.000000000002 -1914.4999999999998 108473.50000000001 5009.5000000000009 15001.500000000002 700.50000000000011 38.500000000000007 443.50000000000006 300.50000000000006 474.50000000000006 1.0000000180025095e-35 25.500000000000004 16044.500000000002 12914.500000000002 2069.5000000000005 99.500000000000014 9.0459370613098162 137933.00000000003 26870.500000000004 0.74357247352600109 -56.499999999999993 7.6268138885498056 -570.49999999999989 22.500000000000004 2060.5000000000005 117692.00000000001 7.6016521453857431 22.500000000000004 10.222523212432863 12914.500000000002 517.50000000000011
decision_type=2 2 2 2 2 2 2 2 2 2 2 2 2 2 2 2 2 2 2 2 2 2 2 2 2 2 2 2 2 2 2 2 2 2 2 2 2 2 2 2 2 2 2 2 2 2 2 2 2 2 2 2 2 2 2 2 2 2 2 2 2 2
left_child=2 4 10 14 8 36 12 27 -2 16 15 23 61 -11 29 20 28 18 19 -10 -1 -17 56 -8 -13 41 45 -3 58 30 51 33 -20 -26 -35 -18 38 40 -5 -39 -38 -9 -19 44 -31 47 -47 57 -48 50 -16 52 53 -4 -55 59 -14 -25 -6 60 -53 -7
right_child=1 7 3 5 9 6 11 25 17 13 -12 24 22 -15 49 21 35 42 32 -21 -22 -23 -24 26 31 -27 -28 -29 -30 43 -32 -33 -34 34 -36 -37 37 39 -40 -41 -42 -43 -44 -45 -46 46 48 -49 -50 -51 -52 55 -54 54 -56 -57 -58 -59 -60 -61 -62 -63
leaf_value=0.013288925174520003 -0.0005762130651230606 0.04069110086839401 -0.080870074845740963 -0.022160814151988506 0.0050269806358797025 0.014912770911807916 0.0041945378389059776 0.06102364936289937 0.02866814381575989 0.025978350937309488 -0.021636642088200379 -0.03154798151675596 -0.041965598298070179 -0.01121096029206007 -0.079077908650800333 -0.073580160208658568 0.047528365216823382 0.036615270480429014 0.023204131720689525 0.049575384134117717 -0.034596612952774407 -0.0091437535077067995 -0.059369067973467284 0.0064482346181643398 -0.033232666619533356 0.064872676890662173 -0.062243925351637301 0.0088702332933622494 -0.049216614894050631 -0.054201525234041072 -0.028537480617091073 -0.058553055631030394 -0.0414123372570483 0.057921318560709145 0.0051376757201728939 -0.020389705966107539 -0.044142357445179324 0.019488769316400648 0.03182314208635989 -0.030720582394529461 -0.090969536254065439 0.046520430081112493 -0.010473196927032313 0.030154381790780584 0.015636377216781471 0.01391769410281115 -0.016346715566603328 -0.011292925825265648 -0.076010197369187418 -0.0055751982142062699 -0.0099719743420795138 0.024787383879734101 0.00056223941616263459 0.025682501702736837 -0.062395412713124071 -0.034993037311469244 0.013217733854661219 -0.048947792078538624 -0.036864568240928555 0.029391456314539949 -0.026159454083131001 -0.036042954388843515
leaf_weight=282.22000426054001 118.57414464652538 316.28837832808495 16.313682332634926 237.22336931526661 38.398890316486359 16.918129831552505 22.246336668729782 216.07895386219025 300.42631700634956 141.84901438653469 218.6987107694149 69.592732965946198 57.134885758161545 66.2776188403368 30.051147475838661 11.028529077768324 18.188469693064693 18.562327444553375 18.175434902310371 172.26011647284031 22.521127671003342 169.01643948256969 665.65746214985847 9.4971769005060178 17.138661205768585 351.38796444237232 66.942206382751465 42.634756058454514 46.771408662199974 13.692370638251303 213.62179189920425 9.1855318844318372 14.03521843254566 14.172973006963728 60.513394311070442 10.651325374841688 76.686825171113014 22.07579930126667 12.642935305833815 37.254816725850105 18.421180993318558 393.74601480364799 44.804186701774597 29.469420567154884 20.372606247663498 27.878076806664467 19.367146566510201 29.393205106258392 14.154389455914496 10.522756680846213 8.2884188145399076 21.436067551374435 38.878599509596825 11.088772416114809 10.321337848901747 19.171470031142235 10.831820651888846 165.57596874237061 26.445758104324341 42.926927030086517 29.334134727716446 26.020701229572296
leaf_count=1043 475 920 97 1113 149 66 92 514 973 475 1011 345 301 282 182 64 53 58 63 461 111 723 3823 40 85 802 388 158 245 73 1029 50 70 41 246 49 402 83 44 184 116 1077 189 101 77 110 89 132 84 46 37 76 160 39 57 95 43 895 130 147 138 135
internal_value=0.00055017 0.0361645 -0.0281258 -0.0351773 0.0170371 -0.0402653 -0.0446037 0.0511667 0.0249479 0.00145001 -0.00585313 -0.0297233 -0.0546763 0.0141355 -0.0183335 0.0012672 -0.0173472 0.0302737 0.0336564 0.0362873 0.00975006 -0.0130908 -0.0569419 -0.0378904 -0.012726 0.0564897 -0.0407036 0.0369113 -0.0276287 -0.0148578 -0.0183533 0.000241669 -0.00495134 0.00612308 0.0151542 0.0224444 -0.0262918 -0.0373946 -0.0194293 -0.0120386 -0.0532122 0.0516593 0.00332071 0.00731948 -0.0124349 -0.03528 -0.0163595 -0.0409616 -0.0415395 -0.0515264 -0.0641383 -0.00687097 -0.0216266 -0.0444946 -0.0167779 0.00314344 -0.0331711 -0.0459427 -0.0120578 0.0109466 -0.00464881 -0.0159661
internal_weight=5281.06 2355.56 2925.5 2222.02 1035.42 1706.53 1302.22 1320.14 686.838 348.582 703.485 525.658 776.563 208.127 515.49 484.786 140.456 568.264 504.897 472.686 304.741 180.045 733.624 355.055 170.603 961.213 332.808 358.923 111.616 466.627 403.093 101.011 32.2107 91.825 74.6864 28.8398 404.305 154.439 249.866 59.3306 95.108 609.825 63.3665 63.5344 34.065 265.866 61.3996 204.466 33.5215 48.8623 38.3396 189.471 76.6024 37.7238 21.4101 112.869 67.9667 175.073 64.8446 93.6971 50.7702 42.9388
internal_count=21356 7143 14213 11261 3672 8907 6965 3471 2289 1383 2952 2597 4368 757 2354 1941 626 1814 1567 1434 1154 787 4167 1830 767 2393 1738 1078 524 2089 1838 422 133 372 287 102 1942 785 1157 267 518 1591 247 251 150 1350 283 1067 173 265 219 809 353 193 96 456 344 935 279 361 214 201
is_linear=0
shrinkage=0.05


Tree=6
num_leaves=63
num_cat=0
split_feature=31 5 24 0 31 12 23 26 24 25 24 26 28 17 57 25 0 49 50 28 28 23 38 37 48 53 4 11 48 27 39 43 23 36 21 38 42 20 38 33 28 21 37 4 4 42 12 4 38 19 34 40 42 40 43 57 5 39 4 42 19 53
split_gain=1983.84 329.716 287.763 106.889 95.7479 56.1717 80.6721 42.1337 35.6158 25.4431 24.9493 22.6063 21.3006 20.0102 19.3782 30.924 19.2325 19.214 17.8113 17.5696 18.0362 16.738 16.3572 15.1915 15.9415 13.8222 13.3138 13.1182 12.8312 15.9995 12.6394 12.5837 12.3945 15.9293 15.7859 14.2956 13.8077 12.2798 12.2773 12.2538 12.6513 13.911 12.1599 11.9526 11.8489 11.7112 18.5527 13.2793 11.9416 12.4581 16.906 12.8119 18.8739 13.9479 11.311 10.9568 10.8315 10.4554 10.4552 10.43 12.8683 17.0381
threshold=1.5000000000000002 1.5000000000000002 7404.0000000000009 95000.000000000015 4.5000000000000009 5588.5000000000009 0.87758001685142528 7825.0000000000009 1.0000000180025095e-35 0.61553889513015758 19418.500000000004 1171.5000000000002 0.67204928398132335 1459.5000000000002 5.9877066612243661 0.65150257945060741 135000.00000000003 10.540976524353029 11.168094158172609 0.14641188085079196 0.037385582923889167 0.53500783443450939 18848.000000000004 4223.5000000000009 7.7325885295867929 8.9450716972351092 43.500000000000007 22704.500000000004 9.9175877571105975 0.16072361171245578 2022.0000000000002 -1832.4999999999998 1.0148316621780398 6720.5000000000009 1100.5000000000002 1173.5000000000002 115.50000000000001 1200.5000000000002 -89.499999999999986 582.50000000000011 0.029529125429689888 1600.5000000000002 983.00000000000011 35.500000000000007 40.500000000000007 1597.0000000000002 1767.0000000000002 36.500000000000007 6115.0000000000009 3100.5000000000005 1091.5000000000002 -2497.9999999999995 780.50000000000011 -593.49999999999989 4.5000000000000009 7.4532721042633066 -1.4999999999999998 -4708.4999999999991 49.500000000000007 5001.0000000000009 106.00000000000001 7.4963750839233407
decision_type=2 2 2 2 2 2 2 2 2 2 2 2 2 2 2 2 2 2 2 2 2 2 2 2 2 2 2 2 2 2 2 2 2 2 2 2 2 2 2 2 2 2 2 2 2 2 2 2 2 2 2 2 2 2 2 2 2 2 2 2 2 2
left_child=2 4 8 14 7 18 10 27 11 13 -7 43 -3 44 -4 30 -10 28 22 20 -8 23 26 24 -15 39 45 -2 29 42 -16 -26 34 36 -19 55 -34 54 -32 -6 -41 -42 -17 -1 -9 48 47 -47 49 51 -51 -5 53 -53 -12 -36 -28 -55 -22 60 -58 -62
right_child=1 12 3 5 25 6 19 9 16 -11 37 -13 -14 21 15 17 -18 32 -20 -21 58 -23 -24 -25 31 -27 56 -29 -30 -31 38 -33 33 -35 35 -37 -38 -39 -40 40 41 -43 -44 -45 -46 46 -48 -49 -50 50 -52 52 -54 57 -56 -57 59 -59 -60 -61 61 -63
leaf_value=0.014088210484200446 0.028932095708040003 0.06129870820830733 -0.0074486500004588233 -0.050920742973835413 0.044295136788087053 -0.0049196055301593718 -0.012020910834592226 0.014537710892930789 0.011276977024968517 0.01155712078085624 -0.037823393029048073 -0.028331541429111401 0.011698144191577057 -0.067616346168755517 -0.030085439758705132 -0.022352363610352782 -0.01125596807675729 0.0023968217090687407 -0.081281891540357698 0.014792024568997503 -0.04428350750547503 -0.070931439452526238 0.020241662134641389 -0.065912129671824998 0.025384747711897571 -0.00097289176820942016 -0.037081368889679757 -0.0051886999505212847 0.0094383269636683712 0.030455727805478568 -0.088776621817085635 -0.016134178834889389 0.020710529809013833 0.056524620377346117 -0.066713421366598288 -0.079311494962193849 -0.061961724576497762 -0.057546052321686525 -0.036894758620851446 0.050057867962273864 0.025784134404352822 -0.023026151698470304 -0.093903570345899343 0.038736748952507651 -0.031457694892494441 -0.043726689124433803 -0.069588115139596909 0.0057184576880856932 -0.064139652239882716 0.032345204773145848 -0.034342062050788977 0.016633002199336146 -0.080933018547629076 0.012853097189851807 -0.073604094597026215 -0.021732879298168445 0.025644065189167772 -0.029805594203031461 -0.001853345853567371 0.04252874619480726 -0.073743087104159513 -0.0014083271408219312
leaf_weight=94.486279532313347 199.53281232714653 910.75773148238659 269.81538763642311 41.889752730727196 314.43778446316719 26.11672542989254 115.26683714985847 69.047323495149612 146.74953845143318 178.01831260323524 155.17295201122761 20.433685764670372 22.171979308128357 11.600349083542822 286.41161747276783 38.535401955246925 266.98310635983944 26.357754349708557 13.836837187409399 28.719296127557755 116.97735254466534 17.612780854105949 20.239863872528076 15.024961590766905 24.478550300002098 22.64238578081131 25.114726811647415 32.799789190292358 109.81277956068516 12.512561351060866 19.219732686877251 71.719045802950859 9.9117665290832573 9.7031721174716932 17.368513584136963 19.6612888276577 10.29795767366886 692.25338442623615 28.03666053712368 36.67322413623333 65.231336668133736 18.805747777223587 7.0195874869823447 102.58111071586609 17.563740789890289 38.844744652509689 42.750027596950531 20.877064093947411 17.43746355175972 22.741860032081604 16.32655693590641 28.774731084704399 11.503732874989508 17.227068454027176 25.75293143093586 61.39668045938015 18.882663369178772 86.415157556533813 16.575795814394951 12.53616616129875 12.103274941444395 24.866063922643661
leaf_count=337 643 2125 1164 226 871 114 514 250 553 663 818 95 79 65 1408 178 1145 107 85 113 622 100 77 84 85 87 128 132 433 43 122 317 37 28 99 119 57 4010 145 97 209 81 44 306 82 205 254 86 100 80 83 110 70 68 157 291 68 422 72 41 71 106
internal_value=-0.000426633 0.0382769 -0.0249067 -0.0323225 0.01967 -0.0399557 -0.0458019 0.00714095 0.00534766 -0.00259487 -0.0530744 0.0217281 0.0601199 -0.0136909 -0.0187286 -0.0233663 -0.00326361 -0.0123275 -0.0253907 -0.0222372 -0.0265111 -0.0253479 -0.0237041 -0.0188112 -0.0122462 0.0371146 -0.0257335 0.0241151 -0.000613494 -0.0196227 -0.0340383 -0.00556923 -0.0250397 0.00386679 -0.031969 -0.0411719 -0.0214155 -0.0545147 -0.0579957 0.0390965 0.0255545 0.0148614 -0.0333777 0.0269187 0.00521036 -0.0302716 -0.0444421 -0.0264421 -0.0242792 -0.0211883 0.00447683 -0.0265847 -0.0195014 -0.0141645 -0.0429164 -0.0316515 -0.00899935 -0.022715 -0.0390173 0.00131343 -0.00793748 -0.0250898
internal_weight=5234.62 2028.12 3206.5 2575.26 1095.19 1649.2 1176.84 637.398 631.234 405.065 899.296 217.501 932.93 227.047 926.061 656.245 413.733 322.577 472.368 277.539 248.82 140.436 458.531 122.823 107.798 457.79 438.291 232.333 167.88 58.0676 333.668 96.1976 154.697 29.9129 124.784 98.4265 20.2097 873.179 47.2564 435.148 120.71 84.0371 45.555 197.067 86.6111 344.788 102.472 59.7218 242.316 224.879 39.0684 185.81 143.921 132.417 180.926 78.7652 93.5029 103.642 133.553 68.3882 55.852 36.9693
internal_count=21381 5970 15411 12975 3766 8700 6420 2421 2436 1646 5099 738 2204 983 4275 3111 1698 1436 2280 1321 1208 651 2195 551 467 1345 2118 775 698 265 1675 402 738 122 616 509 94 4985 267 1258 387 290 222 643 332 1704 545 291 1159 1059 163 896 670 600 975 390 414 490 694 286 245 177
is_linear=0
shrinkage=0.05


Tree=7
num_leaves=63
num_cat=0
split_feature=29 5 26 31 23 11 26 11 23 25 0 26 37 40 28 28 35 25 34 42 0 33 42 34 19 4 34 1 44 47 43 22 13 35 34 43 15 0 26 17 42 18 3 6 27 19 23 22 35 27 40 40 0 21 18 51 34 15 51 4 28 26
split_gain=1800.42 399.599 125.73 102.392 83.3435 49.6336 46.2099 37.0846 43.8009 25.62 25.4629 23.5368 21.8083 20.2733 20.27 20.239 19.7838 18.2227 17.8242 17.2508 18.9685 15.5776 18.3029 14.8096 14.3056 14.2275 13.6249 13.4407 13.1458 13.141 17.0982 14.3011 13.0306 12.9455 12.8927 12.88 12.8424 14.6135 12.5743 12.5037 12.1364 12.0352 11.8808 11.461 11.4241 14.0025 11.951 13.8232 11.3559 11.3685 15.3724 12.7267 11.1785 17.5966 11.1044 10.9212 12.782 10.8663 10.8382 11.0377 21.9284 15.4492
threshold=1.0000000180025095e-35 1.5000000000000002 12125.500000000002 4.5000000000000009 0.85052499175071727 8883.0000000000018 5200.5000000000009 8432.5000000000018 0.4701393991708756 0.60352885723114025 95000.000000000015 90182.000000000015 127.50000000000001 1.0000000180025095e-35 0.62418740987777721 0.13840731978416446 4885.5000000000009 0.10069541633129121 370.50000000000006 1.0000000180025095e-35 135000.00000000003 37370.000000000007 -10090.499999999998 -1586.4999999999998 1559.5000000000002 27.500000000000004 596.50000000000011 1.5000000000000002 -252.49999999999997 8.2164931297302264 10817.500000000002 416.50000000000006 64050.500000000007 -4098.4999999999991 4293.0000000000009 1001.0000000000001 389.50000000000006 45000.000000000007 16950.500000000004 1369.5000000000002 1.0000000180025095e-35 19000.500000000004 1.5000000000000002 -1.4999999999999998 0.026302544400095943 2660.5000000000005 0.52887573838233959 536.50000000000011 -5214.9999999999991 1.0002170205116274 780.50000000000011 1554.5000000000002 145000.00000000003 599.50000000000011 6203.5000000000009 9.4661831855773944 8478.0000000000018 389.50000000000006 12.152951240539553 37.500000000000007 0.062192110344767577 45792.500000000007
decision_type=2 2 2 2 2 2 2 2 2 2 2 2 2 2 2 2 2 2 2 2 2 2 2 2 2 2 2 2 2 2 2 2 2 2 2 2 2 2 2 2 2 2 2 2 2 2 2 2 2 2 2 2 2 2 2 2 2 2 2 2 2 2
left_child=2 3 7 6 5 29 35 13 12 11 38 16 15 17 -3 39 24 19 23 25 -21 27 -23 32 -8 28 -27 -6 -1 48 31 -31 -10 -11 -5 52 -33 -38 -7 55 -14 58 -40 -15 45 -12 -46 -48 -4 51 -51 -50 -2 57 -47 56 -9 -54 59 61 -61 -24
right_child=1 14 4 34 21 10 9 8 18 33 44 -13 40 43 -16 -17 -18 -19 -20 20 -22 22 41 -25 -26 26 -28 -29 -30 30 -32 36 -34 -35 -36 -37 37 -39 42 -41 -42 -43 -44 -45 46 54 47 -49 49 50 -52 -53 53 -55 -56 -57 -58 -59 -60 60 -62 -63
leaf_value=0.025034889498558695 0.032834548201921915 0.059263212583513872 -0.039061755735444931 0.036827406545643877 -0.012512728101868176 -0.0063144652150159773 0.006854228038111157 -0.091746115502696679 -0.062742539440607745 -0.028148988084371149 0.011462905265029032 -0.063286569742906029 -0.031017755117128721 -0.042075692668315776 0.011553915775688282 0.017290038580822148 -0.038743439979543375 0.038857514226992795 -0.026280110813044211 0.0079308397010101998 -0.041615650198971899 0.046648365587065192 -0.016176504278458223 -0.00069590965342918227 -0.01413051402359162 0.0150144929947064 -0.010755687614312545 -0.037000191965520263 -0.04126085827299078 -0.019341063302233591 0.0037439439801486411 -0.006246336716633407 0.015624595249623612 0.015199203924307944 -0.0082061030351669867 -0.028896162240597614 0.00069294323552645154 -0.059221475629450251 -0.015956393056097268 -0.052444467865390421 -0.079471930124651202 -0.066607517066237951 -0.057003039621337237 -0.01205789722663202 -0.059487622173669687 -0.086734272283185615 0.0078547866464632552 -0.047966076643021729 -0.026902364361154191 0.021474611680801281 -0.040325909927686726 0.03892269763690915 0.023917460469192679 -0.045415886827405591 -0.0055706223937232006 0.017925965712095315 -0.014647692830106869 -0.017285799928466038 0.016940913148770369 -0.01995391510832532 0.033665611667289409 -0.068972170813564826
leaf_weight=10.042679205536841 159.05750927329063 902.06159393489361 61.62688410282135 440.42290861904621 99.275352865457535 42.258660241961479 182.39523565769196 7.4529670029878643 18.71823458373547 18.763826236128807 14.743064761161802 19.289410471916199 17.835058256983757 42.064730197191238 22.826603159308434 18.89751410484314 42.494273796677589 29.587196424603462 163.60158444941044 31.651104226708412 49.572150617837906 14.410950377583502 73.355334848165512 218.20068065822124 146.40549392998219 187.40192146599293 70.618472933769226 128.66149263083935 29.273943856358528 51.929856091737747 22.628379300236702 15.334515854716299 7.4020229876041403 209.78473193943501 16.488194406032562 12.185795560479162 11.055967435240744 128.04840761423111 29.421905130147934 65.374419078230858 46.923916667699814 9.4887994080781919 43.983309909701347 130.28761492669582 439.85076469182968 10.637156590819361 11.821440339088438 179.3961379379034 111.37064558267593 38.68738554418087 13.599413290619848 7.8613208532333365 127.36527861654758 11.533917456865309 6.979164019227027 14.358027532696722 19.289260417222977 18.300686657428741 33.668368130922318 53.71784719824791 29.560832738876343 17.083231821656227
leaf_count=35 495 2128 323 1287 453 190 700 47 105 87 61 109 91 216 81 74 214 94 795 125 253 45 339 904 642 680 305 664 145 249 100 70 29 757 66 56 47 753 139 368 293 55 250 577 2629 68 50 1006 544 145 71 27 422 57 32 55 89 79 128 253 103 101
internal_value=-0.000115913 0.0325659 -0.0265584 0.0157606 -0.0352573 -0.0419902 0.00638596 -0.0140075 -0.0227457 -0.00165613 -0.0496909 -0.00943648 -0.0425657 -0.00500504 0.0580857 -0.0303953 -0.00663887 0.00106695 -0.0135077 -0.00188666 -0.0223084 -0.0170586 -0.00791664 -0.00495506 -0.00248967 0.00369192 0.00796137 -0.0263349 -0.0243269 -0.0290084 -0.0375157 -0.0420399 -0.0405347 0.0116403 0.0352023 0.0215457 -0.0496723 -0.0544595 -0.0280424 -0.0388587 -0.0661273 -0.0115424 -0.0405509 -0.0193841 -0.0534651 -0.0244901 -0.0549509 -0.0445151 -0.0206524 -0.0140379 0.00540075 -0.0225623 0.0234893 0.0140337 -0.0545792 -0.0172491 -0.0361348 0.0187409 -0.00902293 -0.014055 -0.000920978 -0.0261492
internal_weight=5208.39 2329.38 2879.01 1404.49 1700.46 1241.23 947.576 1178.55 598.054 619.133 779.092 390.584 190.131 580.5 924.888 125.372 371.295 408.147 407.923 378.56 81.2233 459.222 231.285 244.321 328.801 297.337 258.02 227.937 39.3166 462.143 228.997 206.369 26.1203 228.549 456.911 328.443 154.439 139.104 115.664 106.475 64.759 216.874 73.4052 172.352 663.428 32.3594 631.068 191.218 233.146 171.519 52.2868 119.232 316.257 157.2 17.6163 41.1003 26.7422 145.666 207.386 173.717 83.2787 90.4386
internal_count=21355 7180 14175 4971 8895 6754 3618 5280 2850 2509 4425 1665 1017 2430 2209 633 1556 1637 1833 1543 378 2141 1024 1038 1342 1165 985 1117 180 2329 1219 1119 134 844 1353 1109 870 800 579 559 384 979 389 793 3846 161 3685 1056 1110 787 216 571 1053 558 100 191 136 501 924 796 356 440
is_linear=0
shrinkage=0.05


Tree=8
num_leaves=63
num_cat=0
split_feature=29 5 22 31 23 11 17 23 20 11 11 25 31 22 11 11 4 23 0 39 34 33 23 15 33 37 11 27 4 13 27 28 28 17 53 43 5 54 51 20 37 7 42 54 37 37 53 11 15 33 13 11 25 0 4 33 37 34 17 34 20 35
split_gain=1598.01 358.76 121.652 94.1997 60.3592 51.2643 44.2229 36.7714 32.0009 29.4532 27.9663 26.6841 21.6721 20.9049 19.9785 19.1717 16.5993 22.2317 16.0988 17.8643 16.071 16.4382 16.0429 15.223 15.0733 14.9604 14.7151 14.2186 14.0333 13.8214 13.8015 13.7242 16.9975 15.2601 13.7867 13.8021 13.3581 19.0276 17.2847 16.597 13.0782 14.8342 14.7954 12.52 14.0789 12.4507 12.4076 12.2203 13.0055 13.4905 12.1782 14.3242 17.5607 12.1411 12.1257 12.6861 13.5279 11.6729 19.1854 11.4211 11.3933 11.2475
threshold=1.0000000180025095e-35 1.5000000000000002 860.50000000000011 4.5000000000000009 0.9544016718864442 781.50000000000011 4902.5000000000009 0.57548958063125621 945.50000000000011 18378.500000000004 7046.0000000000009 0.45946274697780615 2.5000000000000004 13073.000000000002 6183.0000000000009 597.50000000000011 32.500000000000007 0.0024387500016018753 45000.000000000007 500.50000000000006 -168.49999999999997 54799.500000000007 0.52887573838233959 163.50000000000003 -10593.499999999998 9322.0000000000018 55721.500000000007 1.2005599737167361 56.500000000000007 26367.500000000004 17.852046012878422 0.14213958382606509 0.036817230284214027 2600.5000000000005 8.4973983764648455 -200.49999999999997 -1.4999999999999998 6.0485529899597177 8.189521789550783 316.50000000000006 -425.49999999999994 -1.4999999999999998 -99.499999999999986 7.180450677871705 554.00000000000011 -179.49999999999997 9.0455837249755877 155272.50000000003 112209.00000000001 7508.5000000000009 2397.5000000000005 17253.500000000004 0.59259754419326793 35000.000000000007 30.500000000000004 22256.000000000004 179.50000000000003 -551.49999999999989 1512.5000000000002 5148.0000000000009 1732.5000000000002 269.50000000000006
decision_type=2 2 2 2 2 2 2 2 2 2 2 2 2 2 2 2 2 2 2 2 2 2 2 2 2 2 2 2 2 2 2 2 2 2 2 2 2 2 2 2 2 2 2 2 2 2 2 2 2 2 2 2 2 2 2 2 2 2 2 2 2 2
left_child=2 3 5 8 6 16 10 9 13 24 14 -12 57 18 40 -3 17 -1 23 28 26 -22 29 -2 -7 47 43 -21 -20 30 -8 32 -6 -33 35 -34 -26 -38 -39 -40 41 -4 -42 -13 -45 -25 -36 48 49 -24 -14 -52 -53 -44 -37 56 -56 58 -10 -5 -59 -9
right_child=1 15 4 59 31 7 22 61 12 -11 11 20 50 -15 -16 -17 -18 -19 19 27 21 -23 25 45 36 -27 -28 -29 -30 -31 -32 33 34 -35 46 54 37 38 39 -41 42 -43 53 44 -46 -47 -48 -49 -50 -51 51 52 -54 -55 55 -57 -58 60 -60 -61 -62 -63
leaf_value=-0.027371887480183071 0.059399657437279277 0.0065175607477817952 -0.06658415541707019 0.03551352754091399 -0.00057435004620000308 -0.069885316783094828 -0.049128243248706828 0.0055350491749762368 0.032751462216633283 -0.048892762393666266 -0.045957505227464224 -0.033115425510054572 -0.032435941061227998 -0.05816507770398921 0.032339124696804618 0.056986621762544445 0.015750190929321811 0.021354379884667197 0.015096762918310622 -0.016512465909194897 -0.045725358005292649 0.030251371018520976 0.0072359057516878274 0.052641497469549763 -0.038941186012328433 -0.058200559908525289 -0.035106424961849757 0.029861573197800573 0.065163609996286925 -0.065933838579845541 0.0084913164204074281 -0.031133134950407385 0.0069308891520334127 0.029967225858703012 -0.061784411761016525 -0.054228731186910406 0.00089858136302938788 -0.039092917583524539 0.031210030104950895 -0.021517841194625232 0.018342435376260933 -0.024106139638496064 0.023138135269892432 0.020772030181788553 -0.027733600708258116 0.007851387670587311 -0.021498724317204988 -0.015443418259534047 -0.073802041141568284 -0.04831328482191713 0.043951654653383875 -0.02835406203033862 0.019108035099172371 -0.023947597028270463 -0.011074117906157898 0.0074482832481968519 -0.089647099378017264 -0.05424607319793872 -0.011413930790149351 -0.0094399620475812251 -0.015862533802873235 -0.014395456506366727
leaf_weight=63.737229824066162 36.423532158136368 19.229388043284416 28.34840527176857 442.78646628558636 96.762119099497795 14.324603661894797 177.292077049613 152.78400525450706 29.981665059924126 111.48548074066639 335.15378132462502 25.741109877824783 14.170129477977751 9.6346585005521757 18.37702514231205 877.46118280291557 184.93126305937767 36.997400477528572 281.62232007086277 79.261454313993454 94.366015657782555 7.70015525817871 16.850520923733711 21.434079825878143 60.741702198982239 61.367194533348083 55.617489919066429 20.884204193949699 14.727754399180411 154.33327320218086 11.039763897657393 14.802132606506346 43.460513889789581 33.004947677254677 40.468016237020493 28.548439025878906 132.42707268893719 91.196878403425217 20.88519075512886 52.288652420043945 30.293291360139847 74.74212783575058 15.060749217867849 53.952716380357742 20.699174702167511 56.19144681096077 36.219024032354355 79.639604046940804 24.126238569617271 31.106357887387276 34.786034733057022 26.341116175055504 74.919649481773376 150.47520877420902 13.996322497725489 30.235628202557564 9.0008745342493039 24.782857328653336 136.71626192331314 14.59506146609783 87.915312752127647 131.90049114823341
leaf_count=298 91 69 164 1299 409 87 1030 618 97 628 1891 126 66 53 66 2105 677 133 1000 348 519 29 73 57 313 357 295 68 35 971 49 73 178 117 236 158 549 475 74 251 115 362 54 204 100 207 174 385 152 176 102 122 260 724 63 122 57 130 594 59 392 601
internal_value=0.000181243 0.0311873 -0.0247391 0.0154369 -0.0325922 -0.0112287 -0.0370274 -0.0179547 0.00645961 -0.026351 -0.0302435 -0.0366521 -0.00363929 0.0148002 -0.0182617 0.0559043 0.00685469 -0.0094759 0.0161772 0.0114153 -0.0245675 -0.0399935 -0.0481419 0.032732 -0.0195929 -0.0373692 -0.0144754 -0.0068417 0.0175849 -0.054841 -0.0457507 -0.0138238 -0.0178049 0.0110492 -0.0260615 -0.0158383 -0.017578 -0.0132058 -0.0245692 -0.00646832 -0.0213726 -0.035787 -0.0137844 -0.00304586 0.00732258 0.0202189 -0.0427576 -0.0289436 -0.0438589 -0.0287951 0.0116763 0.0162708 0.00676165 -0.0196637 -0.0279384 -0.0138391 -0.0418268 -0.0118737 -0.00347051 0.0340791 -0.0243033 -0.00369919
internal_weight=5170.34 2303.86 2866.48 1407.17 1812.78 1053.7 1466.28 768.034 949.792 483.35 910.527 593.23 429.613 520.179 317.297 896.691 285.666 100.735 510.545 396.496 258.077 102.066 555.755 114.049 371.864 213.09 156.01 100.146 296.35 342.665 188.332 346.498 298.691 47.8071 201.929 125.242 357.539 296.798 164.371 73.1738 298.92 103.091 195.829 100.393 74.6519 77.6255 76.687 151.723 72.0831 47.9569 150.217 136.047 101.261 165.536 81.7813 53.2328 22.9972 279.396 166.698 457.382 112.698 284.684
internal_count=21287 7154 14133 4980 9429 4704 7842 3596 3622 2377 4649 3164 1763 1859 1485 2174 1108 431 1806 1451 1273 548 3193 355 1749 1143 725 416 1035 2050 1079 1587 1397 190 988 578 1662 1349 800 325 1419 526 893 430 304 264 410 786 401 249 550 484 382 778 400 242 120 1213 691 1358 522 1219
is_linear=0
shrinkage=0.05


Tree=9
num_leaves=63
num_cat=0
split_feature=29 5 26 31 23 11 26 32 33 17 23 5 18 7 36 11 27 0 34 11 13 14 22 27 27 34 17 33 55 55 11 19 4 17 0 23 51 19 33 40 38 17 10 40 18 21 11 41 35 13 34 0 33 41 4 0 55 42 39 25 15 35
split_gain=1442.96 339.085 125.017 105.372 63.5463 59.1467 58.8041 36.3161 26.2879 23.6554 21.9456 21.665 19.0831 18.1487 16.9048 21.5856 16.5075 15.7805 15.6687 15.6364 14.8947 14.8509 14.7288 17.1513 13.4116 14.0964 13.3483 18.2925 12.7896 12.7058 12.2505 12.2085 15.1972 12.2048 12.1091 12.0795 11.8552 11.6588 17.6156 11.611 11.3602 11.0861 11.0423 10.8762 10.8656 10.7748 10.7269 10.656 10.7802 10.6212 10.4469 10.4068 10.3336 10.1967 10.1676 10.6541 12.6469 11.4622 11.0298 10.1354 15.6595 13.4114
threshold=1.0000000180025095e-35 1.5000000000000002 7200.5000000000009 4.5000000000000009 0.66211000084877025 9161.5000000000018 8001.0000000000009 1.5000000000000002 848.50000000000011 1600.5000000000002 0.9827120602130891 -1.4999999999999998 19000.500000000004 -1.0000000180025095e-35 15047.000000000002 40501.500000000007 0.041824884712696082 245000.00000000003 797.50000000000011 22704.500000000004 29422.000000000004 20015.000000000004 500.50000000000006 0.66262099146842968 0.043596057221293456 -303.49999999999994 2853.0000000000005 1372.5000000000002 7.3095469474792489 7.6011524200439462 6812.5000000000009 390.50000000000006 35.500000000000007 4187.5000000000009 95000.000000000015 -0.00091079546837136139 5.7884287834167489 1252.5000000000002 7508.5000000000009 -500.49999999999994 -1792.4999999999998 1545.5000000000002 1.0000000180025095e-35 -278.49999999999994 1750.5000000000002 7000.5000000000009 2473.0000000000005 494.50000000000006 -1010.4999999999999 110492.00000000001 -1018.4999999999999 323840.00000000006 208.50000000000003 1297.5000000000002 55.500000000000007 85000.000000000015 7.1147689819335946 5.5000000000000009 1.0000000180025095e-35 0.42203055322170263 24359.500000000004 -430.49999999999994
decision_type=2 2 2 2 2 2 2 2 2 2 2 2 2 2 2 2 2 2 2 2 2 2 2 2 2 2 2 2 2 2 2 2 2 2 2 2 2 2 2 2 2 2 2 2 2 2 2 2 2 2 2 2 2 2 2 2 2 2 2 2 2 2
left_child=2 3 8 6 5 11 19 17 31 34 12 -4 14 18 15 21 -16 35 -3 54 -21 28 23 30 25 -10 27 -24 44 53 36 32 -1 -18 -7 -8 -13 38 -36 -33 45 -27 -19 -29 -6 -37 -31 48 -41 -35 -49 -12 -15 -25 55 56 -2 -57 -59 60 -11 -61
right_child=1 13 4 -5 10 9 7 -9 24 59 51 22 -14 52 16 -17 33 42 -20 20 -22 -23 26 29 -26 41 -28 43 -30 46 -32 39 -34 49 37 40 -38 -39 -40 47 -42 -43 -44 -45 -46 -47 -48 50 -50 -51 -52 -53 -54 -55 -56 57 -58 58 -60 61 -62 -63
leaf_value=-0.0031941772847973865 0.03269098688680025 -0.011632362576339662 -0.040249225295517568 0.034097990953643402 -0.09161559774940202 -0.0039366235034597368 -0.067323716693394806 0.014731724601883489 0.047159579266388224 -0.043713548485194278 -0.0095858485047373328 -0.0048830110212858451 -0.084257219576184039 0.060087823120830011 0.0091590856462713099 -0.034871552673085782 -0.0023180446005877267 -0.029869785388753109 0.050286839929919794 -0.05516174811596293 0.013207768985374202 0.01036023648378907 -0.0071140939094350153 0.04123504165833973 -0.023507376214432118 -0.0025920531668762233 -0.035576720059726917 -0.080139151639764997 0.00083009425203131094 0.0090243118511536321 0.016762267118897504 -0.051461011745790958 0.022566319820419185 -0.085556351965054844 0.034623048448645131 0.027052019539299667 -0.07480668192947193 -0.054423385506858116 -0.050426460573662783 0.029664813433262438 -0.013939454394134704 -0.0469832680382994 -0.091925735261788155 -0.021124641084971071 -0.017646145129528303 -0.018481102372963767 -0.055030463315750899 -0.066791182619257386 -0.0059528327320712811 -0.027822970401677791 -0.00043261862495807928 0.02755810807534715 0.048851783013119009 -0.0068055178871424789 0.0539521879082 0.016752273475290319 -0.01068425800416827 0.0062901691538928377 -0.047790983215520666 -0.027835882543130009 -0.061886164463226458 -0.057495732713361225
leaf_weight=106.61553563177586 152.4279013723135 19.13085375726223 158.61798559129238 453.22021777927876 10.957319900393488 44.031663253903389 9.057631701231001 134.11854587495327 12.547567486762999 229.71353557705879 239.89446392655373 9.5287892222404498 12.963744953274725 498.53573451936245 69.952568724751472 295.14212001860142 34.093364104628563 62.546745166182518 21.927621990442276 13.76521462202072 18.909130796790123 52.235722988843918 140.43813225626945 33.173748090863228 210.98148961365223 105.75723817944527 141.00250405073166 14.98491942882538 17.035236373543739 15.857360959053041 9.5605200529098493 13.779620230197905 123.65566286444664 10.715710580348967 11.431100368499758 37.231432676315308 16.660139694809914 40.359101489186287 13.025910839438437 28.612796038389206 212.75398409366608 16.221786573529243 8.0965207517147046 16.29950213432312 9.0777101218700391 19.956934452056885 11.118871688842772 11.891697451472284 82.490001738071442 31.049018949270248 11.83270727097988 20.466183558106422 347.09724281728268 16.558752030134201 21.325724169611931 183.39478862285614 18.887331128120422 27.505242928862572 14.344870910048483 104.21226133406162 244.9553634673357 60.089575484395027
leaf_count=434 469 77 849 1339 69 197 52 482 38 1320 1080 43 84 1158 286 1556 147 306 56 71 68 207 631 111 1008 451 768 93 72 65 38 74 424 69 44 127 101 239 74 99 936 88 51 78 42 90 64 67 350 159 49 73 893 75 55 637 78 104 72 553 1542 362
internal_value=2.39777e-05 0.0297482 -0.0236157 0.0143145 -0.029705 -0.0364058 0.00471798 -0.00738762 -0.00566688 -0.0457164 -0.0186013 -0.0244793 -0.0243217 0.0538997 -0.0228564 -0.0283544 -0.00836017 -0.0158723 0.0214361 0.0177156 -0.0155953 -0.00681626 -0.0185962 -0.00307766 -0.0156412 -0.0033045 -0.0241768 -0.0148163 -0.0310197 0.0102525 -0.0316806 0.00342895 0.0106392 -0.0245156 -0.0241703 -0.0105273 -0.0493651 -0.0379157 -0.0106747 -0.00774358 -0.00862153 -0.00849557 -0.0369821 -0.049392 -0.0581006 0.0111624 -0.0173773 -0.00327557 0.00321994 -0.0426358 -0.0336944 -0.00666607 0.0554759 0.0252396 0.0203202 0.0185116 0.0279089 0.0113642 -0.0122471 -0.0493867 -0.0530916 -0.0386833
internal_weight=5133.82 2274.23 2859.59 1387.54 2135.2 1331.62 934.322 483.762 724.386 747.819 803.583 583.801 543.223 886.691 530.259 384.448 145.811 349.643 41.0585 450.56 32.6743 89.306 425.183 112.458 345.508 134.527 312.725 171.723 37.0703 76.7087 35.7494 378.878 230.271 75.8581 108.848 279 26.1889 64.8161 24.457 148.607 269.942 121.979 70.6433 31.2844 20.035 57.1884 26.9762 134.827 111.103 41.7647 23.7244 260.361 845.633 49.7325 417.886 396.56 171.315 225.245 41.8501 638.971 474.669 164.302
internal_count=21294 7121 14173 4937 11091 7247 3598 2044 3082 4331 3844 2916 2691 2184 2607 1946 661 1562 133 1554 139 390 2067 497 1585 577 1570 802 183 315 182 1497 858 375 554 1205 144 357 118 639 1153 539 357 171 111 217 129 565 449 228 116 1153 2051 186 1415 1360 547 813 176 3777 2862 915
is_linear=0
shrinkage=0.05


Tree=10
num_leaves=63
num_cat=0
split_feature=31 26 31 23 11 24 0 10 40 0 6 44 21 17 21 36 38 17 35 28 0 15 35 14 20 23 10 28 15 26 18 28 2 18 38 34 54 20 26 0 33 33 33 43 20 41 20 40 38 44 35 0 23 2 26 25 15 26 3 25 34 41
split_gain=1305.44 185.589 141.663 47.3399 70.5691 41.3323 35.2897 23.3805 24.4559 18.389 18.2401 17.2035 17.0409 18.224 16.4709 16.4449 15.5289 15.577 15.1712 14.3333 15.744 15.5856 13.5438 13.669 13.755 13.25 12.151 12.1283 17.2629 12.1022 15.134 12.1592 21.2375 15.8707 16.6375 13.7104 16.6753 11.8791 11.7163 12.6743 11.4595 11.3378 18.5132 11.6934 11.6125 10.9356 11.7633 10.9341 10.8394 10.773 10.5066 10.5061 10.251 14.1976 10.844 10.2206 10.1461 10.0262 9.96188 9.89956 9.84011 12.282
threshold=1.5000000000000002 7101.5000000000009 5.5000000000000009 0.77906104922294628 9161.5000000000018 1.0000000180025095e-35 105000.00000000001 1.0000000180025095e-35 2490.5000000000005 165000.00000000003 1.5000000000000002 1.0000000180025095e-35 5.5000000000000009 5397.0000000000009 4409.5000000000009 6470.5000000000009 1371.5000000000002 444.50000000000006 -1732.4999999999998 0.67204928398132335 55000.000000000007 19623.500000000004 -948.49999999999989 9627.5000000000018 1199.5000000000002 0.15258437395095828 -1.4999999999999998 0.75597035884857189 5934.5000000000009 100583.50000000001 19719.000000000004 0.037793710827827461 1.5000000000000002 4802.5000000000009 3861.0000000000005 498.50000000000006 6.9221508502960214 1.0000000180025095e-35 11000.500000000002 65000.000000000007 4116.5000000000009 48920.500000000007 23361.000000000004 390.50000000000006 3993.0000000000005 -261.49999999999994 770.50000000000011 -25412.999999999996 1219.5000000000002 1022.5000000000001 -2757.4999999999995 185000.00000000003 0.35973660647869116 1.5000000000000002 19055.000000000004 0.38321360945701605 906.50000000000011 3700.5000000000005 1.5000000000000002 0.0028189440490677957 2500.5000000000005 1600.5000000000002
decision_type=2 2 2 2 2 2 2 2 2 2 2 2 2 2 2 2 2 2 2 2 2 2 2 2 2 2 2 2 2 2 2 2 2 2 2 2 2 2 2 2 2 2 2 2 2 2 2 2 2 2 2 2 2 2 2 2 2 2 2 2 2 2
left_child=1 5 7 4 12 51 11 8 9 50 -4 18 -3 15 59 25 17 -8 -6 20 21 45 -20 -24 -25 -14 -21 28 -15 31 -31 49 -33 34 35 -34 -37 -28 -9 -40 60 42 43 44 -10 -7 -47 -19 -13 -5 -2 -1 -49 54 -54 -18 -29 -39 -57 -11 61 -22
right_child=2 3 10 29 6 19 16 38 41 14 -12 48 13 27 -16 -17 55 47 22 26 40 -23 23 24 -26 -27 37 56 -30 30 -32 32 33 -35 -36 36 -38 57 39 -41 -42 -43 -44 -45 -46 46 -48 52 -50 -51 -52 -53 53 -55 -56 58 -58 -59 -60 -61 -62 -63
leaf_value=0.0057773266460977944 0.009934082220934214 -0.0039341569621532515 0.029866468892133777 -0.012917181123988229 -0.057619692802533463 -0.040067742768726364 0.013666617848320461 0.016471556874413412 0.018810709091109937 0.027646360400405447 0.049712120870872567 -0.053446950162250872 -0.018336672120909912 0.021353032066880717 0.029891706079986265 -0.060233473413503762 -0.064188670736697387 -0.00073393692275547189 0.015403351604733259 -0.017396603403641242 -0.019454333573383661 -0.040139360236611632 0.012305528751595188 -0.067236742563560312 -0.013570440176070151 0.02676268743829531 0.041532227122414715 -0.012278039811280811 -0.039407964503645504 0.024779133851976689 -0.044362183094510926 -0.045536870652592702 -0.0065910531578209563 -0.034416525101801064 0.018435531277902623 0.0069962775084893864 -0.048149073695894176 0.017616279203497787 -0.045041994391733668 0.00038581919735397179 -0.032454907851645939 0.034368340050323069 -0.062707563248730502 -0.0319206983472183 -0.034778296598777493 0.01058303773418446 -0.023644076732752307 -0.051913926079555972 -0.011965312079660041 0.020853985447551498 0.033754601041715113 0.028404167031896119 -0.0092369190876416766 -0.025090592967158105 -0.068559494566629284 -0.022707901960765688 -0.05871353528120743 -0.012014162015471525 -0.06047163895436556 -0.0091499409693141086 0.022259369930912824 0.029523554220352383
leaf_weight=90.397773161530495 51.147296160459518 128.37361796200275 136.18979988992214 188.59234896302223 16.782569259405136 13.975717082619665 12.317326813936232 84.39376699924469 76.993513211607933 23.988935649394989 772.60866764187813 59.344906911253929 367.57512623071671 16.619088932871819 80.982281625270844 22.590595975518227 172.97042919695377 14.4507719874382 43.253601223230362 45.641250133514404 153.99598301947117 23.505938813090324 22.678353607654572 19.551028102636337 30.669974252581596 17.04101587831974 27.856998220086098 14.027674764394758 39.411132499575615 33.985269010066986 10.317028060555456 85.496429890394211 124.32196092605591 99.240426048636436 40.83465650677681 18.431923791766167 53.496514499187469 68.190686672925949 19.5726278424263 71.234764605760574 99.999500960111618 25.761940494179726 11.433236107230185 18.508885100483894 11.637086287140844 174.3019829839468 29.326804101467133 224.30415530502796 21.437093928456306 26.995001256465912 487.55992610752583 118.62185440957546 9.5089234411716443 108.04488950967789 40.574389353394508 35.041473478078842 72.884423732757568 49.11148002743721 34.813257187604904 76.791167840361595 19.36257803440094 13.960314288735388
leaf_count=334 186 572 412 870 99 70 51 295 269 76 1981 340 1764 66 258 133 1112 72 175 205 701 120 95 119 152 62 86 68 222 127 56 471 547 532 157 76 293 242 98 289 515 80 62 89 56 674 139 1379 103 102 1470 377 48 584 261 187 449 214 217 316 71 47
internal_value=0.000143575 -0.0197344 0.032317 -0.0275664 -0.032411 -0.000953032 -0.0418735 0.0197152 0.0230896 0.026853 0.0467381 -0.0242411 -0.0203377 -0.0241653 0.013101 -0.0187736 -0.047653 -0.0417089 -0.0131826 -0.00664081 -0.0108822 -0.00146095 -0.00676206 -0.0199135 -0.0344627 -0.0163385 0.00510582 -0.0395249 -0.0213857 -0.0165919 0.00867765 -0.0183482 -0.0232852 -0.0176287 -0.0106015 -0.0166434 -0.0340179 0.0121811 0.00305929 -0.00940569 -0.0187882 0.00430397 -0.00222802 0.00422597 0.0117745 0.00271715 0.00565362 -0.0434274 -0.042439 -0.00868849 0.031493 0.0186184 -0.0450407 -0.035291 -0.0572964 -0.0576698 -0.0512188 0.00521076 -0.0415281 -0.000391227 -0.0114923 -0.0153834
internal_weight=5103.03 3154.23 1948.8 2225.98 1544.27 928.249 865.743 1040.01 864.804 720.47 908.798 213.718 678.523 550.149 181.762 407.207 652.026 409.2 132.936 719.229 528.429 241.11 116.153 72.8994 50.221 384.616 190.8 142.942 56.0302 681.712 44.3023 637.409 421.822 336.325 237.085 196.25 71.9284 145.159 175.201 90.8074 287.318 144.335 118.573 107.139 88.6306 217.605 203.629 396.883 80.782 215.587 538.707 209.02 382.432 158.128 50.0833 242.825 86.9121 117.302 69.8547 100.78 187.319 167.956
internal_count=21293 15356 5937 11561 8330 3795 4994 3544 2862 2306 2393 1083 3336 2764 650 1959 3911 2395 640 3084 2337 1003 541 366 271 1826 747 805 288 3231 183 3048 2076 1605 1073 916 369 542 682 387 1334 556 476 414 325 883 813 2344 443 972 1656 711 2272 893 309 1516 517 456 404 392 819 748
is_linear=0
shrinkage=0.05


Tree=11
num_leaves=63
num_cat=0
split_feature=30 5 26 31 23 11 0 34 17 11 4 0 15 17 34 27 0 26 38 28 35 27 39 47 34 33 16 17 24 38 43 43 13 47 43 41 42 40 40 25 41 28 27 43 43 53 27 26 15 40 23 38 35 11 41 40 25 0 43 54 2 54
split_gain=1259.56 245.288 176.831 58.1522 54.5184 63.1832 56.1121 29.4042 27.7569 22.9196 20.9735 17.3101 18.8891 15.9898 15.8874 15.5424 15.2753 14.6247 13.8927 13.8876 13.6522 12.8467 12.3542 12.1784 12.1778 12.0531 14.1483 11.7314 11.4549 13.7262 12.3291 11.3985 13.3823 13.6277 11.0446 10.9288 10.7679 10.3794 11.1862 16.2091 15.6077 17.0983 13.2545 11.7546 12.5021 10.74 10.3595 12.3556 14.1626 10.3156 10.0542 9.85057 15.1898 22.5824 11.8702 15.0147 11.3303 9.64508 9.62265 9.60926 11.4376 11.1821
threshold=1.5000000000000002 1.5000000000000002 4165.5000000000009 4.5000000000000009 0.85052499175071727 2473.0000000000005 65000.000000000007 26.500000000000004 6.5000000000000009 17253.500000000004 35.500000000000007 65000.000000000007 288.50000000000006 4902.5000000000009 149.50000000000003 0.048014381900429733 315000.00000000006 15201.000000000002 435.50000000000006 0.62418740987777721 1995.5000000000002 0.098328877240419402 -290.49999999999994 9.9662041664123553 4293.0000000000009 19292.500000000004 24901.500000000004 1155.5000000000002 100078.00000000001 15327.500000000002 6006.5000000000009 299.50000000000006 27054.500000000004 9.5729327201843279 10817.500000000002 -1922.4999999999998 -100.49999999999999 485.50000000000006 -4760.9999999999991 0.027530350722372535 167.50000000000003 0.68097275495529186 0.68951702117919933 1.0000000180025095e-35 -2149.4999999999995 9.8027553558349627 0.040607202798128135 13326.500000000002 58622.000000000007 984.50000000000011 0.74591264128685009 1263.0000000000002 292.50000000000006 59579.000000000007 -1000.4999999999999 -300.49999999999994 0.4947511106729508 275000.00000000006 -278.49999999999994 9.5097408294677752 1.5000000000000002 9.2190027236938494
decision_type=2 2 2 2 2 2 2 2 2 2 2 2 2 2 2 2 2 2 2 2 2 2 2 2 2 2 2 2 2 2 2 2 2 2 2 2 2 2 2 2 2 2 2 2 2 2 2 2 2 2 2 2 2 2 2 2 2 2 2 2 2 2
left_child=2 3 7 8 5 28 14 10 57 16 22 12 -9 -8 15 -7 20 -15 -12 -3 49 23 -1 -11 46 26 -23 -17 29 30 37 32 33 -29 -32 -28 -13 38 39 -4 42 -42 43 44 -40 -41 -5 -48 -49 -10 -35 52 53 -25 -54 -56 -53 -2 -22 61 -61 -6
right_child=1 19 4 24 59 6 13 11 9 21 18 36 -14 17 -16 27 -18 -19 -20 -21 58 25 -24 51 -26 -27 35 31 -30 -31 34 -33 -34 50 -36 -37 -38 -39 40 45 41 -43 -44 -45 -46 -47 47 48 -50 -51 -52 56 54 -55 55 -57 -58 -59 -60 60 -62 -63
leaf_value=-0.043229807568356642 0.026383760135995069 0.052713472607997372 -0.061061083639408181 0.03935421567909772 -0.013106423428710729 0.054646089674078725 -0.03471048021887839 0.029085795379630353 0.0097436935081205191 -0.053588198644097376 0.025750031023754606 0.012042308584989258 -0.041305987627757182 -0.011811973427050405 -0.032118704310127831 0.03551315191870931 -0.041839224299773124 -0.048997419207937078 -0.027553878404638577 0.012876204235566003 0.018031459521177264 0.014372817018653158 0.0038959033231966349 -0.0060801452687451827 -0.01338157820945467 -0.083286859738608499 -0.012246762174776084 -0.0098004913052491191 -0.040633696797621938 0.031641785405339067 -0.085397048267371087 0.010444856548915856 0.006432842447808714 -0.066756788358097063 -0.017040741205109036 -0.070981049667411242 -0.026899458993840261 -0.023239335419216276 -0.048232109602695208 -0.040115514258292281 0.052089479042833488 0.002268883719382333 0.0051691925988477105 -0.060244873049488626 0.0041374116745770875 0.028478523887300253 0.031385377901640449 -0.027627573506776904 0.022661961056661871 0.035083584809972632 -0.01822709234721993 -0.023891216791224842 0.037145788089794157 -0.073658407474475121 0.021105888673852612 -0.069173744570254062 0.024305390175874839 -0.010043818434460878 -0.041877189420095495 -0.086598720239292229 -0.021647817334803889 0.019552627881358413
leaf_weight=15.039400681853293 164.97488462924957 849.20589636266232 20.476589441299438 210.55730785429478 619.81557539105415 9.973289877176283 618.89121821522713 40.80854606628418 94.241317957639694 11.837908312678335 210.21483270823956 20.955034181475639 12.434136629104612 28.068538352847099 86.210150614380836 13.299648985266684 12.566192239522932 456.05678172409534 12.978530302643774 22.455567359924316 11.338188558816912 17.545883268117905 184.73227192461491 37.63954022526741 15.67132383584976 9.4535750299692136 15.850260734558105 39.884495675563812 36.30821505188942 17.76936174929142 10.844432026147844 37.994893103837967 32.335187241435051 30.184404194355011 12.984914243221281 15.829918473958969 116.12116295099258 120.51605850458145 17.546459153294563 9.8020071685314196 23.131099134683609 67.409711644053459 59.749990701675415 19.18909814953804 32.513813212513924 13.657696694135664 150.26635526120663 21.779280230402946 39.195400416851044 69.990772411227226 16.510433405637741 15.801665201783178 21.673204228281975 18.408085599541664 10.884266704320909 7.9836809486150733 53.412211760878563 20.420502811670303 16.395019039511681 9.1614495068788511 26.053718447685242 27.366550907492638
leaf_count=74 535 2113 118 591 2886 30 3448 139 344 62 692 81 63 137 446 43 64 2806 61 78 41 65 712 155 64 57 69 175 201 65 70 155 134 177 63 89 561 593 93 53 70 281 245 109 134 52 448 94 125 217 76 74 70 105 38 45 185 85 83 59 125 105
internal_value=0.000321831 0.0320235 -0.0192992 0.0159102 -0.0251722 -0.0296671 -0.035061 0.00477279 0.00613913 -0.000687179 0.0121168 -0.0115485 0.0126467 -0.0400349 -0.014466 -0.00601983 0.0115674 -0.0468415 0.0226504 0.0516872 0.0150634 -0.0112933 0.000348141 -0.00459311 0.0298976 -0.0315768 -0.0216462 -0.00957451 -0.0136759 -0.011376 -0.0132504 -0.0133961 -0.0210137 -0.0312643 -0.0481488 -0.041595 -0.0209464 -0.0110847 -0.00552504 -0.0285546 -0.000916158 0.0149969 -0.0120851 -0.0269724 -0.0142185 -0.000181653 0.0315056 0.0236824 0.00469926 0.0205428 -0.0495976 -0.00109498 -0.0114116 -0.0282753 0.0119022 -0.0170945 0.013302 0.0223714 -0.0173847 -0.0131095 -0.0385452 -0.0117254
internal_weight=5062.37 1935.38 3126.99 1063.72 2513.71 1831.31 1369.41 613.284 626.247 440.852 422.965 190.319 53.2427 1103.02 266.393 180.182 204.531 484.125 223.193 871.661 191.965 236.32 199.772 177.641 437.47 58.6796 49.2261 170.209 461.899 425.591 407.822 156.909 118.915 86.5793 23.8293 31.6802 137.076 383.993 263.476 43.9363 219.54 90.5408 128.999 69.2494 50.0603 23.4597 421.798 211.241 60.9747 164.232 46.6948 165.803 96.5888 56.0476 40.5412 18.8679 69.2139 185.395 27.7332 682.397 35.2152 647.182
internal_count=21228 5896 15332 3705 12949 9774 7627 2383 2383 1763 1539 844 202 6391 1236 790 749 2943 753 2191 685 1014 786 734 1322 280 223 760 2147 1946 1881 717 562 428 133 158 642 1748 1155 223 932 351 581 336 227 105 1258 667 219 561 253 672 413 260 153 83 259 620 124 3175 184 2991
is_linear=0
shrinkage=0.05


Tree=12
num_leaves=63
num_cat=0
split_feature=30 5 26 23 32 11 0 33 33 33 23 4 23 23 40 55 14 53 14 25 43 34 27 11 22 43 38 13 21 38 26 50 16 33 55 34 24 55 38 21 11 12 35 22 23 0 5 0 50 16 42 36 24 38 35 34 33 40 22 22 27 33
split_gain=1111.51 241.584 166.394 66.9384 61.0952 51.1028 50.6671 38.3592 29.5779 24.0703 22.2384 19.695 16.1425 15.7428 14.7771 17.3222 14.2217 14.1846 13.9599 13.5516 13.4664 18.0257 13.2165 19.4522 14.177 13.4598 19.2509 13.2159 13.2194 13.8793 12.8321 12.5765 12.3353 11.9361 12.1359 11.4861 19.8675 14.8268 13.728 12.5264 13.9735 11.4109 11.4055 11.5434 13.0894 11.2787 12.1575 15.4236 11.3553 11.2475 11.2391 14.6198 11.1106 11.9607 10.7731 10.772 13.6059 13.2351 12.3118 18.065 18.1074 11.4181
threshold=1.5000000000000002 1.5000000000000002 6533.5000000000009 0.87264168262481701 1.5000000000000002 2473.0000000000005 65000.000000000007 848.50000000000011 20616.500000000004 582.50000000000011 0.90237125754356395 53.500000000000007 0.0042374420445412406 -0.00091079546837136139 1.0000000180025095e-35 5.7914869785308847 2500.5000000000005 7.3228404521942148 22392.500000000004 0.7531607747077943 249.50000000000003 2078.5000000000005 0.046946253627538688 9161.5000000000018 5403.5000000000009 -2718.4999999999995 -4616.9999999999991 278917.00000000006 620.50000000000011 -1338.4999999999998 12295.500000000002 10.318226337432863 46485.500000000007 28240.500000000004 9.374455928802492 5721.0000000000009 590081.00000000012 7.7615320682525644 2282.5000000000005 16.500000000000004 42718.500000000007 8272.0000000000018 -859.49999999999989 457.50000000000006 0.58332499861717235 335000.00000000006 -1.4999999999999998 95000.000000000015 4.8322343826293954 8592.5000000000018 -60.499999999999993 2782.0000000000005 100078.00000000001 22071.500000000004 2155.0000000000005 6178.0000000000009 48920.500000000007 1275.5000000000002 100.50000000000001 4192.5000000000009 0.040367743000388152 52856.000000000007
decision_type=2 2 2 2 2 2 2 2 2 2 2 2 2 2 2 2 2 2 2 2 2 2 2 2 2 2 2 2 2 2 2 2 2 2 2 2 2 2 2 2 2 2 2 2 2 2 2 2 2 2 2 2 2 2 2 2 2 2 2 2 2 2
left_child=2 4 7 5 8 13 17 11 16 30 -10 14 -3 -4 45 -16 54 42 -9 -17 31 49 27 24 25 26 41 28 -8 -30 -6 -19 -12 34 -5 36 37 39 -39 -11 -41 -24 -7 -44 -45 46 47 -1 -47 -22 51 -31 53 -15 -2 56 57 -35 -58 -60 -61 -57
right_child=1 12 3 33 9 6 22 18 10 35 32 -13 -14 52 15 19 -18 20 -20 -21 21 -23 23 -25 -26 -27 -28 -29 29 50 -32 -33 -34 55 -36 -37 -38 38 -40 40 -42 -43 43 44 -46 48 -48 -49 -50 -51 -52 -53 -54 -55 -56 61 58 -59 59 60 -62 -63
leaf_value=-0.067479577487446707 0.025440842231647838 -0.0015062040841511133 -0.069221748115361609 -0.017680025299697848 0.037255214801249735 0.033024436851487197 -0.0042379742436388602 -0.01172928610461401 -0.07241948186569476 0.03169570977855804 -0.043847249400865908 0.045117352554896677 0.050573542841045017 -0.01195317600557399 0.0061812309184894471 -0.056738688512236582 -0.0022319806069926694 -0.042938488088593518 -0.063636180844767659 0.0097744736778058797 0.046875130792114972 -0.060069454992795958 -0.057206657720424263 -0.050107569567771938 -0.052566045579963097 -0.032438881319689999 0.040111730850555971 0.015800371030028203 -0.024120796212430094 -0.05382996825444411 0.018529415920542452 0.0056928826786068164 0.028151310387394879 0.0031782894505621817 -0.076696303536983201 -0.015895178914938798 0.054794668431298876 0.0036214947607823358 -0.077371924387972288 -0.015846194216432925 0.02352317857708025 0.022257629137602847 0.028894747228672482 -0.05384728671252751 0.0092155419972704804 0.037718130886876089 0.011301913653814291 -0.002458811038515809 -0.01747708839722242 -0.010844977241159152 -0.05387858097351144 -0.0026039535832841497 -0.04096460702658692 0.046478366319871095 -0.028885452514095324 -0.04294983871071914 0.025181592411182608 0.043051032047379832 -0.049312390710485973 0.024451465899083424 -0.033407128029083209 -0.00764504355912979
leaf_weight=10.321963623166083 89.458015486598015 15.147426560521124 12.927395313978193 244.34742403030396 269.92252752184868 24.053793638944626 32.975176736712456 290.89139980077744 23.709477052092552 63.354070484638214 10.797050490975382 33.700530514121056 839.51238897442818 328.10928021371365 51.285367578268051 27.611408963799477 267.56005644798279 71.78864124417305 13.556767165660856 10.597127020359038 16.481415808200836 9.6815786063671094 13.881345331668856 468.10385844111443 63.33284954726696 130.55111554265022 17.390928417444229 13.681291490793226 118.22847381234169 26.733754679560661 138.39249993860722 16.315894424915314 13.24878181517124 114.21140575408936 9.0330215096473676 34.258164420723915 27.651420652866364 12.76881465315819 8.8633576780557615 47.833700016140938 42.621542230248451 6.697296828031539 13.943808764219282 18.185426101088524 15.028097718954085 55.425993919372559 270.92119491100311 78.362345635890961 11.201440706849096 17.298189491033554 132.87410928308964 29.078309804201126 32.593945726752281 8.9981531500816327 10.162207216024397 33.638488948345184 17.355246528983116 25.449516043066978 34.24010868370533 28.576345413923264 25.669700860977173 71.751106083393097
leaf_count=57 295 57 78 1184 773 83 158 1321 140 192 55 96 2136 1527 200 151 1084 390 79 41 54 58 84 2951 389 711 66 59 648 165 463 68 45 484 55 145 71 47 49 197 138 30 50 105 63 164 993 315 50 80 826 144 184 29 49 183 64 86 188 104 135 325
internal_value=-7.2658e-05 0.0298685 -0.0185885 -0.0257389 0.0139277 -0.0309834 -0.0358559 0.000195938 -0.0010419 0.0235479 -0.0380581 0.0080847 0.0496505 -0.0149852 0.00566478 -0.0128059 0.00377242 -0.0129684 -0.0140406 -0.0382913 -0.0226975 7.82975e-05 -0.0402612 -0.0442414 -0.0323978 -0.0248183 0.00138376 -0.0323816 -0.0343211 -0.0375532 0.0309084 -0.0339325 -0.00417746 -0.0115143 -0.019784 0.0108857 0.0154032 0.0091947 -0.029564 0.0146458 0.00270423 -0.0313451 0.00500655 -0.00928468 -0.0253133 0.00954296 0.00604198 -0.0100266 0.0284387 0.0173173 -0.0459698 -0.027141 -0.0130887 -0.0103935 0.019899 -0.00554282 0.000197059 0.010444 -0.0133241 -0.0208765 -0.00292772 -0.0189137
internal_weight=5012.34 1915.26 3097.08 2243.21 1060.6 1638.93 1256.31 853.876 414.936 645.666 47.7553 549.427 854.66 382.629 515.727 89.4939 367.18 202.777 304.448 38.2085 131.566 43.4612 1053.53 699.957 231.854 168.521 37.9696 353.571 339.89 306.915 408.315 88.1045 24.0458 604.272 253.38 237.351 203.093 175.441 21.6322 153.809 90.4552 20.5786 71.2111 47.1573 33.2135 426.233 359.606 88.6843 66.6274 33.7796 188.686 55.8121 369.701 337.107 99.6202 350.892 245.502 139.661 105.841 88.4862 54.246 105.39
internal_count=21211 5936 15275 11808 3743 9000 7182 3467 1668 2075 240 2067 2193 1818 1971 392 1428 951 1400 192 650 192 6231 4231 1280 891 180 2000 1941 1783 1236 458 100 2808 1239 839 694 623 96 527 335 114 301 218 168 1579 1365 372 214 134 1135 309 1740 1556 344 1569 1061 570 491 427 239 508
is_linear=0
shrinkage=0.05


Tree=13
num_leaves=63
num_cat=0
split_feature=30 26 31 23 24 25 17 0 34 10 30 0 11 19 28 37 0 23 6 3 20 27 12 31 34 0 51 34 13 35 14 57 11 57 0 11 17 25 9 33 15 26 11 40 41 11 24 26 23 51 0 41 25 37 38 2 33 40 41 15 51 25
split_gain=970.892 128.043 115.826 45.634 61.4031 36.5884 32.4159 23.8739 22.3526 22.239 17.6457 19.2786 16.9735 22.7474 15.6638 15.6302 15.4758 21.8514 14.7194 14.083 15.1478 13.9644 13.6951 13.6625 13.6164 13.7371 13.5095 13.5401 13.2939 13.2907 15.0076 14.7631 12.6825 12.6434 12.3778 20.9377 14.6322 13.7712 12.4848 14.7421 12.2528 12.0819 11.9314 11.6008 11.9462 11.5158 14.4335 10.9317 10.703 10.6379 14.2086 10.5671 10.5416 10.4229 10.4055 10.4096 15.5473 15.9817 15.8341 10.3126 10.2854 11.7528
threshold=1.5000000000000002 4165.5000000000009 5.5000000000000009 0.95677581429481517 207345.50000000003 0.40830665826797491 4566.5000000000009 315000.00000000006 1014.5000000000001 1.0000000180025095e-35 -1.4999999999999998 245000.00000000003 17253.500000000004 525.00000000000011 0.69318723678588878 2498.5000000000005 155000.00000000003 0.72316113114357006 1.5000000000000002 1.5000000000000002 28175.000000000004 0.047492923215031631 15581.500000000002 2.5000000000000004 26.500000000000004 95000.000000000015 9.8545861244201678 42937.000000000007 19150.500000000004 -9303.9999999999982 218456.00000000003 8.2697567939758319 1.0000000180025095e-35 4.9199542999267587 185000.00000000003 2158.5000000000005 3353.5000000000005 0.95069584250450145 -1.0000000180025095e-35 -1.0000000180025095e-35 28607.500000000004 36205.500000000007 837.00000000000011 5750.5000000000009 11.500000000000002 655.50000000000011 5054.5000000000009 21358.500000000004 0.0042374420445412406 9.3323807716369647 225000.00000000003 42.500000000000007 0.86478751897811901 2933.0000000000005 -4435.4999999999991 2.5000000000000004 48920.500000000007 -33.499999999999993 320.50000000000006 12855.500000000002 9.903562545776369 0.88309699296951305
decision_type=2 2 2 2 2 2 2 2 2 2 2 2 2 2 2 2 2 2 2 2 2 2 2 2 2 2 2 2 2 2 2 2 2 2 2 2 2 2 2 2 2 2 2 2 2 2 2 2 2 2 2 2 2 2 2 2 2 2 2 2 2 2
left_child=1 7 9 4 6 -6 8 10 34 16 24 28 13 -8 15 -15 41 53 -4 43 29 26 51 -11 25 -1 -7 54 -12 -21 31 -31 -9 -26 37 38 59 40 39 45 60 -2 -13 44 47 46 -36 52 -10 50 -48 -14 -5 -18 -28 -56 57 58 -57 -37 -3 -62
right_child=2 3 18 19 5 21 12 32 48 23 11 42 22 14 -16 -17 17 -19 -20 20 -22 -23 -24 -25 33 -27 27 -29 -30 30 -32 -33 -34 -35 35 36 -38 -39 -40 -41 -42 -43 -44 -45 -46 -47 49 -49 -50 -51 -52 -53 -54 -55 55 56 -58 -59 -60 -61 61 -63
leaf_value=-0.06464867349475055 0.026737735915549107 -0.0020827780831215855 0.027282528375328768 -0.029590003303654439 -0.051940274539754278 0.019024678377308958 0.0015226156356736816 0.0392061242740053 0.03507361619305191 -0.014241643153505247 0.0092666346379537152 -0.013012177659011401 -0.056812129450238759 -0.03301111474818684 -0.04307220572313189 0.016344886343997039 0.0075845479608188972 0.0360422253362256 0.045124672021048119 0.049342313231618404 0.04681800233823466 -0.040797701527598901 -0.063677094228113393 0.01430192479220746 -0.077420655116158574 -0.0010467089063806018 0.0015977683305167371 0.021557917026828206 -0.05212306420047938 -0.015842949955865951 0.019398129020768939 -0.046871474967708 -0.0010335102311099496 0.0031472975397157012 -0.071540741247558826 -0.077363654923939207 -0.0020974054759603628 -0.066699453629655417 0.015615995481660219 0.0046224418170055306 0.025117215074366595 -0.0032463937638127017 -0.078788928026018709 0.051034186676623697 0.0075948801686682782 -0.060875818142017583 -0.052804125916522532 -0.044708763463544236 -0.02583270249218372 -0.054201109581733742 0.015766069514506553 0.0075526668864569525 0.040237466937644163 -0.021899151177546681 -0.036040706201265198 0.041174725646384136 0.036868022884092043 -0.062020446659317788 -0.046312578135101368 -0.031087579464528139 -0.035723254822151301 0.022502324035456295
leaf_weight=9.6788050979375821 580.68144331872463 354.26664167642593 137.24907870590687 11.213665187358858 249.21686506271362 18.905041441321373 61.024197816848755 66.327504530549049 7.3729483485221854 78.995791390538216 368.47569043934345 24.696546986699104 11.246523439884188 40.67545822262764 135.65808770060539 26.485666796565056 146.22311432659626 61.149501264095306 732.62472584843636 7.2333633303642264 9.578981086611746 144.56222794950008 60.937793016433716 89.331232875585556 15.854409873485567 69.102881491184235 28.030075773596764 15.021770358085631 9.0348405689001066 148.30504781007767 22.280181601643562 51.698140814900398 27.783321365714073 7.0279570966958991 10.798807471990584 26.245789259672165 16.890057295560837 8.5969803035259229 39.676717296242714 53.519239649176598 36.10226546227932 35.659428298473358 9.564196050167082 11.954418942332266 137.31065741181374 21.076824933290482 9.4959401190280897 24.475616410374641 332.62079961597919 10.39719048142433 36.956557720899582 14.726677164435385 10.434216022491453 37.704747796058655 188.23756745457649 11.783612087368967 12.89584696292877 17.400384664535522 9.2172387540340406 22.241310581564903 46.676638379693031 10.642786830663679
leaf_count=53 1847 1543 422 56 1626 76 278 193 27 348 1395 103 73 231 821 119 545 183 1960 23 30 858 406 316 95 275 131 63 50 701 85 288 117 29 63 171 81 49 159 222 143 142 58 38 571 122 53 135 1761 59 146 74 36 170 1065 45 48 108 53 131 255 39
internal_value=0.00067508 -0.0164316 0.0288764 -0.0213918 -0.0244574 -0.0365952 -0.018405 0.00417587 -0.0139852 0.0175288 -6.75739e-05 0.00453819 -0.031555 -0.0252423 -0.0332953 -0.0135471 0.0207769 0.010149 0.0423095 -0.00664807 -0.0147856 -0.0280216 -0.0507192 0.000906442 -0.0187224 -0.00886059 -0.0218956 -0.0246332 0.00779741 -0.0173567 -0.0195272 -0.0238634 0.0273266 -0.0526755 -0.00889831 -0.0179066 -0.0421756 -0.00401599 -0.009185 -0.0161028 -0.00281228 0.025003 -0.0313744 0.00330982 0.000199622 -0.0286043 -0.0185497 -0.0218162 -0.0245119 -0.00848385 0.00174877 -0.0203176 0.00406664 0.00154046 -0.0272265 -0.0305995 -0.0106326 -0.0265842 0.00277669 -0.0561366 -0.00526211 -0.0249122
internal_weight=5031.25 3131.63 1899.62 2524.09 2089.6 695.271 1394.33 607.546 1043.58 1029.75 513.435 411.771 350.754 263.843 202.819 67.1611 861.418 245.077 869.874 434.484 239.096 446.054 86.911 168.327 101.664 78.7817 301.492 282.586 377.511 229.517 222.283 200.003 94.1108 22.8824 703.584 247.298 65.3772 456.285 181.921 142.245 447.688 616.341 34.2607 195.389 183.434 88.7253 67.6485 46.1235 339.994 56.8497 46.4525 25.9732 21.6479 183.928 267.565 239.535 51.2971 38.4012 21.0009 48.4871 411.586 57.3194
internal_count=21363 15430 5933 13062 11099 4073 7026 2368 5024 3551 2058 1606 2002 1449 1171 350 2887 898 2382 1963 1127 2447 553 664 452 328 1589 1513 1445 1097 1074 989 310 124 3236 1207 383 2029 824 665 1980 1989 161 836 798 443 321 227 1788 258 199 147 92 715 1450 1319 254 206 98 302 1837 294
is_linear=0
shrinkage=0.05


Tree=14
num_leaves=63
num_cat=0
split_feature=31 5 52 23 6 14 25 42 34 55 11 0 0 11 0 23 54 18 33 34 27 39 25 27 16 18 40 40 11 11 25 39 14 52 34 23 3 55 22 12 18 39 13 4 35 39 55 35 37 39 33 43 35 44 15 14 4 34 42 15 40 10
split_gain=929.126 200.705 131.126 69.9084 54.189 45.8441 41.7456 26.5065 21.4351 20.0258 16.9741 15.3119 14.9636 17.9288 21.1563 20.0762 13.1991 13.1398 12.6988 12.624 12.8448 12.4981 11.9184 11.6812 11.3636 11.1076 11.7142 19.913 17.2604 14.8521 16.4034 11.1904 11.4303 11.4986 11.0633 11.0799 13.2443 12.972 11.0055 10.9981 12.6657 14.3349 12.7899 15.8401 12.6982 10.8731 21.1163 10.8653 10.6747 10.6079 10.5347 10.487 13.1062 14.7238 13.5057 10.3712 10.2523 10.0902 17.622 10.0231 9.93825 9.93499
