tree
version=v4
num_class=1
num_tree_per_iteration=1
label_index=0
max_feature_idx=57
objective=binary sigmoid:1
feature_names=Column_0 Column_1 Column_2 Column_3 Column_4 Column_5 Column_6 Column_7 Column_8 Column_9 Column_10 Column_11 Column_12 Column_13 Column_14 Column_15 Column_16 Column_17 Column_18 Column_19 Column_20 Column_21 Column_22 Column_23 Column_24 Column_25 Column_26 Column_27 Column_28 Column_29 Column_30 Column_31 Column_32 Column_33 Column_34 Column_35 Column_36 Column_37 Column_38 Column_39 Column_40 Column_41 Column_42 Column_43 Column_44 Column_45 Column_46 Column_47 Column_48 Column_49 Column_50 Column_51 Column_52 Column_53 Column_54 Column_55 Column_56 Column_57
feature_infos=[10000:780000] [1:2] [0:6] [0:3] [21:79] [-2:8] [-2:8] [-2:8] [-2:8] [-2:8] [-2:8] [-165580:746814] [-69777:743970] [-157264:1664089] [-170000:706864] [-81334:823540] [-339603:699944] [0:873552] [0:1684259] [0:889043] [0:621000] [0:417990] [0:528666] [-0.61989200115203857:6.4552998542785645] [-336259:3554591] [-0.23259000480175018:5.3643083572387695] [0:3764066] [-35436:11453.6669921875] [-546.9285888671875:390.15887451171875] [0:6] [-2:8] [0:36] [0:6] [-403627:708323] [-489972:470400] [-1682177:512650] [-429981:1542332] [-341696:432730] [-381629:446948] [-528666:728552] [-1679893:504669] [-502357:1562428] [-497000:490140] [-406990:601000] [-528466:414910] [9.2104406356811523:13.567050933837891] [-12.017215728759766:13.52357292175293] [-11.153074264526367:13.519757270812988] [-11.96568775177002:14.324789047241211] [-12.043560028076172:13.468594551086426] [-11.306331634521484:13.621368408203125] [-12.735535621643066:13.458757400512695] [0:13.680324554443359] [0:14.336836814880371] [0:13.697901725769043] [0:13.339088439941406] [0:12.943215370178223] [0:13.17811393737793]
tree_sizes=13698 13678 13698 13681 13710 13694 13688 13664 13734 13693 13698 13700 13697 13708 13718 13674 13714 13698 13668 13664 13705 13687 13680 13703 13711 13684 13714 13730 13722 13698 13735 13658 13721 13701 13725 13725 13716 13687 13725 13704 13712 13695 13725 13686 13706 13732 13702 13698 13710 13688 13710 13721 13740 13740 13724 13660 13724 13717 13699 13699 13700 13704 13745 13686 13707 13727 13708 13723 13673 13718 13700 13699 13753 13678 13718 13670

Tree=0
num_leaves=127
num_cat=0
split_feature=29 5 24 0 31 23 12 17 18 28 27 36 34 20 23 40 34 42 19 33 24 7 17 15 13 21 11 36 42 23 17 28 28 21 41 36 25 34 19 19 20 37 41 27 42 42 27 41 25 43 17 14 25 33 17 15 0 21 28 57 36 28 15 27 57 40 34 16 57 24 44 13 18 18 15 34 57 19 27 23 42 0 0 7 17 11 18 27 41 17 23 57 34 57 33 19 41 40 27 44 23 23 57 0 1 27 33 14 37 33 57 43 18 1 34 25 57 24 14 34 41 10 16 16 14 27
split_gain=3507.32 736.297 220.024 199.652 181.742 90.9819 92.5357 59.5114 34.8976 33.6063 27.6294 24.707 23.2889 26.7856 20.3418 19.7635 19.56 19.1261 18.3645 24.9886 22.3861 21.3015 22.0262 17.7503 17.3533 16.084 15.637 15.4663 15.9366 16.9163 15.3669 14.766 13.8753 17.049 14.0595 13.1976 19.1766 14.1931 12.9297 12.8431 12.5847 12.5544 12.5092 15.0237 12.1844 12.1068 18.912 11.9829 14.1275 15.8701 11.8216 11.383 12.8861 11.7766 32.8713 11.3823 11.3311 14.7851 13.9906 13.6222 11.0205 14.23 10.9535 10.9058 11.5227 10.8461 10.7864 11.2447 10.8851 10.685 10.4953 11.3108 14.9463 13.392 10.4819 11.7284 11.3799 10.4212 10.3621 10.1368 10.8023 10.0556 10.0531 16.7076 21.6173 14.2273 13.2969 13.1529 10.013 10.3205 12.1604 10.0047 10.1123 9.88043 9.74475 11.6578 13.936 9.54518 9.48836 9.4497 9.13585 9.03982 9.01895 10.203 8.93293 8.82153 17.796 8.77734 8.73885 14.9142 11.1984 16.3793 12.8535 10.0749 9.39364 9.11012 8.71732 13.7783 11.4444 9.79556 8.67608 8.67162 8.55819 8.554 8.50775 8.50132
threshold=1.0000000180025095e-35 1.5000000000000002 10934.500000000002 75000.000000000015 4.5000000000000009 0.85385000705719005 7313.0000000000009 126.00000000000001 4801.5000000000009 0.11957189440727235 0.043078482151031501 -1.0000000180025095e-35 -137.49999999999997 198.50000000000003 1.0109654068946841 2455.5000000000005 5966.5000000000009 -3393.4999999999995 4599.0000000000009 -9952.9999999999982 939610.00000000012 1.5000000000000002 2069.0000000000005 1242.5000000000002 290.50000000000006 666.50000000000011 1270.5000000000002 2527.5000000000005 1499.5000000000002 0.0010780193260870876 1135.5000000000002 0.68086433410644542 0.037495382130146034 16894.500000000004 11.500000000000002 623.50000000000011 0.92152082920074474 26.500000000000004 525.00000000000011 600.50000000000011 710.50000000000011 21962.500000000004 1065.5000000000002 0.038841614499688155 1100.5000000000002 10044.500000000002 0.072387747466564192 -332.49999999999994 0.61544856429100048 147.50000000000003 5943.0000000000009 -153.49999999999997 0.4235482662916184 61038.500000000007 8777.0000000000018 91192.000000000015 25000.000000000004 3100.5000000000005 0.65167549252510082 8.5200886726379412 4396.5000000000009 0.033897478133440025 22716.500000000004 0.046427283436059959 6.9092540740966806 1352.5000000000002 3074.5000000000005 7267.5000000000009 8.8539509773254412 22823.500000000004 6345.5000000000009 215510.00000000003 10738.000000000002 4991.0000000000009 55986.000000000007 -1384.4999999999998 8.012184143066408 2500.5000000000005 0.033223142847418792 0.77859061956405651 130.50000000000003 145000.00000000003 335000.00000000006 -1.4999999999999998 20.500000000000004 140.50000000000003 1930.5000000000002 2.2820737361907963 298.50000000000006 4979.5000000000009 0.12985993176698687 8.0063672065734881 76731.000000000015 7.1304986476898202 5555.5000000000009 629.50000000000011 -412.49999999999994 -4.4999999999999991 1.3850710988044741 -6999.4999999999991 0.0024326471611857419 0.97519832849502575 7.8626897335052499 95000.000000000015 1.5000000000000002 0.68445003032684337 2073.0000000000005 14254.000000000002 1745.5000000000002 31580.000000000004 7.0812880992889413 -103.49999999999999 1384.5000000000002 1.5000000000000002 -1300.4999999999998 0.75834026932716381 8.4893078804016131 17866.500000000004 3734.0000000000005 1887.5000000000002 11.500000000000002 1.0000000180025095e-35 325.50000000000006 16151.000000000002 49064.500000000007 0.035474531352519996
decision_type=2 2 2 2 2 2 2 2 2 2 2 2 2 2 2 2 2 2 2 2 2 2 2 2 2 2 2 2 2 2 2 2 2 2 2 2 2 2 2 2 2 2 2 2 2 2 2 2 2 2 2 2 2 2 2 2 2 2 2 2 2 2 2 2 2 2 2 2 2 2 2 2 2 2 2 2 2 2 2 2 2 2 2 2 2 2 2 2 2 2 2 2 2 2 2 2 2 2 2 2 2 2 2 2 2 2 2 2 2 2 2 2 2 2 2 2 2 2 2 2 2 2 2 2 2 2
left_child=2 4 11 8 7 6 27 9 12 -2 17 23 14 65 30 82 60 55 21 50 -21 22 -9 24 81 122 38 28 66 -30 -4 121 34 125 101 37 40 -15 -8 -29 107 88 43 -42 -39 -31 -47 48 49 98 -20 -28 91 70 -55 -7 -27 58 -58 120 -6 -62 105 93 -65 -14 67 116 77 -69 71 73 -73 -54 75 -24 -76 -68 -36 -50 -81 -1 83 84 -13 -84 -85 -86 89 90 -32 94 -93 -45 95 -53 -97 -46 123 -70 -26 -19 103 -96 -88 -10 -107 -37 110 -110 112 113 115 -112 -114 -92 117 119 -118 -5 -59 -3 -11 -23 -43 -34
right_child=1 31 3 5 16 10 26 18 62 25 -12 15 13 35 -16 -17 -18 32 19 20 -22 47 74 -25 100 56 51 39 29 45 41 -33 33 -35 78 36 -38 44 -40 -41 42 124 -44 63 97 46 -48 -49 79 -51 -52 52 53 54 -56 -57 57 59 -60 -61 61 -63 -64 64 -66 -67 68 69 99 -71 -72 72 -74 -75 76 -77 -78 -79 -80 80 -82 -83 85 86 87 -87 104 -89 -90 -91 108 92 -94 -95 102 96 -98 -99 -100 -101 -102 -103 -104 -105 -106 106 -108 -109 109 -111 111 -113 114 -115 -116 -117 118 -119 -120 -121 -122 -123 -124 -125 -126 -127
leaf_value=-0.0061536584214920368 0.025174615123779283 0.052404765345451923 0.022701003800445454 -0.025265827814355487 0.036281214124876039 0.041621996651340337 0.013265105144491769 0.0039310558223146315 -0.058038615386488489 0.0054897259337030385 -0.033112113671676643 -0.0018655043784397765 0.01190262153590657 0.0032679860146212808 0.031609479038804671 -0.035565665129289957 -0.0097829236735286988 -0.056081159791079395 0.02973087713992003 -0.037791825870555101 0.016436084225350676 -0.030710833636343124 -0.012652905608981271 -0.049818109069448072 -0.025257080848053871 0.029362477659034235 -0.0026033343414438455 -0.02165936501635023 0.002811387629567372 -0.047104043652089977 0.032585765538113404 0.025678265288640797 -0.051937492356224052 0.010520276395168964 -0.022797057475032211 -0.017264406215210245 0.016768634383020471 -0.043267884853675977 -0.036165154118797206 -0.049341293894638032 -0.054419540656100461 -0.0062924796892831723 0.0069029462322602372 -0.015924199480942126 0.010297178653985163 0.0090587444287534864 -0.038159256055062166 0.023178514968924334 0.043806420531788161 -0.038751784211162939 -0.011971428046871875 -0.0086215098798830027 -0.039558234503431697 0.0018484780904755617 -0.058176270277168818 -0.010828497074911101 -0.048935380686146918 -0.0048160294003136029 -0.0035503961283496 -0.039267704372668147 0.035587314941319163 -0.011955142562172267 -0.014030025671188157 -0.0072079679348929044 -0.052061039230779108 -0.032297992208406061 -0.026798946209384937 0.0086941465846883271 -0.026467617661229126 -0.032604827258732177 -0.013779639458244893 0.0043025601746882044 -0.050323561484380011 -0.059308078747252899 0.019019355464746111 -0.041656535292539688 -0.021233177063214755 -0.064352753785973563 0.0038146849365707637 0.023458061137051699 -0.023086378043330521 -0.043355225602435418 0.031942715266629743 0.011271307528234589 -0.042916795254454375 -0.001958218329639101 0.0083988246633180351 0.01409648304091431 -0.01747774310592929 -0.032849960425424193 -0.010113900117717831 -0.056306172808881616 -0.011790178954573585 0.031652513807660279 -0.028437671208148298 -0.021126192418263849 -0.048940657625029929 -0.035260090513717826 0.027272963484342948 0.025693623808956061 0.012301649823930604 -0.013098593564275257 -0.014685973610037718 -0.056327150041835382 -0.033645824481058517 -0.053334930400028041 0.022813044236614968 -0.064495305674523523 -0.036919379625237489 0.020493118823754392 0.012913813718230882 0.026119167948595902 -0.0041153373004463164 -0.043305888884250486 -0.045507291797999942 0.027823825813185637 -0.0015956067228127277 0.01387460861763482 -0.053912057713802815 0.017137526947278256 0.031279232322030448 0.060023743829670219 0.027437170697812211 0.0093028906381952062 0.031619263132355371 -0.024832276264325777
leaf_weight=14.967255547642706 236.66269804537296 541.89088156819344 18.532256275415421 27.095158874988556 413.5720272809267 10.968378841876985 9.3429762274026888 170.10838061571121 31.310973569750786 52.332357317209244 131.73668804764748 118.47445924580097 40.428195118904114 11.834117248654364 16.041115254163742 17.116988509893417 11.987813428044317 9.7136103957891482 16.362113893032078 50.304318383336067 10.794273242354391 10.850711911916735 48.509599760174751 18.150029376149178 9.4062180370092374 8.4636315405368787 7.0823794752359381 34.819535627961159 14.087910860776899 67.715092971920967 10.480077743530272 22.886147320270538 20.397019848227501 12.643416985869406 22.273376151919365 9.3293699473142642 18.04395517706871 78.572608023881912 17.437987148761749 59.837020039558411 13.649245291948317 13.760109081864359 22.544739261269569 10.536516413092615 10.710622012615206 14.897210597991942 31.017187491059303 67.681839764118195 12.824325725436209 13.900198981165884 15.204602956771849 15.60925282537937 105.26311703026295 26.403526067733765 18.303725555539131 8.2058747112750989 17.347532778978348 15.853403374552729 15.532404735684393 6.4267759174108496 15.39911797642708 13.836957171559332 17.214246019721031 16.495400652289394 11.723253458738325 7.1524244248867026 48.238236650824547 8.9383263587951642 7.8780729323625565 41.072205945849419 14.31845512986183 12.720265075564386 10.599758222699164 86.947798743844032 17.562457218766212 26.593251496553421 15.037300497293471 11.395451679825781 77.124087050557137 14.987664967775347 8.9247200787067396 22.413466051220894 29.179636478424072 139.07758684456348 27.877246052026749 30.26231287419796 9.9849735051393509 5.4773862808942786 157.00109905004501 13.662851572036741 18.665543034672741 298.78246387839317 6.998728245496749 9.0287807285785657 21.624575734138489 32.809892565011978 84.978974521160126 10.125063404440878 12.733871355652807 7.1728338450193387 32.536515906453133 15.525601595640181 8.8478719890117628 148.78765870630741 13.983850210905075 7.9481178820133191 5.7215368300676346 11.716450318694113 20.250126808881763 6.7681839764118186 6.5240334272384626 31.831276819109917 12.071464657783507 7.5502711534500122 14.779543668031694 11.847723528742788 11.589966699481012 42.284142002463341 8.2691165208816511 7.9753304421901694 15.315466746687887 418.19401682913303 37.071315690875053 13.850563451647757 13.703670412302015 56.604610681533813
leaf_count=63 756 1261 60 131 1175 28 33 659 185 200 667 481 146 46 47 89 52 58 49 263 37 55 214 103 46 25 29 164 55 374 30 72 117 46 106 43 62 424 91 335 80 58 85 48 39 55 163 220 32 74 67 67 555 104 109 36 98 66 64 35 43 61 77 70 68 37 235 33 39 208 64 49 61 514 59 143 71 71 299 48 43 122 86 506 151 123 37 19 716 70 81 1733 31 26 107 154 474 53 39 22 117 69 40 864 72 47 18 73 106 22 23 100 50 42 82 36 47 150 49 27 45 871 115 51 40 272
internal_value=0.000261116 0.0319518 -0.0252526 -0.0295229 0.0155014 -0.0359402 -0.0400799 0.00662981 -0.0139661 0.0166975 -0.0203303 -0.00380297 -0.0115496 -0.0191292 -0.00579279 0.000138984 0.0336123 -0.0130072 -0.00113563 -0.0151906 -0.028101 0.00189636 -0.00391204 -0.0194737 -0.0119969 0.00470183 -0.0463893 -0.0268426 -0.0233152 -0.0331896 -0.00755488 0.0551083 -0.0160165 -0.0264574 -0.00835616 -0.0239737 -0.015867 -0.032721 -0.0190638 -0.0394913 -0.0215794 -0.00927132 -0.0151739 -0.0232564 -0.0369952 -0.0376387 -0.0229725 0.0122154 0.00362482 -0.00819022 0.00989349 -0.0471803 -0.0475306 -0.0407457 -0.0234616 0.019751 -0.00676925 -0.0114585 -0.0282332 0.00356352 0.0348065 0.013435 -0.038844 -0.0134217 -0.0269859 0.00473022 -0.0175087 -0.0118782 -0.0283044 -0.0251978 -0.0439914 -0.0459256 -0.0215752 -0.0487529 -0.0162218 -0.0233353 0.000372715 -0.0349181 -0.00231625 0.0199145 0.00585708 -0.0290081 0.00186212 -0.000645559 -0.00897009 0.0149367 0.00711368 -0.0334165 -0.0112771 -0.00490135 -0.0019761 -0.050472 -0.055329 0.00650252 -0.0455606 -0.0376891 -0.0414361 -0.0124422 0.00387071 -0.00155703 0.00348659 -0.0311478 -0.0511768 -0.0529746 -0.0164959 -0.0478287 -0.0220802 -0.0452912 -0.0049832 -0.0223192 -0.000277049 0.0124593 -0.0105081 -0.0181178 -0.0277145 0.00503209 -0.00483932 0.000568161 -0.0249199 -0.0154152 0.0133411 0.0557824 0.0147931 -0.00878525 0.0130707 -0.032586
internal_weight=5311.8 2369 2942.8 2453.89 1386.03 1736.33 1371.14 931.236 717.555 405.006 365.193 488.908 655.36 281.891 373.469 391.434 454.796 233.456 526.23 92.6653 61.0986 433.565 277.811 97.4735 79.3235 168.343 926.859 444.283 349.626 127.717 357.428 982.971 214.282 89.645 124.637 234.31 123.068 111.242 26.781 94.6566 105.024 338.896 83.9779 61.4332 99.4083 113.629 45.9144 155.754 88.0721 51.3353 31.5667 900.078 892.996 274.557 44.7073 19.1743 78.9392 70.4756 32.8799 37.5956 442.808 29.2361 62.1949 47.784 28.2187 47.5806 221.909 147.224 74.6846 50.0105 229.849 215.531 23.32 192.211 107.703 75.1029 32.5998 59.6337 99.3975 36.7367 23.9124 37.3807 374.317 314.876 151.829 59.4419 163.046 33.3546 311.432 154.431 140.768 618.439 305.781 19.5653 312.658 133.398 117.789 20.8357 37.4351 15.0509 41.9427 25.2392 179.26 170.412 23.9688 44.9806 13.6697 21.0458 130.288 27.0183 103.27 45.9056 57.3643 14.0743 26.851 30.5133 97.2137 77.3546 19.8591 35.0705 31.1689 960.085 89.4037 24.7013 27.4638 77.0016
internal_count=21203 7063 14140 12125 4859 8935 7237 3528 3190 1404 1698 2015 2863 1300 1563 1564 1331 1031 2124 416 300 1708 1146 451 348 648 5079 2158 1659 647 1516 2204 967 435 532 1117 555 562 124 499 493 1456 377 292 516 592 218 562 342 219 116 4955 4926 1456 213 64 333 308 162 146 1279 104 327 212 138 183 1012 645 367 241 1243 1179 110 1069 487 357 130 306 405 123 91 185 1475 1266 651 209 615 170 1358 642 572 3470 1764 74 1706 695 628 92 145 61 163 127 1011 971 109 250 65 116 542 128 414 165 249 65 132 117 404 308 96 158 111 2132 315 106 98 389
is_linear=0
shrinkage=1


Tree=1
num_leaves=127
num_cat=0
split_feature=29 5 24 0 31 17 18 27 46 46 37 24 9 39 42 42 34 18 0 19 13 19 39 39 27 18 0 36 15 22 12 17 15 0 42 14 20 42 22 20 21 0 46 19 34 27 36 42 35 2 0 13 15 41 19 27 24 18 41 20 34 27 41 35 22 41 44 31 19 12 18 34 0 27 4 4 42 35 4 4 38 0 46 12 15 4 24 35 16 37 5 19 36 15 21 43 41 19 41 27 27 14 21 42 38 24 13 37 43 36 13 36 21 46 18 19 35 16 21 1 38 18 13 44 35 10
split_gain=3188.29 701.409 231.532 174.666 167.34 53.5433 47.8671 38.9233 45.9325 28.4886 26.6287 24.5148 38.2347 24.1469 24.0858 32.3631 22.5885 22.5884 22.332 21.9665 21.7028 19.9071 19.154 18.5476 18.6418 16.2254 23.2435 15.7856 15.1137 15.0959 14.3607 18.8396 24.7802 14.1294 13.1835 13.1414 16.0672 13.2367 15.2443 12.9784 15.2523 12.9524 12.6456 12.4035 15.2494 14.3022 12.326 13.8763 18.2882 12.243 12.0836 11.8365 11.3614 11.3386 15.5645 12.1395 13.1314 11.8416 11.2787 11.215 17.9823 14.0917 13.6898 11.4065 11.2136 11.1265 11.5822 10.9197 13.2784 11.5639 11.2021 10.8988 10.644 10.3307 10.1365 10.1015 9.9787 11.4382 10.1448 21.2425 9.96007 11.1153 9.89106 11.126 11.9759 9.88452 9.82158 10.6241 9.72297 13.4077 9.66601 10.0419 9.57766 9.48659 9.42891 9.23255 9.04691 9.11569 17.2788 10.4344 9.71292 9.03813 9.01961 11.5933 8.99384 8.94563 13.0673 8.85285 8.77751 8.68883 8.60663 8.6066 8.53535 10.3693 8.46057 10.2773 8.42541 8.36107 14.0208 9.921 8.33267 9.09299 9.613 8.3176 8.30891 8.23603
threshold=1.0000000180025095e-35 1.5000000000000002 12684.000000000002 95000.000000000015 4.5000000000000009 2999.5000000000005 4991.0000000000009 0.040025642141699798 9.030795097351076 11.744818687438967 33634.000000000007 1.0000000180025095e-35 -1.4999999999999998 2100.5000000000005 -399.49999999999994 100.50000000000001 -137.49999999999997 8808.5000000000018 255000.00000000003 390.50000000000006 2163.5000000000005 4271.0000000000009 -2199.4999999999995 518.50000000000011 0.105234332382679 5784.5000000000009 175000.00000000003 3759.5000000000005 228018.00000000003 7214.5000000000009 2277.5000000000005 1465.5000000000002 630.50000000000011 65000.000000000007 -1.0000000180025095e-35 2317.0000000000005 765.50000000000011 -1213.4999999999998 4980.5000000000009 173.50000000000003 4732.5000000000009 185000.00000000003 10.99538564682007 600.50000000000011 -1945.9999999999998 1.4548565745353701 -379.49999999999994 1499.5000000000002 1447.5000000000002 1.5000000000000002 305000.00000000006 1.0000000180025095e-35 390.50000000000006 199.50000000000003 1650.5000000000002 0.047931924462318427 240486.50000000003 2159.5000000000005 11650.500000000002 198.50000000000003 2730.0000000000005 0.070343252271413817 1348.5000000000002 2073.5000000000005 202.50000000000003 115.50000000000001 -1731.4999999999998 2.5000000000000004 5.5000000000000009 9229.0000000000018 1997.5000000000002 3888.0000000000005 45000.000000000007 0.18420568853616717 49.500000000000007 57.500000000000007 -110.49999999999999 -1015.4999999999999 26.500000000000004 40.500000000000007 -299.49999999999994 115000.00000000001 11.448584079742433 21191.500000000004 48038.000000000007 36.500000000000007 939610.00000000012 1916.5000000000002 27514.000000000004 836.50000000000011 1.0000000180025095e-35 1556.5000000000002 -1.0000000180025095e-35 140645.00000000003 1430.5000000000002 9374.5000000000018 4166.5000000000009 5024.5000000000009 -299.49999999999994 0.84933286905288707 0.55569392442703258 3053.5000000000005 2700.5000000000005 10.500000000000002 1011.0000000000001 251384.50000000003 10086.500000000002 2351.5000000000005 -1411.4999999999998 5022.0000000000009 4950.5000000000009 14915.500000000002 17.500000000000004 7.9303860664367685 9850.0000000000018 9903.0000000000018 380.50000000000006 188754.00000000003 3357.0000000000005 1.5000000000000002 13961.500000000002 7682.0000000000009 180157.50000000003 1.0000000180025095e-35 646.50000000000011 1.0000000180025095e-35
decision_type=2 2 2 2 2 2 2 2 2 2 2 2 2 2 2 2 2 2 2 2 2 2 2 2 2 2 2 2 2 2 2 2 2 2 2 2 2 2 2 2 2 2 2 2 2 2 2 2 2 2 2 2 2 2 2 2 2 2 2 2 2 2 2 2 2 2 2 2 2 2 2 2 2 2 2 2 2 2 2 2 2 2 2 2 2 2 2 2 2 2 2 2 2 2 2 2 2 2 2 2 2 2 2 2 2 2 2 2 2 2 2 2 2 2 2 2 2 2 2 2 2 2 2 2 2 2
left_child=2 4 11 6 5 14 16 10 27 35 13 18 41 29 67 22 33 71 -1 51 -7 58 85 65 124 26 -11 39 114 111 31 32 -21 42 -30 36 -10 38 -38 40 108 52 53 -41 -45 96 47 73 -49 -48 102 -14 64 54 -4 56 -55 109 82 61 88 -51 -62 -63 74 66 -17 68 94 -70 -71 -6 -24 -18 -13 -74 -57 78 -78 -80 -34 -82 83 90 -85 -16 87 107 89 -61 91 -22 -28 -19 -2 -29 97 98 100 -100 -46 -101 103 -15 -37 106 110 -23 -9 -56 -35 -5 113 -110 115 120 -68 118 119 -12 121 -27 -123 -84 -25 -3
right_child=1 125 3 7 17 20 -8 8 9 25 117 12 19 50 15 23 46 93 -20 30 21 86 72 24 -26 28 92 95 34 -31 -32 -33 80 105 -36 104 37 -39 -40 43 -42 -43 -44 44 45 -47 49 48 -50 59 -52 -53 -54 55 57 76 -58 -59 -60 60 62 63 -64 -65 -66 -67 116 -69 69 70 -72 -73 75 -75 -76 -77 77 -79 79 -81 81 -83 123 84 -86 -87 -88 -89 -90 -91 -92 -93 -94 -95 -96 -97 -98 -99 99 101 -102 -103 -104 -105 -106 -107 -108 -109 112 -111 -112 -113 -114 -115 -116 -117 -118 -119 -120 -121 -122 122 -124 -125 -126 -127
leaf_value=-0.0044934423247877135 0.012563210594440917 0.049693421735599055 0.013310307845309498 -0.042077111492152451 0.034088702064289503 -0.042720976633112515 -0.040654746296439448 0.026946031298712987 -0.051912014532581957 0.01087886779727291 0.025864874219872873 -0.017748774489928214 -0.014494266043641341 0.00049475858171947444 -0.034651467619991487 -0.022566412002464894 -0.046841126220652236 -0.035012142351192911 0.03204913829888429 0.0046405936821690506 0.027894916480470242 -0.00058713968185845379 0.038025901661365193 -0.057792627850915337 0.0049493105246668665 -0.055033322018679269 -0.010777481579956597 -0.050200249864064406 0.013891972829791996 -0.02052809071329342 -0.041329317696521012 0.02326518995635302 0.0030147478021665883 -0.029119914681700273 -0.033653398831312256 -0.04662681798591338 -0.052586910844823774 0.017457257919449829 0.0039280846930370471 -0.0077972257778722203 -0.043075115259929117 -0.027095361485452791 0.03421846729187257 -0.046700640060680275 0.015995360187390496 0.0035111811088134894 -0.033629122960999305 0.013466215369855726 -0.041015980127060266 0.017091344444672196 -0.035058078429597017 0.017141508912421468 -0.037291852000281664 0.014293193570307327 -0.023331468833072997 -0.0023046714884099062 -0.034106101819604252 0.013227027464441581 -0.033258561183761262 -0.0032140375957259537 -0.037118999708138492 0.0035473531046818552 0.0020045146036582846 -0.059085261935078973 0.017398103986294683 0.021691036676393719 0.00083108191584996933 0.014030409953382651 -0.038523051555738076 0.013301529065736659 -0.029066391735015341 0.002600288277827734 0.018890707760569114 -0.0052197769800980303 0.022112104983025561 0.054358568113189933 -0.035234779925356029 -0.032112323856651699 0.025568185480647664 -0.03796055711915633 -0.010392054348156956 -0.052765087132886544 0.0016172556093886276 -0.020001831922398568 0.0079039376916295936 0.015111020245384476 0.0029625833624435656 -0.047306310161043183 0.0041082058539635572 -0.036067818004857533 -0.020261356594410768 -0.011419946599422959 -0.057617211905413461 0.016559358741318097 -0.013421902954138806 -0.01226131342326614 0.0074756087989176429 -0.045503367624715463 -0.054655917751308743 -0.038536347719614103 -0.026578255162109526 0.010849032475865513 0.0080007264454776544 -0.051958701533179004 -0.057413420877262374 -0.010426540165937869 -0.046652438478091404 -0.03804072794971862 0.029227616286072903 0.0081071583599032406 0.015061041228420379 -0.021987997983117041 -0.036020546761930138 -0.021109653427545037 -0.057474009461097514 0.0059020920092923007 0.023124625281167221 0.017429584373454494 -0.035787386644700464 -0.016960665085790579 -0.010928169692304111 -0.00016721342496589278 -0.04753428699391659 0.040789546574797074 -0.01319746797901976 0.057040350815042239
leaf_weight=39.99559397995472 47.674104556441307 556.17934466898441 66.350986212491989 203.01358789205551 421.80285848677158 19.437260031700134 91.706460937857628 11.278339013457293 27.045790791511536 22.622694715857506 12.166702717542648 49.055565044283867 16.00527922809124 12.471991240978243 9.8027129322290438 17.204796105623245 52.670609354972839 7.6322315782308561 40.53934970498085 57.314414039254189 33.521145537495613 20.600417628884315 55.707034930586815 11.317608222365381 26.323066964745522 39.002708703279495 9.7297087311744708 54.581548318266869 11.272462919354441 72.185772478580475 12.849907889962195 24.410756126046181 8.6919976174831373 10.686459824442865 16.630044862627983 307.61339220404625 13.161293014883997 9.9037748128175718 9.735933840274809 30.89193357527256 10.83979821205139 101.27933855354786 8.7058762162923795 59.732224658131599 15.542177349328997 18.429944887757301 43.144579946994781 16.024684309959415 12.689926430582998 27.949502378702164 19.601116046309471 104.87382280826569 13.575427398085592 32.776877418160439 49.763282045722008 40.076276987791061 7.6329965591430655 20.774170279502869 9.6424812227487546 37.092110157012939 60.7276860922575 7.4860377162694913 13.199759364128111 5.6165044009685516 21.586111485958099 59.774844720959663 65.75609689950943 43.888250350952148 21.53028404712677 16.91233287751675 12.37709705531597 14.086045548319815 212.8919897377491 8.768031492829321 8.3792092502117139 9.6830219477415067 10.284325525164602 62.125329896807671 18.048975095152858 8.7563039958477003 12.146269395947455 22.15679857134819 12.153034254908563 44.706855788826942 31.317433267831802 8.1347358971834165 16.180306434631348 20.314323768019676 47.163954719901085 25.062682762742043 8.4421991258859617 9.7318844944238645 12.595557585358618 7.9736080467700958 25.417101517319679 10.049895465373991 7.1630195528268805 39.582381471991539 20.306174010038376 8.9161470234394091 9.8848082274198514 7.7295801639556876 32.524488136172295 7.7840078622102729 187.02084286510944 57.991330429911613 26.898779973387718 11.405928626656531 9.3475436121225446 13.121760144829748 9.1796562075614911 34.081659346818924 8.2730419635772687 8.7601303905248624 40.523735910654068 6.2772211283445349 29.40596741437912 14.337161704897879 17.434668064117432 12.382637232542038 11.097509726881979 10.378572911024095 9.6331822872161847 13.869300544261931 10.053335547447203 416.59212817251682
leaf_count=166 171 1312 237 1094 1212 106 491 35 156 83 38 225 72 50 51 82 293 40 119 221 103 83 153 68 101 228 43 310 40 339 70 79 34 54 86 1706 77 34 38 132 60 495 24 332 54 72 221 57 69 96 102 361 72 116 237 164 40 74 50 153 318 29 52 35 74 196 261 155 114 60 62 55 719 37 27 20 54 314 57 47 53 128 48 208 117 28 63 114 183 131 40 43 76 27 113 45 27 219 119 48 49 28 122 46 1103 253 150 61 28 49 32 162 44 42 240 24 95 49 91 57 49 42 55 36 45 881
internal_value=-0.00016957 0.030125 -0.0244932 -0.0291147 0.0141248 0.0056636 -0.0168056 -0.0363571 -0.0399641 -0.0448203 -0.0274284 -0.00361021 -0.00678197 -0.0307367 0.0107368 0.014476 -0.0140271 0.031599 0.0140687 0.00203694 -0.00812839 -0.00505776 0.0220084 0.00427262 -0.0148378 -0.0327601 -0.0139721 -0.0289532 -0.0384557 -0.0349942 -0.00750433 -0.00371833 -0.0104497 -0.00871563 -0.0146293 -0.0488814 -0.032345 -0.0151527 -0.0293978 -0.0250141 -0.00841973 -0.0184883 -0.00520787 -0.0286476 -0.032027 -0.0248457 -0.0205669 -0.0317841 -0.0111813 -0.0166813 -0.0123158 0.0128681 -0.00888518 -0.00634922 0.000758726 -0.0122541 0.00454823 -0.0092357 0.00160684 -0.0132866 -0.016974 0.00318536 -0.0302 -0.0255865 -0.0036 0.00962252 0.00306782 -0.000780584 -0.00609685 -0.0196546 -0.00497079 0.0330794 0.024268 -0.04108 -0.0116545 0.02067 -0.0171263 -0.0230306 -0.00737492 0.00419679 -0.030214 -0.0384807 0.00399435 -7.52855e-05 -0.00855296 -0.0124776 -0.0207482 -0.0279988 -0.00783716 -0.016823 0.0123179 0.0189909 -0.0385409 -0.00925191 0.00346782 -0.0445776 -0.0296233 -0.0322769 -0.0232985 -0.0382572 -0.000934693 -0.0162886 -0.0033752 -0.0211583 -0.0508128 -0.0198912 -0.0311639 -0.0146824 0.00241169 -0.0167472 -0.00896154 -0.0392938 -0.00867833 0.00504515 -0.0439698 -0.0361559 0.00788883 -0.00486437 -0.0127059 0.00444539 -0.0399515 -0.0451362 -0.0241457 0.023232 -0.0383418 0.0528951
internal_weight=5298.32 2359.44 2938.87 2406.01 1386.67 935.177 892.476 1513.54 1075.55 744.244 437.984 532.86 452.325 381.663 683.854 516.055 800.769 451.495 80.5349 258.449 251.323 231.885 296.219 219.836 47.694 189.763 44.948 331.309 144.815 309.281 137.57 124.72 100.309 443.173 27.9025 554.481 59.8468 32.801 22.8972 266.677 48.4989 193.876 338.417 218.178 187.286 127.554 357.596 90.1533 28.7146 267.443 72.3816 120.879 92.5963 329.711 150.01 179.701 40.4099 83.6592 163.384 224.298 183.246 41.052 73.9274 13.1025 79.0209 172.142 112.367 167.799 123.911 50.8197 29.2894 435.889 278.282 61.4386 57.4348 222.575 139.291 99.2149 37.0896 26.8053 42.9951 34.3031 153.742 127.72 76.0243 17.9374 68.501 52.3207 109.319 62.1548 51.6952 43.253 22.3253 15.6058 73.0912 64.6314 109.124 101.961 62.3789 36.9519 25.427 16.6457 52.7805 20.256 494.634 104.756 46.7649 32.0063 37.6591 62.885 19.8661 237.095 26.3807 18.1077 116.913 76.3892 95.1621 56.3212 41.984 24.5493 70.112 59.0145 20.0118 26.0223 21.3709 972.771
internal_count=21230 7093 14137 11941 4900 3566 4067 7874 5724 4080 2150 2196 1911 1915 2494 1819 3576 1334 285 1018 1072 966 971 848 214 966 202 1644 764 1595 585 515 436 1902 126 3114 305 149 115 1289 209 893 1413 1080 948 616 1674 456 126 1218 320 433 398 1389 597 792 156 360 645 997 837 160 370 64 326 634 438 675 520 236 122 1267 892 330 252 739 636 472 158 104 215 181 595 511 325 79 321 258 467 284 186 146 119 67 284 355 544 517 298 195 103 76 218 96 2809 489 236 144 149 286 86 1256 114 70 638 398 356 235 186 95 374 325 97 84 113 2193
is_linear=0
shrinkage=0.035


Tree=2
num_leaves=127
num_cat=0
split_feature=30 5 24 31 0 23 24 24 17 34 27 23 5 0 26 34 23 36 18 35 13 23 5 23 12 50 28 36 42 26 25 41 18 25 19 28 16 42 44 18 27 27 23 1 39 23 44 4 39 20 41 17 27 18 36 13 40 26 12 42 39 44 26 16 44 24 12 17 22 27 40 22 5 10 14 42 35 25 19 25 0 6 36 28 21 50 0 40 14 34 41 39 0 26 0 0 23 24 22 21 42 50 4 50 25 22 36 36 41 39 4 1 20 0 17 12 42 12 13 20 39 27 39 14 21 31
split_gain=2999.44 531.696 371.396 142.998 118.014 80.2266 108.958 46.7806 45.6831 34.4 29.1983 23.52 22.7777 22.1708 21.6291 20.2124 18.7155 20.6257 16.906 16.2335 15.5108 15.3274 15.0087 14.9352 14.9206 14.7869 14.3692 14.1733 13.9611 13.8081 13.7783 13.6424 22.0662 13.9795 13.1059 14.5878 18.7001 12.6912 15.4318 12.5815 14.0833 26.6524 23.6099 17.6843 17.2344 12.4541 12.4385 13.2292 12.3545 14.617 12.7918 12.512 12.2567 12.2356 11.7521 11.6076 19.4096 11.3866 14.595 14.1068 11.3769 14.619 11.1844 15.1139 11.1576 11.1416 11.0991 11.7867 11.0105 21.9654 11.7031 11.4263 10.9063 10.825 16.0214 13.7641 10.7843 10.7559 10.5408 10.4942 10.4854 10.4457 13.1767 10.411 13.0717 10.2967 10.1918 10.043 10.0343 10.0184 10.2019 9.93641 9.83965 9.77736 17.3349 10.4973 11.4833 9.66666 10.3722 9.84135 9.66476 9.60582 9.45989 9.43332 9.42938 9.20198 10.0057 9.11558 15.1602 12.8386 9.08253 8.93034 8.91122 8.88775 13.6416 8.80428 14.6433 18.3528 10.2562 10.0167 11.9746 9.38755 8.69205 8.64388 9.97965 8.54877
threshold=1.5000000000000002 1.5000000000000002 4790.0000000000009 4.5000000000000009 75000.000000000015 0.97314307093620311 41175.500000000007 1.0000000180025095e-35 1965.5000000000002 326.50000000000006 0.042008424177765853 1.0062521100044253 -1.4999999999999998 175000.00000000003 7400.5000000000009 5160.5000000000009 0.75824999809265148 12992.000000000002 1399.5000000000002 -899.49999999999989 2282.0000000000005 0.004890833282843233 -1.4999999999999998 0.11560956761240961 3167.0000000000005 10.817475318908693 0.25877566635608679 748.50000000000011 -462.49999999999994 323.50000000000006 0.0053089286666363486 165.50000000000003 1488.5000000000002 0.040092680603265769 900.50000000000011 0.038066459819674499 188754.00000000003 -1000.4999999999999 378.50000000000006 2801.5000000000005 1.2083027362823489 0.20653767138719561 0.58271583914756786 1.5000000000000002 1959.5000000000002 0.077205117791891112 -12677.499999999998 24.500000000000004 1999.5000000000002 17876.000000000004 3079.0000000000005 5068.5000000000009 0.15091519802808764 8000.5000000000009 18654.000000000004 5135.5000000000009 -640.49999999999989 2549.5000000000005 30713.500000000004 1500.5000000000002 2100.5000000000005 -100.49999999999999 69822.500000000015 9046.0000000000018 -798.99999999999989 17866.500000000004 100287.00000000001 3539.5000000000005 390.50000000000006 3.4088410139083867 2218.5000000000005 7503.0000000000009 -1.0000000180025095e-35 -1.0000000180025095e-35 19178.000000000004 -18.499999999999996 713.50000000000011 0.88707745075225841 552.50000000000011 0.95096278190612804 195000.00000000003 1.5000000000000002 1405.5000000000002 0.037288736552000053 680.50000000000011 6.9251039028167733 165000.00000000003 1891.5000000000002 14876.500000000002 -1318.4999999999998 -199.49999999999997 6000.5000000000009 415000.00000000006 8001.0000000000009 245000.00000000003 175000.00000000003 0.0039023809367790823 2169.5000000000005 134.50000000000003 540.50000000000011 1597.0000000000002 5.9699847698211679 36.500000000000007 9.5991339683532733 0.84800750017166149 25.500000000000004 27913.500000000004 11855.000000000002 283.50000000000006 1601.5000000000002 32.500000000000007 1.5000000000000002 6057.5000000000009 45000.000000000007 1738.5000000000002 53179.500000000007 100.50000000000001 98607.500000000015 126762.50000000001 674.50000000000011 4491.5000000000009 0.080396033823490157 -1599.4999999999998 10016.500000000002 10471.000000000002 2.5000000000000004
decision_type=2 2 2 2 2 2 2 2 2 2 2 2 2 2 2 2 2 2 2 2 2 2 2 2 2 2 2 2 2 2 2 2 2 2 2 2 2 2 2 2 2 2 2 2 2 2 2 2 2 2 2 2 2 2 2 2 2 2 2 2 2 2 2 2 2 2 2 2 2 2 2 2 2 2 2 2 2 2 2 2 2 2 2 2 2 2 2 2 2 2 2 2 2 2 2 2 2 2 2 2 2 2 2 2 2 2 2 2 2 2 2 2 2 2 2 2 2 2 2 2 2 2 2 2 2 2
left_child=2 3 7 8 9 6 22 29 13 39 16 18 97 28 27 81 23 60 19 -11 -16 62 55 25 31 92 -3 -10 -2 80 85 33 -33 65 45 36 83 125 72 40 41 42 43 -4 107 123 -22 76 49 51 77 66 -45 -53 -19 56 122 -21 59 -59 61 104 63 -12 -31 93 67 -7 69 -26 71 -70 -39 -13 -75 -76 -48 103 -30 -41 -1 82 -5 84 -36 -14 101 -46 -67 115 -91 -52 -8 95 110 -24 -97 -9 -99 -100 -63 -58 -68 -50 -18 113 -107 108 -44 -110 -95 -62 -55 114 -20 119 117 121 -119 -49 -121 -117 -6 124 -23 -15
right_child=1 26 4 15 5 48 10 12 14 11 21 73 30 37 20 -17 17 54 105 57 46 34 24 -25 68 -27 -28 -29 78 64 -32 32 -34 -35 35 -37 -38 38 -40 79 -42 -43 44 52 87 -47 47 89 50 -51 91 53 -54 112 -56 -57 86 58 -60 -61 111 100 -64 -65 -66 88 102 -69 70 -71 -72 -73 -74 74 75 -77 -78 -79 -80 -81 -82 -83 -84 -85 -86 -87 -88 -89 -90 90 -92 -93 -94 94 -96 96 -98 98 99 -101 -102 -103 -104 -105 -106 106 -108 -109 109 -111 -112 -113 -114 -115 -116 116 -118 118 -120 120 -122 -123 -124 -125 -126 -127
leaf_value=0.012648809934755643 0.0047530473398267664 0.052773620202620282 -0.0090920875443103663 0.027367463691703602 -0.028052158453252981 -0.012006581819782753 -0.018321445510005269 -0.031472854455411536 0.028368690238945143 0.023939074215836232 0.026530276639535499 0.024908359130622473 0.00042625092444242905 -0.0028152231331449173 -0.04883583419678858 -0.010419260203733056 -0.032737792021247651 0.027490418181878213 -0.034286598742958585 0.0066847838596761164 -0.050022975419761695 -0.043195725096064841 -0.046046790893659276 -0.040227798354132094 -0.025240975348811617 -0.05517827236784234 0.034432721020956916 -0.018554989726382323 0.037703426366732774 0.015012660044771106 0.018757150711314272 0.022687459929585801 -0.011350547562436667 0.023393095701358117 -0.0076041563549842971 -0.046153443931300081 0.027837480622819273 -0.010594196087203198 0.011299411139141523 -0.026907199002019915 -0.034636418295015306 0.015886491401390732 0.0050871722140074368 -0.051575455125753053 -0.042352945488676186 -0.039925172879030212 -0.056150192383794664 0.02972127110128029 0.02362726422322135 0.028016931472969655 -0.052546669040386733 -0.056559921058138826 0.0003006451353147325 0.016010318767744725 -0.011382329741335873 -0.051979524474782969 0.010030727667997986 -0.048347009180881848 0.0057039610145865781 -0.0022551143826206482 0.0097107212262218488 -0.05859130303820511 -0.039565871610780116 -0.034071264861814179 -0.028447166863167655 -0.04561062034267481 -0.016516609360611681 -0.059783912372273054 -0.030342130460170372 0.024957031997514405 -0.049628954585501622 0.010508875565078537 -0.052420660475129922 -0.052688547312250443 0.023435717107903448 -0.018077433242122895 -0.0068407935735423555 0.020525374678900057 0.018608101798085853 0.0094787620626394925 0.029708278394447042 0.035783435055327675 -0.0083607956486001708 -0.0016471538036908575 -0.057520399006781291 -0.037151892437977799 -0.041743296858682548 0.0048999673644596828 0.0057831335847795392 0.0013204877486718235 -0.025399041396377497 -0.0029109045993121786 0.020422320123561443 -0.014409814240112104 -0.03725896429323669 -0.044961324438323853 0.0014981071768359637 -0.026658790534461546 0.022123636111972295 -0.023556526105167307 -0.012139428234228953 -0.035058950196724448 0.028310264367977022 -0.013078132966259906 0.0076160979415466025 -0.043691346058662837 -0.0002260812858366851 0.013091022639083474 -0.021272987593662848 0.020847628093272855 0.019257482620937523 -0.032429755436818204 -0.031755887148943 -0.041856339583852813 0.023942118320442667 -0.0041954700242999195 -0.034224663086933248 0.04167092555187861 -0.00017657114539337802 0.010453940505716106 -0.02736430848541109 -0.059196303961079534 0.0086024695834548016 0.01454590436651915 0.0078234349039490864 0.038005994460810724
leaf_weight=80.986773326992989 64.153490468859673 918.07980751991272 40.935435026884079 104.32744996249676 10.519686549901961 31.027257606387138 33.347530320286751 36.715992376208305 33.188896536827087 9.9836152195930463 10.54788012802601 11.437557995319365 168.03786726295948 11.906974777579309 10.430482000112532 13.514845997095106 16.618125289678577 12.002967879176138 7.9448595046997132 13.282897755503653 6.9796708673238745 11.312481194734579 19.026197269558907 216.56756222248077 43.121166929602623 10.027671977877615 63.467081040143967 9.4869627803564054 49.000118926167488 15.541536927223207 52.111134946346283 30.448999553918839 89.472063168883324 8.3717209547758085 9.3952119648456591 682.57466593384743 6.2794169634580603 21.23327425122261 21.093961954116821 65.062973514199257 19.278976649045944 63.532909065485001 98.260303497314453 30.658087059855461 19.113494470715526 44.979284957051277 9.8696164786815661 21.915438160300255 9.9876443743705732 7.0098962783813468 8.2619901001453417 18.765911087393761 6.7588461935520163 6.3586677610874203 34.649818494915962 23.728712722659111 10.866278618574144 34.337587162852287 11.661751434206961 10.697744101285933 13.844280540943146 31.989924550056458 15.483501672744749 7.947388380765914 11.892586767673491 30.008560597896576 9.4819892793893832 7.2150826305150977 40.542861059308052 13.207145586609839 33.282481282949448 9.9696430414915067 11.558243378996847 8.4212549626827222 15.137153521180148 23.862748622894291 11.501426011323927 32.449197217822075 140.52807725965977 10.866134583950041 102.9537767469883 313.34520737826824 13.909394159913061 9.6415221542119962 21.956513553857803 8.4326134622096998 58.193268090486526 7.3240567445754996 5.2286272794008246 31.37349034845829 38.33155183494091 10.857149437069891 9.5784181058406812 14.632432118058203 13.729805961251257 8.3484173864126223 21.317152231931686 17.59454345703125 17.073635742068294 7.5518688708543769 7.3109230548143378 10.596813380718229 11.998706981539724 38.507084131240845 11.343429192900656 106.06396517157555 6.9173977524042121 48.550554692745209 65.025730147957802 9.4237127751111966 25.686296239495277 9.6372927874326706 13.655721098184584 10.51144829392433 9.9843085706233961 9.6556413471698743 16.787969335913658 12.977005809545519 14.723386913537977 47.014404490590096 12.048865392804144 5.4551779478788367 24.459482669830322 10.376277029514311 7.1603567004203788 12.011526957154272
leaf_count=288 246 2026 177 318 53 138 155 186 101 32 33 36 669 49 60 59 86 37 42 50 41 63 106 1165 211 60 177 44 134 54 176 99 394 27 41 3811 19 92 76 320 100 222 378 176 104 243 59 66 32 21 49 112 27 22 153 138 40 194 45 44 51 192 84 42 59 167 44 45 205 42 190 37 67 50 49 111 49 109 475 40 309 873 59 40 132 45 315 28 20 125 186 45 32 66 73 47 85 87 56 37 33 56 37 172 43 581 28 174 307 31 87 50 70 58 32 40 87 33 59 172 60 34 92 37 27 32
internal_value=-0.000163372 0.0330378 -0.0209239 0.015929 -0.02603 -0.0305132 -0.0328921 0.00623281 0.00509146 -0.0143151 -0.0386107 -0.0240615 -0.00248449 0.0139627 -0.00500162 0.0310583 -0.0307408 -0.019984 -0.0292703 -0.0161086 -0.00895564 -0.0423925 -0.0197805 -0.0361303 -0.0163169 -0.0189375 0.0516239 0.0177514 0.0189587 0.0188671 0.00312667 -0.0113805 -0.00259185 -0.0185156 -0.043374 -0.0448298 -0.0251571 -0.00236062 -0.0117373 -0.00864306 -0.00618166 -0.00468847 -0.00873395 -0.0253518 -0.00339654 -0.0285755 -0.00701599 -0.00551076 -0.00974773 -0.0180441 -0.000907506 -0.0215706 -0.0424409 -0.0368411 -0.00101402 -0.0297637 -0.0247554 -0.0220787 -0.0288164 -0.0376851 -0.0296194 -0.0368663 -0.0186017 7.79479e-05 -0.00416489 -0.0212084 -0.0112115 -0.0223144 -0.0255501 -0.0132412 -0.0335707 -0.0222319 -0.0264521 -0.00430784 -0.0117234 -0.00178173 -0.031105 0.00524122 0.0237169 -0.0216445 0.0223062 0.0323782 0.0231295 -0.0337445 -0.0432594 -0.00156864 -0.0342002 -0.0295609 -0.0380355 -0.00277471 -0.0135243 -0.0259058 -0.00940812 -0.0151262 -0.00472614 -0.0263429 -0.0126162 -0.018569 -0.00687889 0.00774237 -0.0504658 -0.0128008 0.00866832 -0.00519391 -0.0166693 -0.0365469 -0.0410555 -0.000151323 -0.00392782 -0.0157358 0.00698595 -0.00820275 -0.0165406 -0.0178505 -0.00230867 0.0026133 -0.00752414 0.00348838 0.0201969 0.0100751 0.0024119 -0.0264933 -0.00289439 -0.0101352 -0.0240337 0.0183871
internal_weight=5328.7 2049.87 3278.83 1068.32 2759.94 1994.91 1789.33 518.892 623.226 765.036 1244.57 280.244 307.518 331.486 291.74 445.097 406.918 137.397 221.386 79.9636 249.064 837.655 544.758 269.521 406.394 52.9536 981.547 42.6759 253.682 211.375 228.582 266.27 119.921 146.349 803.676 729.847 47.2727 77.804 53.8855 484.791 408.862 389.583 326.05 78.3524 247.698 73.8284 238.634 231.654 205.576 105.513 100.063 98.5033 37.4169 38.7803 46.6528 138.364 114.636 69.98 56.6971 45.0353 90.744 67.2624 33.9788 18.4953 27.4341 137.977 59.723 38.2423 140.123 56.3283 83.795 50.5125 32.7915 58.8587 47.4212 38.9999 21.371 80.9439 189.528 75.9291 183.941 431.582 118.237 40.9932 31.3517 176.47 79.6564 26.4376 35.2372 210.283 69.705 19.1191 42.9259 102.74 54.0485 48.6918 29.6656 78.936 42.22 24.6255 39.3008 21.4631 21.4807 48.4947 27.9616 141.422 112.981 221.26 172.71 74.4494 40.3187 23.4816 20.0144 28.4406 17.9292 140.578 59.5992 42.8112 27.7004 80.9787 59.0633 15.1108 34.9792 28.8491 18.4728 23.9185
internal_count=21376 5899 15477 3696 13511 10075 9179 1966 2387 3436 6629 1352 1256 1171 1216 1309 2057 645 1106 365 1071 4572 2550 1412 1856 247 2203 145 855 710 890 1171 493 678 4413 4043 232 316 235 2084 1724 1624 1402 380 1022 370 1011 970 896 489 407 468 203 204 190 694 556 333 283 238 455 354 159 75 113 651 264 183 685 253 432 242 159 246 210 160 108 313 609 360 597 1250 377 213 173 714 411 132 187 862 311 94 187 464 226 238 132 366 180 93 225 96 81 204 129 741 609 890 716 338 153 101 92 132 74 551 253 166 92 298 232 74 145 127 90 81
is_linear=0
shrinkage=0.035


Tree=3
num_leaves=127
num_cat=0
split_feature=29 5 26 31 0 26 33 31 28 46 28 38 27 24 52 12 18 39 42 0 22 13 2 49 36 4 22 34 42 42 4 41 42 55 28 26 38 43 16 46 24 38 41 41 36 42 10 34 40 36 33 35 22 39 42 42 0 19 4 35 33 43 34 35 35 28 27 44 40 19 13 8 43 44 34 22 41 44 4 38 27 42 35 35 39 34 39 28 28 34 52 1 15 16 43 56 0 0 24 28 0 2 42 42 4 24 33 46 13 0 27 56 26 39 28 39 40 18 0 37 4 4 15 4 30 19
split_gain=2791.67 631.248 233.823 170.442 81.1953 77.5335 56.5135 41.7662 41.7244 53.213 25.9468 23.6066 21.9283 26.7293 21.8074 20.274 18.3029 18.118 19.3463 17.8348 16.3379 16.2043 23.654 19.8303 17.6429 16.3617 15.1031 14.998 14.9242 14.4867 14.3261 18.1652 17.3326 17.7662 16.1756 14.658 14.1885 13.7026 14.0272 13.4972 13.4426 16.0611 13.673 14.9528 13.7692 13.3613 13.2878 13.2766 13.1607 13.0313 12.6614 12.1543 12.0715 11.928 20.9049 11.9279 13.2557 11.847 14.5117 11.6452 11.6289 11.5541 18.0427 11.5319 11.3236 11.1717 11.1356 11.111 11.105 13.2055 12.8631 10.9283 14.8381 10.5527 10.3269 10.2984 10.2969 11.8926 13.0782 9.97291 9.93277 9.90768 9.86945 11.7508 9.83686 9.80311 13.7882 12.9713 12.3368 9.99563 13.9226 10.411 9.79217 11.9959 9.77749 9.65331 22.0365 9.52348 9.3467 9.24021 13.1918 9.17988 9.51348 9.01776 9.0139 8.99466 10.0323 13.4795 8.95487 9.5438 10.5252 9.4926 9.08687 8.92853 9.28986 8.86589 13.16 8.86027 9.34015 10.609 8.82213 8.67595 8.62373 8.60718 17.7675 14.948
threshold=1.0000000180025095e-35 1.5000000000000002 7200.5000000000009 4.5000000000000009 75000.000000000015 5547.5000000000009 810.50000000000011 2.5000000000000004 0.035662371665239341 7.7846806049346933 0.68086433410644542 434.50000000000006 0.049279281869530685 24662.000000000004 7.8003680706024179 131028.50000000001 5967.5000000000009 2073.5000000000005 -87.499999999999986 25000.000000000004 7673.0000000000009 26035.000000000004 1.5000000000000002 9.6269760131835955 -707.49999999999989 37.500000000000007 10880.500000000002 26.500000000000004 800.50000000000011 1499.5000000000002 33.500000000000007 -147.49999999999997 265.50000000000006 6.6864848136901864 0.23000518232584002 51604.500000000007 -2751.4999999999995 200.50000000000003 325.50000000000006 5.8449916839599618 128438.00000000001 15443.000000000002 -199.49999999999997 2399.5000000000005 14915.500000000002 -389.49999999999994 -1.4999999999999998 1887.5000000000002 9669.0000000000018 -786.49999999999989 94304.000000000015 -957.49999999999989 879.50000000000011 27.500000000000004 -218.49999999999997 -13749.499999999998 225000.00000000003 900.50000000000011 30.500000000000004 -1009.4999999999999 594.50000000000011 -19.499999999999996 -234.99999999999997 6037.5000000000009 1065.0000000000002 0.038066459819674499 0.033223142847418792 -355.49999999999994 500.50000000000006 423.00000000000006 482.50000000000006 -1.0000000180025095e-35 -2000.4999999999998 -202.49999999999997 -1096.4999999999998 5227.0000000000009 182.50000000000003 3280.5000000000005 29.500000000000004 -781.49999999999989 0.23683773726224902 7416.0000000000009 2673.5000000000005 857.00000000000011 -649.49999999999989 4784.5000000000009 -1000.4999999999999 0.039560610428452499 0.031489597633481033 2531.5000000000005 7.6046454906463632 1.5000000000000002 8513.0000000000018 2338.5000000000005 -3212.4999999999995 8.7253451347351092 195000.00000000003 415000.00000000006 48440.000000000007 0.90789189934730541 185000.00000000003 1.5000000000000002 400.50000000000006 -129.49999999999997 30.500000000000004 12021.000000000002 7659.0000000000009 8.1478667259216326 234371.50000000003 145000.00000000003 0.048476131632924087 9.1597838401794451 95406.000000000015 2500.5000000000005 0.034145567566156394 599.50000000000011 2455.5000000000005 2441.5000000000005 35000.000000000007 -129.49999999999997 48.500000000000007 33.500000000000007 332.50000000000006 33.500000000000007 -1.0000000180025095e-35 458.50000000000006
decision_type=2 2 2 2 2 2 2 2 2 2 2 2 2 2 2 2 2 2 2 2 2 2 2 2 2 2 2 2 2 2 2 2 2 2 2 2 2 2 2 2 2 2 2 2 2 2 2 2 2 2 2 2 2 2 2 2 2 2 2 2 2 2 2 2 2 2 2 2 2 2 2 2 2 2 2 2 2 2 2 2 2 2 2 2 2 2 2 2 2 2 2 2 2 2 2 2 2 2 2 2 2 2 2 2 2 2 2 2 2 2 2 2 2 2 2 2 2 2 2 2 2 2 2 2 2 2
left_child=2 3 6 5 21 28 27 26 15 40 -3 14 17 46 19 45 60 55 50 -8 59 23 104 25 74 81 30 52 37 -30 31 34 35 71 115 75 -20 79 -39 -29 41 42 49 68 -45 -6 63 51 -37 -10 121 -13 123 103 -55 56 -11 58 -15 101 -5 -56 -63 -14 -60 -59 -17 -40 70 -70 -44 -34 -73 -53 -24 -32 -33 78 98 -2 -81 -4 83 -36 -41 86 -21 88 -88 90 91 -89 93 -27 -48 96 -61 -68 -78 -72 -101 102 -9 -26 -23 -96 107 -107 109 112 122 -110 -57 114 -47 -7 -117 118 119 -25 -86 -19 -111 124 -1 -125
right_child=1 10 4 16 8 7 11 20 9 12 -12 47 13 57 -16 66 -18 18 36 85 -22 22 24 117 53 92 -28 39 29 -31 32 76 33 -35 82 48 -38 38 67 84 -42 -43 43 44 -46 113 94 -49 -50 -51 -52 73 -54 54 61 108 -58 65 64 95 -62 62 -64 -65 -66 -67 97 -69 69 -71 99 72 -74 -75 -76 -77 77 -79 -80 80 -82 -83 -84 -85 120 -87 87 89 -90 -91 -92 -93 -94 -95 105 -97 -98 -99 -100 100 -102 -103 -104 -105 -106 106 -108 -109 111 110 -112 -113 -114 -115 -116 116 -118 -119 -120 -121 -122 -123 -124 125 -126 -127
leaf_value=-0.0088732134602466407 -0.004993548067079836 0.050402856690439632 -0.02779863675244355 0.036242827621149956 0.013823787129505109 0.026161722716472713 0.014893326806376866 0.021035999687732398 -0.02356236119279705 0.012605647068452597 0.010105472922427415 0.0047411377899366936 -0.052862253715495779 -0.054551830990692954 -0.03980013005024724 -0.02960303839544488 0.0069256372391738093 -0.013889365560086893 -0.00053109096963714175 0.029150696297039102 -0.022124645650178246 -0.04602792203629557 -0.014321689274734503 0.00027254671519299763 -0.021534252558944124 0.0080154790879481633 -0.035678606808439831 -0.047610077132579171 -0.02829797276397996 0.018496100598621584 0.0058020554443933533 -0.047499601694605827 0.014119221176585714 -0.04275854820787784 -0.031691692382925997 -0.052616451007486444 -0.039031226173381409 -0.022452418898945909 0.041787823622872998 0.020229787473324809 -0.04709209647011077 0.021358669685812653 -0.027010102371037573 -0.033740976487784853 0.012909904205458098 -0.054418640553622083 0.021859652529958619 -0.054152283147120062 0.013304719947557289 -0.06218108206118058 -0.039197090649311726 -0.0010902007366633726 -0.010697685890007073 0.0094952533914272937 -0.033885211131586504 -0.0320797192357474 -0.036537300815624354 -0.0012939639159497177 -0.001187682379362595 0.0081929433459131083 0.02289329638764815 0.0063850587634033274 -0.03064578273482757 0.003216517389036915 -0.034685936307607586 -0.045253583616279763 0.0048855778202372161 -0.0020524679054160313 0.0020049139125207479 -0.044930167750962799 0.036697685574829372 0.011165596824828787 -0.053332703399876315 -0.038650017023797695 0.020570479438096416 0.035866542496013148 -0.042498619060802996 0.01298755030440466 -0.05139753810714752 0.021899744339589338 0.044137799004187621 0.012827294399080359 -0.05889738564359457 0.017986868336593312 -0.018762015750457526 -0.022019265756089226 -0.0075905689867034375 -0.011250996916806349 0.026611362512206565 0.0044631753775239823 0.019185457320321252 -0.048241772037058685 0.018645795599238277 -0.037537954357761014 0.017012331525187094 0.030928534991168339 -0.038356445352024253 -0.033414813505393555 -0.0057057264676236849 0.025999289080600122 -0.019304161015542259 0.030510645509225835 -0.025796996693081619 0.014719018378622675 -0.011881335734214665 -0.0020671796860028744 0.017201201722437807 -0.048862009713948898 0.005583473320313323 -0.016080180767230404 -0.0011843841666028118 -0.032605443724752457 0.010559648431671309 -0.013335853451194597 -0.022692783083338559 -0.037737034583415333 0.0082354126932051627 -0.056508102087949305 -0.043104772068040774 -0.038148250075213927 0.022614721257103971 0.02180869607210573 -0.04581344386633824 0.021092754943748293 0.019069505939673936 -0.0025390205811136094
leaf_weight=71.155708745121956 14.475358605384825 964.08968140184879 75.279902845621109 300.28079634904861 7.5580971539020529 18.608454912900925 37.192400395870209 12.641393378376963 68.844776779413223 13.505159646272661 20.556154057383537 14.957973822951315 20.425420626997951 17.920833393931389 27.020683765411377 17.332149654626846 37.950466156005859 12.036759585142134 15.342694476246832 11.68191261589527 17.190879747271538 27.505331426858902 13.263334900140761 20.58779464662075 10.440112605690954 15.359085112810137 25.203752726316452 9.6303914189338666 15.589296922087671 14.898139327764509 98.321307688951492 20.304387614130974 20.75878980755806 20.060403898358345 13.650347784161573 8.2616016119718534 49.129190176725388 16.880431592464447 11.526921048760416 13.846749320626257 18.73487751185894 12.070876479148863 10.19782020151615 45.321365624666214 8.754420340061186 28.831264600157738 8.5323780775070173 22.661855310201645 5.6323447078466407 12.490797549486159 7.05254903435707 11.735662728548048 42.034413412213326 31.134833216667175 56.183418646454811 142.02785320580006 11.694257542490957 7.227261394262313 25.137364760041237 79.825176775455475 119.07070757448673 32.267582073807716 30.647999614477158 5.543931007385253 23.463560447096825 596.59809255599976 71.068278104066849 16.088789135217667 15.602699950337412 12.737024068832396 14.65809917449951 7.7246545404195777 8.2640606611967069 41.789922878146172 38.778600439429283 15.392383098602293 10.356377139687536 11.268661767244337 16.132038056850433 222.16467373073101 28.198601439595222 7.5620304942131034 6.7280611991882315 8.8518717885017377 39.459655329585075 67.347445741295815 43.900117501616478 15.3475044965744 17.146925285458565 14.960721105337141 6.0380405634641638 26.141625702381134 21.564824059605598 11.708193644881247 7.0861874520778647 14.420132130384443 13.728915318846701 7.9397591650485984 34.745749518275261 14.656880348920824 14.85978916287422 55.017006069421768 7.7133164703845969 30.978775471448898 15.509912416338919 12.054143205285074 5.4617678374052039 19.556371986865997 12.861542120575907 14.205375537276266 7.370394453406333 18.935025349259377 5.9460416585206977 20.706980615854263 21.968588247895241 8.9090747684240323 32.181913897395134 20.651617497205734 30.86618846654892 14.36318528652191 6.6046353727579108 22.674785390496254 196.52662655711174 115.62155462801456 44.436798170208931 45.337000638246536
leaf_count=305 60 2158 374 822 27 58 131 41 334 49 73 58 120 107 146 88 141 55 63 35 82 154 60 83 50 58 132 55 77 50 376 114 74 110 70 49 264 80 29 46 107 40 51 235 32 170 28 134 20 78 39 48 184 116 290 731 63 30 104 296 378 123 156 22 124 3349 277 65 62 72 41 28 49 223 131 43 57 40 93 720 70 27 42 30 183 322 188 68 54 58 20 148 74 63 24 42 73 42 146 46 70 164 38 110 69 50 19 112 50 66 31 98 22 94 107 48 120 124 170 77 21 76 1103 383 151 187
internal_value=-0.000107431 0.0281483 -0.0228189 0.0129363 -0.0285424 0.00433559 -0.00586956 -0.00331663 -0.0321999 -0.0340602 0.0495727 -0.0158809 -0.0369492 -0.0408686 -0.0105558 -0.0159014 0.0304119 -0.0313364 -0.0181439 -0.00710837 0.00964092 -0.0161632 -0.0106353 -0.0233536 -0.00634127 -0.0146129 -0.00996393 0.00337977 0.0176347 -0.00557015 -0.00810153 -0.0150472 -0.00121253 -0.0171249 -0.0036688 0.00594937 -0.0300172 0.0199323 0.00191092 -0.0112401 -0.0191358 -0.0166667 -0.0188589 -0.0119593 -0.0260913 -0.0289237 -0.0211632 -0.0311833 -0.0267942 -0.0301763 0.000458501 -0.0229127 0.00659622 -0.0112413 -0.0158034 -0.0345986 -0.0107242 -0.0431459 -0.0283131 0.0127232 0.0325158 -0.0224409 -0.011851 -0.0412152 -0.0177332 -0.0447304 -0.00502683 0.0170675 -0.00251875 -0.019902 0.00673744 -0.00236954 -0.0233485 -0.0305859 0.0115756 0.0101488 -0.0257948 -0.0191529 -0.0251812 0.0229415 0.0245701 -0.0239814 -0.0245533 -0.0122154 -0.0047082 -0.0112014 -0.00569121 -0.00919361 0.00229015 -0.0202719 -0.0279896 -0.0351451 0.0015076 -0.0123244 -0.0106968 0.00526885 0.00102848 0.000667118 -0.0148927 0.0149536 0.00330665 0.0231931 0.00291191 0.00528873 -0.0342654 -0.0173322 -0.0241714 -0.0316282 -0.03608 -0.0376454 -0.0424632 -0.017459 -0.030307 -0.0335703 -0.0414016 0.00679279 -0.00239178 -0.0363246 -0.0292407 -0.0161385 -0.012475 0.00938755 -0.0438945 0.00925388 0.00194013 0.0144618
internal_weight=5327.02 2373.66 2953.35 1389.02 2207.3 931.715 746.05 591.893 1702.65 1527.24 984.646 357.923 1278.32 749.007 266.777 175.405 457.302 529.308 106.236 239.757 200.537 504.653 286.71 217.943 243.695 131.474 391.356 388.127 339.822 30.4874 366.152 181.737 184.416 56.8079 88.9297 127.608 64.4719 309.335 44.4961 69.5414 248.929 230.195 218.124 136.788 54.0758 79.0649 78.6602 91.1454 13.8939 81.3356 41.7641 68.4836 318.585 191.653 150.234 423.072 25.1994 670.347 66.5218 183.346 419.352 119.099 62.9156 25.9694 48.6009 603.825 96.3402 27.6157 82.7123 28.3397 54.3726 36.7475 15.9887 53.5256 52.0419 113.714 92.8072 72.5028 61.2342 264.839 250.363 82.8419 29.2303 22.5022 59.911 202.564 135.217 123.535 61.047 62.4879 47.5272 41.4891 48.6321 27.0673 52.6908 107.974 93.5541 79.008 45.1021 44.1748 29.5167 75.3717 20.3547 41.4189 43.0152 44.1585 37.0723 31.6105 397.873 366.076 218.102 31.7966 147.974 71.5068 50.7999 59.6994 41.091 86.4688 65.8172 34.951 46.0643 34.7115 210.732 276.551 115.593 160.959
internal_count=21387 7158 14229 4927 11081 3586 3148 2435 8772 7967 2231 1633 6799 4089 1170 805 1341 2710 497 1024 736 2309 1259 1050 1036 596 1699 1515 1151 127 1567 818 749 261 368 488 327 1024 174 305 1168 1061 1021 609 267 398 375 463 69 412 170 329 1210 845 685 2213 112 3714 335 654 1200 569 279 142 228 3379 407 94 342 134 208 151 77 271 191 419 450 336 296 850 790 401 142 100 250 893 571 536 242 294 236 216 195 121 233 411 369 319 203 157 116 243 79 160 223 205 181 162 2101 1953 1200 148 753 371 277 226 168 454 330 160 204 131 1169 1026 456 570
is_linear=0
shrinkage=0.035


Tree=4
num_leaves=127
num_cat=0
split_feature=29 5 26 31 0 17 12 28 33 40 28 0 24 0 11 34 13 41 11 0 11 18 9 33 11 16 36 36 34 13 26 28 5 36 24 18 34 33 34 57 38 42 0 13 37 41 7 34 18 36 33 40 54 50 34 0 57 16 43 33 26 13 11 16 43 34 26 14 57 20 44 2 38 17 37 17 11 41 40 41 38 37 26 40 40 24 34 28 37 33 18 36 18 41 28 34 37 38 20 10 10 57 37 44 33 26 36 41 26 14 17 20 0 14 42 36 16 42 57 54 40 17 20 34 38 33
split_gain=2613.99 548.22 191.426 142.817 70.0664 56.9849 46.801 46.3896 34.4121 30.596 24.2358 21.1262 20.5263 23.3395 19.5855 19.4299 18.5849 17.3747 17.0592 20.7491 19.2221 17.6848 16.9388 23.7075 16.8553 18.5048 16.0606 15.5817 15.1819 15.0193 14.8008 14.3949 13.7995 13.1956 13.1351 12.9189 12.8652 12.1211 11.9996 14.5758 14.0037 11.8898 14.9581 16.0958 14.009 11.7372 11.593 11.5486 11.5313 10.8881 12.6188 11.3515 11.0847 10.8844 10.5921 10.1705 14.7987 10.1591 10.0985 9.95994 9.89494 9.79085 10.5117 12.8639 11.5829 10.7191 9.78775 9.74955 10.0801 9.74235 10.1429 11.0178 9.7352 11.0248 11.5749 9.45222 9.36004 9.40996 9.34298 9.33074 10.3589 9.31588 9.30247 11.198 9.22435 9.20108 8.91017 17.4385 17.1772 10.6726 10.4098 10.1684 16.4891 12.1267 8.90112 12.7771 12.6603 8.82632 9.74095 8.81847 13.7285 9.79396 9.65238 8.74634 10.1183 9.16501 8.91286 9.51406 9.00603 8.72596 8.6548 8.62229 8.57023 12.3235 9.07338 8.52308 8.46054 8.40015 15.5115 8.34075 10.9975 8.26951 13.7004 10.7364 14.5947 8.26563
threshold=1.0000000180025095e-35 1.5000000000000002 7000.5000000000009 4.5000000000000009 65000.000000000007 1526.5000000000002 4562.5000000000009 0.038800343871116645 3848.5000000000005 -7699.4999999999991 0.12251446396112443 85000.000000000015 1.0000000180025095e-35 125000.00000000001 2162.5000000000005 4635.0000000000009 26456.000000000004 480.50000000000006 439902.00000000006 355000.00000000006 259755.50000000003 165.50000000000003 -1.4999999999999998 2332.5000000000005 8355.5000000000018 3092.5000000000005 -4214.4999999999991 3759.5000000000005 7522.5000000000009 19572.000000000004 75666.000000000015 0.3197565376758576 -1.0000000180025095e-35 14267.500000000002 4790.0000000000009 6107.5000000000009 5160.5000000000009 -5927.9999999999991 1887.5000000000002 3.2755402326583867 46094.500000000007 -181.49999999999997 145000.00000000003 36298.000000000007 19374.500000000004 -200.49999999999997 1.5000000000000002 -828.49999999999989 1654.5000000000002 187.50000000000003 -1.0000000180025095e-35 -75.499999999999986 5.995206594467164 10.173495292663576 15184.000000000002 115000.00000000001 8.8531651496887225 3822.0000000000005 -324.49999999999994 -17353.999999999996 2886.5000000000005 1915.0000000000002 9321.0000000000018 12715.000000000002 -258.49999999999994 -2976.4999999999995 2701.5000000000005 14876.500000000002 8.1754069328308123 990.50000000000011 -499.49999999999994 1.5000000000000002 1011.0000000000001 2440.5000000000005 -1.0000000180025095e-35 9992.0000000000018 50664.000000000007 55.500000000000007 -8.4999999999999982 1810.5000000000002 382.50000000000006 -817.49999999999989 10281.500000000002 1955.0000000000002 633.50000000000011 335714.00000000006 -1016.4999999999999 0.034699128940701492 4256.5000000000009 12208.000000000002 2069.0000000000005 14915.500000000002 7160.5000000000009 2248.0000000000005 0.10714617371559144 6175.5000000000009 1122.5000000000002 7277.5000000000009 1199.5000000000002 -1.0000000180025095e-35 -1.4999999999999998 6.2509396076202401 1330.5000000000002 1000.5000000000001 162.50000000000003 10626.500000000002 -333.49999999999994 317.50000000000006 11281.500000000002 49064.500000000007 1000.5000000000001 1999.5000000000002 95000.000000000015 51589.000000000007 -389.49999999999994 5022.0000000000009 7267.5000000000009 4514.0000000000009 7.2352588176727304 7.050556182861329 78.500000000000014 6.5000000000000009 1.0000000180025095e-35 -931.49999999999989 357.50000000000006 594.50000000000011
decision_type=2 2 2 2 2 2 2 2 2 2 2 2 2 2 2 2 2 2 2 2 2 2 2 2 2 2 2 2 2 2 2 2 2 2 2 2 2 2 2 2 2 2 2 2 2 2 2 2 2 2 2 2 2 2 2 2 2 2 2 2 2 2 2 2 2 2 2 2 2 2 2 2 2 2 2 2 2 2 2 2 2 2 2 2 2 2 2 2 2 2 2 2 2 2 2 2 2 2 2 2 2 2 2 2 2 2 2 2 2 2 2 2 2 2 2 2 2 2 2 2 2 2 2 2 2 2
left_child=2 3 8 5 9 10 27 17 12 -4 37 72 13 -1 66 35 24 26 19 20 21 -9 23 -14 31 -26 -8 45 -17 49 34 -11 60 38 -7 125 48 -2 39 47 -40 42 85 -44 81 -6 67 -23 76 51 -51 58 -52 -28 -38 56 -41 -50 -24 -32 -12 -48 -63 -64 -65 115 -3 68 -36 -59 -71 -72 73 74 -10 -46 77 -18 -53 80 110 -43 -33 111 -79 -35 87 88 -19 -89 -88 92 -92 -93 95 97 -97 98 117 100 101 -47 -103 104 106 -106 107 108 -27 119 -34 -84 113 -55 -114 -66 -81 118 -69 -73 -121 -39 -123 -124 -125 -5
right_child=1 14 4 15 6 30 7 18 11 16 32 -13 22 -15 -16 28 36 86 -20 -21 -22 33 29 -25 25 103 53 -29 -30 -31 59 82 79 41 46 -37 54 121 40 55 -42 44 43 -45 75 99 61 -49 57 50 52 78 -54 112 -56 -57 -58 69 -60 -61 -62 62 63 64 65 -67 -68 94 -70 70 71 109 -74 -75 -76 -77 -78 84 -80 116 -82 -83 83 -85 -86 -87 90 89 -90 -91 91 93 -94 -95 -96 96 -98 -99 -100 -101 -102 102 -104 -105 105 -107 -108 -109 -110 -111 -112 -113 114 -115 -116 -117 -118 -119 -120 120 -122 122 123 124 -126 -127
leaf_value=-0.033736496779626139 0.050589130159884414 0.040364317040985045 -0.057939456163958181 0.034940232471653558 -0.023975162433292015 0.03129717429481528 0.0076843946437280056 -0.0058287455532696764 -0.029716606375310022 0.018103666501279227 0.029659750476614514 -0.031154952821244655 -0.022130466922253771 0.022043850517198506 0.048944968386814003 0.024641825197522133 0.020039052089712295 -0.033005449089938188 0.018171074416713007 -0.048628469570208957 -0.00055320987011975157 -0.007063560865026762 0.0087243611095169406 0.01753205407949858 0.00015139158607291284 0.0036918571224864956 0.0093673138372155716 -0.036900173513139074 -0.042563483747331397 -0.036759046267812054 -0.0075295452174277029 -0.050721738268230454 0.0036423609052464731 -0.018611246960737769 -0.014778955159049114 0.0054066625534213908 -0.050207303284958316 0.020764652342269568 -0.048231209757026765 -0.032846795728825894 0.0022042313524522328 -0.019950962980646643 0.0080606164442736557 -0.042228838718515183 0.0051576639320928923 0.0014566388421800903 -0.028302997685900794 -0.050334238856322253 0.025765131795983248 -0.017036309087653117 0.035431073052395422 0.020683993232502286 -0.0016690473112570023 -0.050217114233700115 -0.00038223561374990119 -0.041194776407065849 0.0062331304301275299 -0.02885839036888908 -0.030476368799598128 -0.050630041874425748 0.0070013258859089557 0.021006090426625851 -0.027090426011148565 -0.018217768141586276 -0.013237640411532118 0.026712796879697416 0.012263371096531845 -0.024659111652003466 -0.053295994743278126 -0.027599763468495984 -0.027224885436767397 0.0208256661506225 -0.023805904161064807 -0.041278199510758437 0.0042136056149776361 -0.039761375447986316 0.042294334581455255 -0.026560704304558092 -0.0012993923567287263 0.022335293840908703 -0.021084641967328496 -0.051162737952322145 0.016779013346240584 -0.040042567614866978 0.015843335060542873 0.025927450181437328 0.024719794423424528 -0.009634089462137738 0.017366759908770527 -0.056573088385490272 -0.035727354265238251 0.0093124696402986217 0.0033953561392594126 -0.025153230464055067 0.014645642679352019 0.036558035562798449 -0.022969891142945429 0.010641435149873063 -0.026811694823198593 -0.026929525208979954 0.00019490329110042151 -0.044428019625512925 0.002587413819208767 -0.05610073708815725 -0.058950795172074327 -0.024875034918556534 0.006365300158465999 -0.058718387899305217 -0.045640407948964602 0.021417577758866668 -0.033667130661118733 -0.018400502927505499 -0.008670984949146452 0.00067075924061045945 -0.045345247108845875 0.025615724302098842 -0.012270226899462668 -0.032091880498886914 0.031306322076363066 -0.0002037009840478663 -0.035954179837714997 -0.023579907202569209 0.036558857153448733 -0.032826462431683689 0.020371291308741653 0.023345447264213569
leaf_weight=9.6416920423507673 13.867203161120413 34.493805944919586 18.753958091139793 308.62184122204781 153.28179483115673 12.077815040946005 11.48457710444927 23.41216342151165 13.310123115777968 18.908256128430367 36.138692334294319 86.145608261227608 101.43952894210815 70.333941772580147 886.81137384474277 7.1684462279081327 21.083018377423286 14.905678302049639 6.19403252005577 182.47300459444523 19.09436671435833 36.275827258825302 11.021375998854635 21.732543870806694 22.087289899587631 13.026753440499311 6.0997071862220755 55.972255006432533 7.3887734562158585 11.542320773005484 13.175495907664301 7.4557161480188361 90.649317502975464 8.5738380402326602 44.645439758896828 24.274697631597519 13.269687235355379 221.18392729759216 194.84692993760109 99.700193256139755 6.8958743512630454 17.756901040673256 10.572304561734198 25.938745111227036 15.395534113049509 13.652857527136801 10.349336370825766 8.6973187029361707 8.9358832389116269 10.691105857491491 30.941685110330582 27.839348301291466 14.147946968674658 8.0755704790353793 8.2718639224767667 309.87095567584038 13.127502351999281 28.885258838534355 25.529164329171181 12.96484452486038 67.251392692327499 37.652000606060028 17.266076490283012 18.636049464344978 22.661308780312538 31.318573221564296 28.671222075819969 9.3972336500883156 9.684683680534361 22.075894936919212 16.670332670211792 12.959903210401533 40.416818782687187 7.8454695343971244 87.408143758773804 7.9701618105173102 8.0576759278774244 15.89038969576359 131.89921578764915 31.319752678275108 36.474298685789108 48.519379541277885 17.296813368797302 10.33523468673229 9.1740929633378965 13.181935787200926 9.2306736111640912 8.6425345242023486 16.406211286783218 21.911516666412354 37.754219859838486 38.743508130311966 19.765883684158325 17.25162710249424 22.526369690895081 12.325488045811655 5.7010977119207373 14.719109505414961 54.862886890769005 32.36731593310833 101.85769127309322 23.059532418847088 6.7421438097953788 20.00714185833931 19.26262079179287 23.539977386593819 13.747707590460776 7.5183071941137305 5.8458522707223883 22.377047553658485 7.3070684969425193 14.996080189943312 9.6995002031326276 16.22741910815239 88.044952750205994 8.7778400182723981 11.086979106068609 7.4636335819959632 13.692165002226828 40.591351807117462 13.243410825729368 13.817688167095183 16.516133993864059 8.9918407648801821 16.181325048208237 112.16187691688538
leaf_count=50 31 86 115 848 752 35 44 101 68 65 107 443 484 227 1992 22 71 78 21 1055 79 159 41 75 90 51 23 300 41 62 57 44 351 41 203 91 78 720 1122 521 28 86 41 145 61 55 52 52 28 49 87 93 58 48 34 1716 52 145 129 76 253 124 85 86 101 97 99 46 58 110 84 43 197 44 341 45 20 79 535 102 172 284 60 57 32 42 30 39 57 132 201 146 78 85 80 34 28 54 269 162 414 129 27 120 118 117 53 47 34 74 38 71 43 66 496 27 49 39 40 165 70 66 45 46 53 351
internal_value=-0.000332414 0.0270432 -0.0224938 0.0131836 -0.0275417 0.00542728 -0.0307079 -0.0337468 -0.00655504 -0.0152362 0.0124096 -0.0174434 -0.00104457 0.0149855 0.0475831 0.0291804 -0.0132688 -0.0220579 -0.0373371 -0.0376841 -0.0353077 -0.0360954 -0.00438921 -0.0150476 -0.021313 -0.0289356 -0.0313748 -0.0198675 -0.0100127 0.000628918 -0.00506847 -0.00728227 0.00503844 -0.0369542 -0.00314804 0.0304819 -0.00674425 0.019477 -0.039089 -0.0357975 -0.0465049 -0.0270948 -0.0144228 -0.0278401 -0.0350816 -0.0168845 -0.0044534 -0.0163445 -0.00414312 0.00247941 0.0159785 -0.00141827 0.0240064 -0.0349077 -0.0319404 -0.0378238 -0.028285 -0.0087177 -0.0187383 -0.029984 0.0151295 0.00297107 0.00553436 -0.000521722 0.00537469 0.0125564 0.0279989 -0.0100236 -0.022484 -0.0108336 -0.00657116 -0.00196787 -0.00936002 -0.00381382 -0.000518405 -0.0111675 0.00974876 0.00328954 0.00263673 -0.000913341 -0.00543442 -0.0432213 -0.0170331 -0.0101133 -0.0110276 0.00832845 -0.01488 -0.025638 -0.00689172 -0.044022 -0.00929449 -0.0122521 -0.0224552 -0.00156114 -0.00508694 -0.00894011 0.0175139 -0.0138285 -0.0181196 -0.0106675 -0.00688592 -0.0231144 -0.0340529 -0.0351176 -0.029448 -0.041206 -0.0162128 -0.0277772 -0.0131167 0.0030034 0.000547158 0.000380458 -0.0371786 -0.017555 -0.0418306 -0.0019345 0.0132136 -0.00215646 0.00845065 -0.0033905 -0.00949366 0.0177411 0.00553877 0.0155163 0.000840899 0.0319123
internal_weight=5276.1 2360.28 2915.83 1410.3 2213.94 950.683 1759.67 1372.74 701.886 454.268 570.786 235.126 466.76 79.9756 949.976 459.616 435.514 324.244 1048.5 1042.3 859.83 840.736 386.784 123.172 194.028 125.036 139.632 386.934 14.5572 263.612 379.897 68.9921 280.228 817.323 353.757 445.058 241.486 290.558 669.415 467.672 201.743 147.909 58.2668 36.511 89.642 330.961 341.679 44.9731 219.944 252.07 55.7807 196.289 45.0896 128.147 21.5416 422.699 112.828 165.739 36.5505 26.1403 103.39 146.661 136.312 98.6598 81.3938 62.7577 63.165 195.018 54.3301 156.803 127.918 105.842 148.981 108.564 100.718 23.3657 54.2052 46.1475 159.739 176.837 134.431 66.2763 50.0838 42.6281 25.0645 21.7558 184.612 61.8659 31.3119 30.5541 122.746 113.515 57.5201 55.9951 140.688 118.162 18.0266 100.135 85.4159 177.68 145.312 43.4545 29.8017 102.948 82.9412 42.8026 40.1386 26.3909 18.8726 89.1717 97.9564 32.2929 122.047 24.303 97.7445 31.4391 42.4067 30.553 23.0894 66.7947 53.8348 276.691 55.507 41.6893 25.1732 420.784
internal_count=21268 7154 14114 4977 11131 3624 9056 7217 2983 2075 2033 1093 1890 277 2177 1353 1960 1566 5651 5630 4575 4496 1613 559 927 630 720 1839 63 1054 1591 297 1072 4395 1458 1290 1033 961 3650 2500 1150 745 269 186 476 1539 1423 211 921 992 194 798 145 676 112 2289 573 719 170 133 360 572 520 396 311 225 185 851 261 691 546 436 650 453 409 106 202 182 628 712 561 370 232 188 111 83 846 306 135 171 540 510 279 231 590 510 62 448 394 787 625 211 156 540 420 235 185 132 85 352 389 131 653 114 539 128 151 125 86 278 235 930 210 144 99 1199
is_linear=0
shrinkage=0.035


Tree=5
num_leaves=127
num_cat=0
split_feature=30 24 31 0 24 11 25 39 18 42 41 31 30 15 28 31 25 26 18 8 44 36 20 42 38 24 4 7 44 25 22 24 27 42 52 0 52 36 41 43 42 39 20 18 52 33 42 56 0 36 25 42 33 41 31 42 38 35 41 26 33 0 26 24 22 34 34 25 43 18 42 49 35 36 25 36 22 11 44 28 31 52 24 39 25 39 18 41 4 44 44 26 26 44 56 20 22 28 4 34 41 16 20 1 41 43 41 43 41 27 56 16 39 24 44 41 25 39 25 43 38 20 33 20 38 11
split_gain=2475.27 303.94 214.842 117.563 48.2639 46.3301 52.4454 35.3494 29.9127 29.0285 32.7013 24.9755 24.7339 23.0801 22.9483 19.9528 19.8551 19.7933 18.1145 17.9416 16.7287 15.3064 16.9581 14.5562 14.0869 14.2613 13.7997 13.4302 13.2928 14.6405 12.7565 13.4438 12.5304 14.9481 12.3844 12.3741 13.049 19.7594 15.6045 12.1605 12.0635 11.958 19.7605 14.3055 11.8715 11.653 12.2108 11.3251 10.5537 10.5203 14.344 14.576 11.2533 10.8847 10.5081 16.329 11.1412 10.3606 10.2989 10.1268 10.0046 10.8035 9.95461 9.94091 10.5399 9.928 9.91699 12.0651 16.8197 14.6729 10.7353 10.6076 10.596 9.87307 9.7896 13.4906 10.904 9.77479 10.2681 9.73475 9.64075 9.56938 9.56244 9.56202 9.44454 13.0421 11.4553 9.23241 9.14044 12.1859 9.0465 9.04416 8.96718 13.2194 12.4937 9.44828 8.96225 8.83907 8.77329 8.74669 13.1563 9.45926 14.5859 9.42344 9.32521 10.7225 12.2984 9.29347 8.74125 8.73365 8.67802 9.71873 8.67024 8.60928 8.58686 8.55668 8.5038 13.9126 8.48712 8.35027 8.16979 10.901 10.0279 8.05349 8.01661 7.91709
threshold=1.5000000000000002 8913.5000000000018 5.5000000000000009 145000.00000000003 1.0000000180025095e-35 6782.5000000000009 0.50257337093353283 6233.5000000000009 1363.5000000000002 -790.99999999999989 -502.99999999999994 2.5000000000000004 -1.4999999999999998 1857.5000000000002 0.035662371665239341 11.500000000000002 0.75317335128784191 323.50000000000006 1654.5000000000002 1.0000000180025095e-35 -3100.4999999999995 3759.5000000000005 558.50000000000011 1999.0000000000002 15443.000000000002 63069.000000000007 45.500000000000007 1.0000000180025095e-35 -4998.4999999999991 0.24377291649580005 1070.5000000000002 1260085.5000000002 0.11785259842872621 -2007.9999999999998 7.0514225959777841 45000.000000000007 7.6001522541046151 16239.000000000002 -74.499999999999986 6006.5000000000009 1189.5000000000002 499.50000000000006 3991.5000000000005 3101.0000000000005 7.2452983856201181 53168.500000000007 -1356.4999999999998 6.6864848136901864 175000.00000000003 -1986.4999999999998 1.005907475948334 77.500000000000014 51425.500000000007 1408.5000000000002 3.5000000000000004 -423.49999999999994 1465.5000000000002 11332.000000000002 2772.5000000000005 6713.5000000000009 9252.5000000000018 205000.00000000003 18500.500000000004 511535.00000000006 52042.500000000007 571.50000000000011 1143.5000000000002 0.50257337093353283 225.50000000000003 2565.0000000000005 -38.499999999999993 9.8696460723876971 7031.0000000000009 4396.5000000000009 0.0023466694401577119 -684.49999999999989 1217.5000000000002 5376.5000000000009 -1499.4999999999998 0.19528312981128695 3.5000000000000004 8.556798458099367 196694.50000000003 2000.5000000000002 0.8278736174106599 2073.5000000000005 9850.0000000000018 -963.49999999999989 25.500000000000004 570.50000000000011 495.50000000000006 10142.000000000002 1944.5000000000002 55.500000000000007 7.0044279098510751 416.50000000000006 1944.5000000000002 0.040749110281467445 28.500000000000004 -882.49999999999989 -100.49999999999999 46928.500000000007 800.50000000000011 1.5000000000000002 399.50000000000006 -114.49999999999999 700.50000000000011 -1.0000000180025095e-35 -2826.4999999999995 3.1159309148788457 8.6997647285461444 2971.5000000000005 87.500000000000014 18636.500000000004 -1731.4999999999998 572.50000000000011 0.89292225241661083 1489.0000000000002 0.0019233187194913628 -1350.4999999999998 1.0000000180025095e-35 389.50000000000006 2332.5000000000005 883.50000000000011 -66.499999999999986 987.00000000000011
decision_type=2 2 2 2 2 2 2 2 2 2 2 2 2 2 2 2 2 2 2 2 2 2 2 2 2 2 2 2 2 2 2 2 2 2 2 2 2 2 2 2 2 2 2 2 2 2 2 2 2 2 2 2 2 2 2 2 2 2 2 2 2 2 2 2 2 2 2 2 2 2 2 2 2 2 2 2 2 2 2 2 2 2 2 2 2 2 2 2 2 2 2 2 2 2 2 2 2 2 2 2 2 2 2 2 2 2 2 2 2 2 2 2 2 2 2 2 2 2 2 2 2 2 2 2 2 2
left_child=1 4 7 8 17 21 13 9 32 11 20 41 18 28 -8 19 35 48 109 -4 108 22 77 24 39 -26 47 -13 -7 60 -16 63 33 -3 -34 83 37 38 -37 81 44 43 82 114 54 66 -47 74 -1 -18 52 -52 53 99 55 -12 -57 -9 -25 -40 61 -30 -55 -32 116 -61 67 68 -38 71 72 -69 -68 -21 118 76 -76 78 124 84 -22 -24 -43 -10 86 -86 -33 -36 89 -89 97 -80 -35 94 -94 -95 -29 -42 -62 100 -51 102 -102 -104 -101 106 -106 -105 -11 112 111 113 120 -93 -2 -103 -65 -118 -14 -67 121 122 -6 -77 -5 -28
right_child=2 3 15 5 12 6 14 57 16 10 40 27 26 -15 30 -17 49 -19 -20 73 80 -23 23 58 25 -27 125 96 29 -31 31 79 34 92 87 36 45 -39 59 -41 90 42 -44 -45 -46 46 -48 -49 -50 50 51 -53 -54 62 -56 56 -58 -59 -60 65 98 -63 -64 64 -66 119 70 69 -70 -71 -72 -73 -74 -75 75 123 -78 -79 91 -81 -82 -83 -84 -85 85 -87 -88 88 -90 -91 -92 110 93 95 -96 -97 -98 -99 -100 104 101 115 103 107 105 -107 -108 -109 -110 -111 -112 -113 -114 -115 -116 -117 117 -119 -120 -121 -122 -123 -124 -125 -126 -127
leaf_value=0.0078360042443498361 -0.00071916465904004942 -0.046678350535319116 0.045778354711043343 -0.005844538280951537 -0.032702114746166973 0.0018392168592991172 -0.0077625375049362715 0.00034077883352652381 -0.01765858457391253 -0.036753137352974932 -0.020053278183032156 0.030676859258390761 -0.0047830429562044146 -0.044962771847743874 0.0099990146684287764 0.048138098138518194 -0.034698080901992577 -0.012127169925797794 0.015762490676860197 0.034475761742560479 0.0091762606357070082 -0.036651221065085587 -0.012697743187551267 -0.041710865364354449 0.02929704100646224 -0.028479533114380146 0.022033766894034738 0.016007344650299283 0.015242249019803911 0.0030075944418291732 0.0081234704659949586 -0.0027691421951317905 0.01673478028490246 0.0081905827235670484 -0.029462977403489354 0.00081009484145246437 -0.045746637644740393 0.017213358168810419 -0.052677877621604065 -0.045418718682116381 0.024225715866075487 -0.045978187518733643 0.0072950727235082218 -0.010247998931582817 0.036920257731287841 0.023452968758988765 -0.021017434129387474 -0.016605534392728733 0.025419477267109532 -0.04324944079019441 0.028676545322512334 -0.018878370196927327 0.015004756353826951 -0.010670287793091093 0.033899052231745448 0.026448743464813587 -0.0010537069070334572 -0.034719673575423174 0.0076257719309799615 -0.012268820184679858 -0.017108316703284922 -0.032465283878156441 -0.049921094258782245 -0.044944490727805472 0.0083243154388791141 -0.0063918180644900466 -0.036603986025300184 0.020854456764866382 -0.016596952824865497 -0.034146980096652492 -0.049285669163978009 -0.014584772336185067 0.0064819724929022068 0.012730009648334793 -0.039238277729396795 0.013566245134581489 0.017558717894185741 0.020857741982816355 -0.025128836869500865 0.021632213541660974 0.024306266539874326 -0.035409566136704873 -0.0061599548191905822 0.0099582632712960188 -0.031100797471350458 0.010861433626050567 -0.050735549253760726 -0.039652375803596707 0.0065549793574428321 0.016910009870775036 0.032102305575095344 0.01740388883234454 -0.028209639085389239 -0.027381650236435583 0.013272031553856074 0.0084979253496304617 -0.022462131292118749 -0.0089676640942838674 -0.052610195726138981 -0.010509616560171641 -0.02249538784710799 -0.028488562962773967 0.035789420797076754 0.020818542181209296 -0.039525074680848697 -0.042242629704647885 0.016696107542061949 -0.025260466070171989 0.0082188055918995789 0.013594988997696329 -0.020309280343573131 0.037234691502777438 -0.048819280200760047 -0.024225031112012428 0.031286230169642035 0.0086777246583800028 -0.046495032689538696 0.0057788211713150012 -0.036972839295363963 -0.042052766714862938 -0.044982954964463646 0.019325788813729285 0.011288991256116654 -0.010694779863924125 -0.05807436464092635 -0.0066869845863570341
leaf_weight=64.6092639118433 14.843840241432188 14.156838968396185 218.06277014315128 6.4988011717796326 26.218445897102356 16.609419018030167 79.437929838895798 45.124227866530418 56.339190900325775 11.035278439521791 11.162782818078993 74.378540590405464 71.653597578406334 524.50673726201057 9.0664682090282422 372.60284541547298 24.042213559150696 27.162740513682365 13.914103731513022 369.4265833646059 123.07391183078289 71.354660645127296 110.1752871721983 60.036814734339714 13.435316652059557 7.262788474559783 45.004057541489601 21.389868974685672 7.6804551482200649 12.570995345711706 5.3446713238954535 8.7354855239391345 40.953462660312653 26.527686685323715 16.068732842803001 30.745292350649834 70.070062756538391 17.435221284627914 15.975869104266165 22.115911871194839 14.776749968528746 18.356649950146679 35.386633321642876 26.984276562929153 205.52992478013039 8.3520671874284726 41.029545724391937 62.260256499052048 124.0729593038559 8.4834421873092634 20.018253684043888 11.780379846692083 15.107596069574354 14.264014676213263 107.33118072152138 125.50418868660927 20.958200976252556 12.380983918905256 5.3550424128770819 55.415344223380089 12.041532084345816 17.956242054700851 18.896526023745537 114.58668747544289 5.2071878612041465 10.725254863500593 21.109972357749943 12.071676611900328 39.306546911597252 42.42624768614769 66.688599765300751 49.633679509162903 9.8352200090885145 29.129000499844551 12.348764002323152 105.57537291944027 5.3103529214859 13.388240575790403 17.400938510894775 6.0213100165128699 90.485209852457047 28.51155823469162 12.515210017561911 20.23497286438942 16.56804820895195 17.982201486825943 20.175613030791283 12.813695773482324 53.888485491275787 6.3497112542390814 19.988043680787086 12.855849504470827 67.226340755820274 10.657565563917158 9.6279605031013471 38.302244678139687 10.111086443066595 25.142309188842773 44.592285990715027 75.685166209936142 12.601963579654692 19.445660769939426 20.051917001605034 12.224656298756598 7.3555945008993175 31.278291285037994 10.193361416459082 8.0243121534585971 8.9092167168855649 5.6311248987913123 12.409200295805929 11.740923181176184 20.651302427053452 9.8536993563175184 31.999740928411484 11.463755786418913 11.464160770177843 12.0915190577507 10.754411861300467 36.819674536585808 13.205139383673666 8.8455749005079252 7.7223314493894568 19.116960391402245 7.8218510299921018 15.266889020800589
leaf_count=237 60 81 508 28 136 69 345 179 264 59 52 213 298 3002 34 835 128 119 49 1006 452 385 500 334 41 38 147 73 28 51 21 37 142 100 83 127 400 61 95 126 45 102 133 118 548 27 199 285 382 48 62 56 54 64 293 382 83 65 21 251 58 95 111 653 20 47 115 40 186 226 389 227 39 100 67 376 18 46 86 20 280 154 53 76 86 67 119 70 208 22 57 45 337 54 35 146 48 107 265 337 61 99 57 41 41 173 36 40 33 20 60 33 119 49 94 44 67 48 57 206 75 30 28 84 49 65
internal_value=-0.000188624 -0.0192783 0.0298238 -0.0247064 0.00192292 -0.0318168 -0.0361038 0.0189054 -0.0168132 0.0204249 0.0237929 0.00991095 -0.00468441 -0.041855 -0.0240802 0.0415737 -0.0199132 0.0154574 -0.0202918 0.0375355 0.0127985 -0.0219019 -0.0186975 -0.0234634 -0.0181861 0.00864553 -0.000315837 0.0226536 -0.0269597 -0.0319698 -0.0297254 -0.0314142 -0.00710856 -0.0134379 0.0010339 -0.0236576 -0.0255691 -0.0173018 -0.0214098 -0.0216718 0.0286 0.000187592 -0.0105235 0.00981266 0.0304914 -0.0293428 -0.0131798 -0.00352361 0.0194715 -0.0128119 -0.0109289 0.0110205 -0.0135935 -0.0153748 0.0253845 0.0194095 0.0225328 -0.00767223 -0.0376166 -0.0271125 -0.0372863 -0.018137 -0.033844 -0.0373805 -0.0391216 -0.0226771 -0.0318576 -0.02736 -0.0355164 -0.0185363 -0.041316 -0.00742964 -0.0231359 0.0329223 0.000157695 0.00570417 -0.0221329 -0.00578847 -0.0105333 -0.0182972 0.0156703 -0.017587 -0.0305359 -0.0103264 -0.0223626 -0.00956973 -0.0368196 -0.00628674 -0.000859793 -0.0210015 0.0134883 -0.00432277 -0.0100647 -0.013948 -0.0229093 0.000295921 0.00334832 0.00361122 -0.0454896 -0.0124076 -0.0041765 0.000241755 0.00917974 0.0193893 -0.018427 -0.0302423 -0.00772927 0.0022288 -0.0172309 -0.0265053 0.003767 0.0127676 -0.0295887 -0.000918851 0.0213413 -0.0148643 -0.040957 -0.0205194 -0.00937679 -0.0343057 -0.0217638 -0.013734 -0.0226565 0.00979122 -0.0363007 0.0147683
internal_weight=5290.47 3233.88 2056.59 2574.56 659.324 1352.86 942.639 1067.37 1221.7 1009.86 763.897 245.966 443.479 635.958 306.681 989.221 925.132 215.845 96.188 616.618 233.504 410.217 338.862 246.893 181.501 20.6981 347.291 105.879 111.451 94.8415 227.243 218.177 296.573 166.499 130.074 604.214 527.64 167.117 149.681 160.803 530.393 140.086 66.2585 73.8279 470.486 360.524 49.3816 287.02 188.682 320.917 296.875 31.7986 265.076 249.969 264.956 157.625 146.462 57.5052 65.3919 118.936 82.2705 25.6367 33.1605 148.694 143.35 102.96 311.142 213.508 109.377 104.132 97.6338 61.7054 30.9452 398.556 224.759 142.351 17.6591 91.9695 78.5813 69.4827 213.559 138.687 30.8719 76.5742 63.4613 34.5502 28.9111 89.1206 73.0519 19.1634 59.9071 64.2606 152.342 125.814 76.8543 48.9598 31.501 39.9191 56.6338 216.808 92.2957 83.8123 52.9028 40.3009 124.512 48.8272 17.549 20.249 19.9445 82.2739 46.8597 34.4505 76.6428 22.7095 46.8436 30.9094 138.142 23.5557 82.408 47.5449 55.9915 42.7864 33.9408 124.692 14.3207 60.2709
internal_count=21355 15377 5978 12785 2592 7080 5085 3529 5705 3285 2391 894 1854 3568 1517 2449 4427 738 457 1614 824 1995 1610 1214 859 79 1397 334 566 497 1172 1138 1278 753 525 2975 2635 787 726 780 1567 560 288 272 1358 1848 226 1185 619 1452 1324 118 1206 1152 810 517 465 244 355 599 446 123 175 809 788 504 1622 1079 586 493 543 267 154 1106 900 545 85 396 350 329 732 654 155 340 309 153 156 383 300 92 209 273 672 572 372 200 121 152 323 977 390 342 199 138 587 250 77 81 92 408 187 127 388 94 154 143 768 115 355 253 269 194 164 460 77 212
is_linear=0
shrinkage=0.035


Tree=6
num_leaves=127
num_cat=0
split_feature=29 5 26 31 23 26 33 12 23 26 23 24 19 4 6 11 39 0 4 43 21 16 25 40 0 27 40 28 27 0 50 38 28 43 57 4 53 37 57 37 11 57 4 31 11 20 49 11 28 40 28 39 57 2 4 23 24 35 36 4 34 53 9 0 0 35 35 38 35 20 48 19 11 39 48 25 43 28 21 4 50 16 43 57 21 2 26 20 33 35 1 38 50 43 28 23 24 34 39 0 40 53 17 57 28 48 26 37 20 57 39 39 50 16 21 36 0 23 21 26 26 4 0 43 53 57
split_gain=2271.1 512.369 171.906 138.442 82.228 57.6088 55.9833 38.8786 34.1275 33.4039 28.3173 29.2316 24.427 21.8838 19.7814 17.8103 23.2847 18.1897 20.6871 18.6335 19.6199 17.4869 16.6342 16.2902 16.1436 15.6947 16.8118 15.4798 15.0311 14.5389 14.3259 14.2488 14.0307 13.884 13.6031 13.5372 13.4154 13.1274 12.7381 12.319 11.9152 11.6686 11.6572 11.1134 11.0322 12.1277 12.8986 11.5559 10.9955 10.9525 13.4745 10.8742 13.2003 12.3923 10.8625 10.8418 10.8369 10.7017 12.5355 10.6784 12.2084 12.774 10.6083 10.575 10.5389 10.5281 10.3913 13.5603 12.256 16.8004 10.363 10.3325 10.2209 10.0417 11.9792 10.0254 13.2912 10.9781 9.87092 10.0564 9.63443 9.66525 9.63261 9.56333 9.52944 9.5031 9.27349 9.26423 12.5668 9.03779 8.98229 8.96768 10.8621 8.88962 12.5485 8.88014 11.1794 8.79951 10.9191 8.79087 8.77082 10.1018 8.71887 11.4343 11.8943 8.71782 10.7313 11.9613 8.70389 8.68497 8.62435 9.00189 8.60694 8.50298 18.0073 9.47032 8.45434 8.34317 8.32153 8.27475 9.27126 8.22694 8.85825 8.15831 12.4783 8.14972
threshold=1.0000000180025095e-35 1.5000000000000002 12137.500000000002 4.5000000000000009 0.94666931033134472 11700.500000000002 450.50000000000006 4931.5000000000009 0.66183212399482738 4373.0000000000009 0.91541624069213878 48440.000000000007 938.00000000000011 33.500000000000007 1.5000000000000002 16006.500000000002 300.50000000000006 35000.000000000007 57.500000000000007 200.50000000000003 680.50000000000011 7039.5000000000009 0.60350802540779125 -762.49999999999989 95000.000000000015 0.045746678486466415 -640.49999999999989 0.16666386276483539 0.043078482151031501 115000.00000000001 11.086096286773683 40297.000000000007 0.6385159194469453 -1.0000000180025095e-35 7.6016521453857431 43.500000000000007 8.9969615936279315 9775.0000000000018 9.2948184013366717 15587.500000000002 9036.5000000000018 9.2104907035827654 53.500000000000007 6.5000000000000009 1375.0000000000002 1733.5000000000002 7.0702991485595712 2903.5000000000005 0.042946103960275657 1.0000000180025095e-35 0.067785814404487624 2073.5000000000005 8.3450989723205584 2.5000000000000004 47.500000000000007 0.99433627724647533 1951.0000000000002 -779.49999999999989 -3031.9999999999995 49.500000000000007 -582.49999999999989 8.5155916213989276 -1.4999999999999998 495000.00000000006 245000.00000000003 -347.49999999999994 -1298.4999999999998 611.50000000000011 -1015.4999999999999 1457.5000000000002 12.045066833496096 826.00000000000011 741.50000000000011 -2499.4999999999995 8.6289134025573748 0.60350802540779125 -26.499999999999996 0.83066716790199291 10000.500000000002 51.500000000000007 9.2241940498352069 194924.50000000003 -13.499999999999998 9.0001130104064959 1000.5000000000001 2.5000000000000004 6468.5000000000009 1224.5000000000002 162.50000000000003 13509.500000000002 1.5000000000000002 3136.5000000000005 12.403916835784914 891.50000000000011 0.029990060254931453 0.55038952827453624 30681.000000000004 -1177.4999999999998 600.50000000000011 225000.00000000003 159.50000000000003 4.7229433059692392 3021.5000000000005 1.8688347935676577 0.94488826394081127 9.8374814987182635 7400.5000000000009 -495.49999999999994 1999.5000000000002 8.8653821945190447 -1.0000000180025095e-35 -799.49999999999989 9.9055604934692401 24271.500000000004 1732.5000000000002 -136.49999999999997 255000.00000000003 0.92356428503990184 7801.5000000000009 6810.5000000000009 4889.5000000000009 28.500000000000004 55000.000000000007 -31.499999999999996 7.2452983856201181 6.9092540740966806
decision_type=2 2 2 2 2 2 2 2 2 2 2 2 2 2 2 2 2 2 2 2 2 2 2 2 2 2 2 2 2 2 2 2 2 2 2 2 2 2 2 2 2 2 2 2 2 2 2 2 2 2 2 2 2 2 2 2 2 2 2 2 2 2 2 2 2 2 2 2 2 2 2 2 2 2 2 2 2 2 2 2 2 2 2 2 2 2 2 2 2 2 2 2 2 2 2 2 2 2 2 2 2 2 2 2 2 2 2 2 2 2 2 2 2 2 2 2 2 2 2 2 2 2 2 2 2 2
left_child=2 3 6 5 7 15 9 30 12 13 11 23 -9 110 38 17 84 -2 19 20 -19 89 -13 71 118 26 -11 -15 34 95 35 39 117 112 37 44 43 108 75 78 56 51 -12 99 45 87 -47 -46 -27 66 -51 52 53 82 65 80 -31 63 -59 60 61 -57 -29 -49 -48 86 67 -50 97 72 90 119 -70 -37 -75 76 77 -7 79 -23 -30 -82 -36 -80 93 -58 -21 88 -4 -10 -62 92 -26 94 -17 96 100 -68 -99 121 -25 -102 103 -78 -105 -35 -107 -108 -6 -16 111 -1 -18 115 -115 -24 -104 -3 -14 120 -8 122 -5 124 -74 -77
right_child=1 32 4 36 28 14 10 8 21 25 42 22 24 27 109 16 33 18 -20 54 -22 31 113 29 91 48 -28 62 55 40 -32 -33 -34 105 41 73 -38 -39 -40 -41 -42 -43 -44 -45 47 46 64 57 49 50 -52 -53 -54 -55 -56 59 85 58 -60 -61 70 -63 -64 -65 -66 -67 68 -69 69 -71 -72 -73 123 74 -76 125 102 -79 83 -81 81 -83 -84 -85 -86 -87 -88 -89 -90 -91 -92 -93 -94 -95 -96 -97 -98 98 -100 -101 101 -103 116 104 -106 106 107 -109 -110 -111 -112 -113 -114 114 -116 -117 -118 -119 -120 -121 -122 -123 -124 -125 -126 -127
leaf_value=0.0040829354058627629 0.028104997837969402 0.048261282887055328 -0.018958964606506402 0.021665140815540614 -0.035437679075145431 0.0044444843827326731 -0.02729467778569241 -0.020238849156738396 0.018500198773249009 0.00067957894488090878 -0.0030537280651428936 -0.036043927951109743 -0.021450637697251418 0.030277940917456624 0.01481401470845616 0.016642004125989745 -0.011198619355423671 0.017501437760946988 0.051060546065115175 0.023355406872471153 -0.0056958471366600743 -0.029661028517838441 -0.02531331612260615 0.0079591930915210007 -0.040297123943575618 0.023895789159921327 -0.047272803695059616 -0.0091701140098014357 0.0034683980502765231 -0.04129371292237137 -0.054200596747971619 0.009182328068202605 0.016746899184166983 -0.031812131149428831 0.016289478299682126 0.010812976031307377 -0.0002638506593858262 0.023471458293069927 -0.033012019958398649 -0.044296543951024329 -0.039468575212343135 0.0067329039381120673 -0.042649446557712405 0.033516427979033508 -0.04439837623580855 -0.059373410181906942 -0.03152427323385678 -0.035416562187062503 -0.027551656543110915 -0.04183436445515594 -0.0097771168353605158 -0.001679827899357601 -0.040593082012840884 -0.04425650553766166 0.025465801188940547 0.029711680045416522 -0.0048772353898722228 -0.033565490865860394 0.0002416509886553089 0.024726955143571875 -0.014234552544361786 -0.024800748422682088 0.015789268741285261 0.010773441168717642 0.008744396761042543 -0.032119398202620268 0.042538711736486878 0.024915300523581624 0.0062481822240785462 0.019993438479329145 0.011604329981722918 -0.056734019888175155 0.01268138117104727 -0.0035598938652666979 -0.045391378133965099 -0.020228080008754944 0.017179343745375338 -0.029730381345411561 0.016107470957274321 0.00092103468497402785 -0.039956199624042156 0.003889287248551334 -0.020941558088502659 -0.026225847152384612 0.02733804463170009 -0.03706472072282873 -0.022810690945067023 0.030743592162974075 0.026655206054965398 -0.026862823256709672 -0.055724305051417629 -0.049584904998126206 0.0031961525411475697 0.024954159298755073 -0.035691317185278605 -0.027229861042746065 0.029040136235816624 0.01797560761805532 -0.021571797969625217 -0.0051960898735924138 0.0016737535321867793 -0.03711528534114273 -0.022267255484607486 -0.029582023243612528 0.022113011343914 0.025156584732399293 0.0090477473327679817 -0.043311955285576707 0.0040645946272588147 -0.014402629832189489 -0.00036325524932429395 -0.047789721036276232 -0.05706155427238923 -0.059020788925428509 0.016987200402720695 0.015323948033128103 -0.055972290185912148 0.040100733004724068 -0.052682646375903669 -0.043759463102658568 0.023496695942503004 0.029743286670475124 -0.01061753667395198 -0.050312696144423324 -0.046799598673528155 0.0061331455566881127
leaf_weight=6.4327408075332668 97.309743106365204 677.66408902406693 28.577084794640541 31.788015559315681 9.020081430673601 61.157991603016853 8.1825301796197909 84.236658602952957 16.524152323603634 13.810758054256437 175.53745613992214 168.28307367861271 77.461185023188591 57.698797211050987 63.176557093858719 9.3922314196825081 9.5566148608922976 212.76419681310654 14.053599491715429 10.535659462213518 55.936798259615898 167.35489577054977 10.174157708883287 42.92454206943512 411.56262059509754 12.895748004317282 24.334497928619385 31.379189625382423 8.8249356150627118 13.466826200485228 14.366659030318258 12.488919779658316 21.917693972587585 9.3077794760465604 18.037502005696297 27.762909859418869 19.762551233172417 30.867070734500885 27.114194989204407 49.328364878892899 24.405447319149971 31.938815429806709 8.6222563683986646 275.49171811342239 40.19491620361805 9.7300460785627347 17.177079379558567 67.746687278151512 31.403212383389473 21.088467493653297 62.425027593970299 38.077788308262825 33.81498771905899 9.4188703000545484 7.8836116790771475 10.933914050459864 93.539261177182198 19.325222313404083 39.595892727375031 8.3522467166185361 12.468186140060425 8.4601507186889631 58.263287052512169 6.2143389731645575 13.544550612568854 23.996232777833939 10.370560839772223 6.5902366191148749 12.537074357271193 17.661967903375626 5.9364076256752005 14.931643575429915 9.4914499968290311 27.850995019078255 11.120254650712011 16.704497650265694 12.552686914801596 13.13732588291168 13.29223181307316 14.22550494968891 55.233631700277328 6.7271649390459052 14.398430004715918 11.068377166986464 34.233100906014442 11.847710907459257 8.9150692373514158 8.5920432806014997 8.9165271967649442 6.7855084240436545 14.417135834693909 182.09513534605503 7.0121133774518958 11.101895004510878 11.462138086557387 12.193670138716696 16.071567460894585 30.995097354054451 10.738597154617308 13.422293722629545 17.996937021613121 14.020576402544974 36.953619569540024 29.506004944443703 5.8700627386569968 16.090313106775284 12.78446453809738 7.8633829802274731 20.940993592143059 14.618956893682478 73.673372730612755 9.6239304691553098 11.145115971565245 9.4025523513555509 5.4541986584663382 17.920001715421677 12.552897617220877 253.94417576491833 11.990406006574629 9.2604691833257657 7.4701006263494483 98.913604348897934 14.527151986956595 13.259350478649141 6.4721590876579276 75.251144230365753
leaf_count=25 293 1499 136 99 49 238 41 411 58 56 737 911 381 169 218 31 42 712 30 33 233 869 51 162 2323 43 140 138 35 74 88 48 72 48 65 106 78 102 142 280 136 124 49 756 227 61 90 366 159 117 274 157 187 54 24 33 398 104 165 27 58 43 202 24 52 122 27 21 48 60 22 91 34 119 65 79 43 67 48 59 304 27 70 57 103 64 43 26 28 35 88 1084 29 34 59 61 50 108 52 54 72 75 178 149 19 50 47 44 83 66 296 55 67 59 19 64 76 628 73 53 24 284 61 78 38 288
internal_value=-4.56233e-05 0.0256886 -0.0204852 0.0120949 -0.0275042 0.00437061 -0.0102939 -0.0312297 -0.0345331 -0.00165189 -0.0168884 -0.0212224 -0.0383961 0.00802948 -0.00638064 0.0113917 0.000186392 0.0148363 0.0108991 0.00898196 0.0126691 -0.0241598 -0.0310925 -0.0138577 -0.0405799 -0.0097312 -0.0303375 0.0162873 -0.0119527 -0.0104135 -0.0208291 -0.0266833 0.0454262 -0.0142941 -0.00601653 -0.0191989 0.0279264 0.00779676 -0.0105689 -0.028467 -0.0175891 -0.0117978 -0.0051279 0.0292073 -0.0228034 -0.0123884 -0.0261248 -0.0279098 -0.00642512 -0.00819797 -0.0182713 -0.0170143 -0.0246082 -0.011048 -0.0101926 -0.0211696 -0.0128046 -0.0226278 -0.0112217 -0.0100559 -0.0159797 0.005882 0.0070475 -0.0314436 -0.0140546 -0.0170903 -0.00248756 -0.0180453 0.00292574 -0.00788414 -0.0286896 -0.0343857 -0.0198665 -0.00504692 -0.0163333 -0.00814516 -0.0131155 -0.00191311 -0.0244797 -0.0272732 -0.0304065 -0.0352097 -0.000369547 -0.00340259 0.0147844 -0.00881017 0.00211486 -3.24932e-05 -0.0077006 0.00473308 -0.0376837 -0.0426783 -0.0395626 0.00091485 -0.0124388 -0.000379955 0.00347414 0.0151701 0.0075329 0.0215615 -0.00231878 -0.0159218 -0.0215512 -0.0105804 -0.020632 -0.00334037 0.00452491 -0.0119722 -0.00858844 0.00921066 -0.00556037 -0.0279871 -0.0373813 -0.0113138 -0.0318053 0.000243146 -0.0317525 0.0460822 -0.0261732 -0.0193187 -0.0030995 0.0240531 0.011529 -0.0309061 -0.0127713 0.00117832
internal_weight=5287.22 2340.36 2946.86 1386.83 1744.01 932.928 1202.85 1406.14 1065.43 521.146 681.705 497.545 774.358 237.071 368.596 564.332 132.937 431.395 334.085 320.032 268.701 291.068 211.234 286.311 690.121 284.074 38.1453 147.341 337.868 246.467 340.715 267.758 953.526 66.7477 206.515 326.349 453.905 60.8281 290.8 255.269 143.259 145.686 184.16 434.143 259.614 86.5373 40.4517 173.077 245.929 233.033 83.5135 113.748 75.6698 41.8548 51.3306 131.354 118.854 132.882 58.9211 60.568 52.2158 19.3941 89.6425 73.961 30.7216 43.447 149.52 37.9934 111.526 59.422 32.8217 39.8447 41.76 66.7342 38.9712 263.686 171.731 74.2953 205.941 181.58 70.7857 61.9608 32.4359 24.3606 66.1894 105.387 19.4507 46.0857 37.4936 23.3097 26.8853 600.67 418.575 31.9563 20.8544 103.207 91.0136 52.1043 41.7337 158.651 74.9421 32.0175 97.4353 47.9288 35.3761 46.0459 36.7382 20.6478 29.9611 77.7955 89.73 16.0567 20.7017 42.9509 14.8568 28.0942 49.5065 931.608 89.4516 24.9131 15.6526 145.229 46.3152 29.223 15.9636 91.9556
internal_count=21380 7109 14271 4910 8940 3578 5331 7412 5755 2140 3191 2405 4301 885 1563 2015 525 1490 1197 1167 945 1454 1104 1301 3890 1255 196 509 1528 1092 1657 1361 2199 298 891 1569 1332 234 1279 1313 672 657 786 1254 1279 393 203 886 1059 1016 391 533 376 189 222 637 536 659 269 271 244 76 340 390 142 198 625 180 445 258 168 209 198 290 184 1137 770 305 1033 928 366 331 135 105 227 462 76 190 164 93 146 3436 2352 124 90 420 359 187 160 498 309 147 465 211 168 189 141 91 132 284 376 80 109 193 78 115 254 2127 454 118 65 444 160 150 72 367
is_linear=0
shrinkage=0.035


Tree=7
num_leaves=127
num_cat=0
split_feature=29 5 26 31 23 26 26 47 6 0 34 28 23 11 4 22 18 28 25 42 51 22 35 4 27 28 44 35 4 22 44 47 42 11 0 43 22 40 35 17 19 43 17 51 26 23 11 13 22 21 18 14 40 27 19 9 14 0 17 33 13 4 19 33 19 40 13 25 39 33 2 19 42 44 28 18 14 28 0 23 21 43 35 15 35 44 37 15 17 21 39 35 0 33 19 5 51 21 11 34 17 7 42 42 7 26 0 28 51 0 4 33 47 23 4 35 28 18 28 28 28 47 22 28 19 11
split_gain=2217.97 454.393 163.705 117.169 79.1732 56.2884 49.5946 45.134 26.3623 26.3277 27.8966 26.604 25.0958 22.3838 21.9732 19.0623 17.9003 17.0522 16.8332 15.3579 15.0136 14.9659 14.1033 19.5875 13.884 15.1981 15.6189 17.6022 13.7086 13.6897 13.4147 12.7305 12.3731 12.2299 14.7547 15.5593 11.9028 11.7759 17.1348 16.9756 16.6721 13.8255 11.7495 11.3585 10.9447 10.4436 13.8308 11.4268 11.3646 13.266 12.3352 15.5686 14.7673 10.6767 10.1982 12.31 10.1921 9.98643 9.969 9.80894 11.7126 14.7904 11.1843 11.9982 10.8824 9.8028 10.3488 19.1315 16.8693 9.97846 12.4155 10.4513 10.6012 15.0257 9.79048 9.78804 9.69518 11.1065 9.85292 9.48247 24.2842 11.2176 9.44108 9.40285 9.33985 11.919 9.30181 9.20502 11.0005 9.11563 9.03962 10.3318 9.0147 12.168 11.1961 10.3813 11.4757 9.50994 11.0025 8.93401 8.92193 11.4768 8.91415 12.5589 9.71142 15.5793 10.5211 12.1916 8.7008 8.66087 11.1523 8.63398 8.62291 8.53045 8.48402 9.62643 8.23196 8.12775 10.1784 8.0766 17.9838 8.30606 8.01807 18.5703 9.38869 9.13311
